{"layers":[{"neurons":[{"weights":[3.99513857270601,-5.2063279064700945,-4.7086329439781833,-1.3740390501028135,-1.5593914250936369,-3.0215119632031997,2.9776794557577522,-6.0987283045449683,-2.7603540487549432,-0.51248910535681924,-1.9495465424117036,-3.5816306036981516,-3.35452232178856,-0.79926991560505711,-1.8212370642775888,0.050869221979063871,-0.70724914183483911,-5.2638686047428642,2.404743321106114,-5.8110879935700197,-2.6741452123326273,-0.23319481632068795,-1.1546435336240226,-4.6649922230468439,3.0017162717766985,-4.5954708897324297,-4.3925652149647885],"bias":-3.5224631298125537},{"weights":[1.223418180929873,-0.48410428653989801,-6.9894654395262679,1.821295713975374,-3.0335114137232924,-4.961575052176749,2.6898929819331987,-4.7843046932462618,-4.0648092855456195,0.67115097108230171,-2.6330612908629436,-4.1517993913918145,1.2348577585839684,-3.3479454041206975,-4.0055621159926389,-2.724816853579048,-0.99287676574798633,-2.5273411437129862,1.4168856869022775,-1.4266283305024523,-6.2212442762096813,0.66300410885212391,-3.0153644244436477,-3.8784674041115124,2.3806504020686479,-4.6242194763583599,-3.9499646137356978],"bias":-3.9163405139571927},{"weights":[-0.40627617588391407,-4.8362459910530999,2.3462240138050463,-0.012341549037643748,-2.8286305765377144,-0.12594298342042182,-0.85577650269821959,-4.6015446968453935,2.4959245020666474,-0.62823522591317438,-0.61853336391848124,-1.6814286218001131,3.5735903090129155,-8.4669176380456008,1.9589830627726095,-0.87837148691117617,-1.19113464333126,-0.90835462459179606,-0.26502301631196162,-4.6199976570240606,1.9961421260485175,0.22554628598702381,-2.3986836970912297,-0.78492434008051615,-1.3305063484827691,-4.0297857875555483,2.4235193438174916],"bias":-0.029289543106073113},{"weights":[-0.23533101565169706,-0.13119397119768619,0.28207561160308842,0.14961610357867181,-0.38683334261085517,0.10313394977423053,-0.11468211252446089,1.4545873163208409,-1.456250594691787,-0.37982283282029561,-0.17150650087755798,0.38888054162298197,0.49416388073314321,-1.5529973014270599,0.93923600625356218,0.029012557327154184,0.0052508148135838933,-0.14362523407943856,2.6015180090836347,-0.40017589456109448,-2.2626249949878092,-0.1982085556433511,-0.70203342881973796,0.84567516063914028,-0.44065455075736298,-0.20867286639625426,0.50171143010909192],"bias":0.030705589863050272},{"weights":[0.43011258394340185,0.029645655979391373,-0.97360510474591466,-0.54221770524986346,-0.72920801205273389,0.79379119755459038,7.399337618774779,0.033198947310520574,-7.9974663178328687,-0.39953833865199656,0.93976413259964242,-1.0886754819512583,-0.30386602078175534,-2.3453879267411311,2.080240845771939,-0.21556180755750004,-0.36488633763711437,-0.027185168805183704,-1.3622862210934452,5.3114701689601489,-4.4890838801253468,0.54780260956175508,1.3659782840676171,-2.4899159630721894,-0.50065142707651611,1.6116002604589965,-1.6278333689991535],"bias":-0.2827286389340915},{"weights":[-1.6887910163312201,0.87464930489902715,-1.9281262453588475,-1.3483186287563762,1.4624467166268849,-2.7813716700179123,-1.3462873206344299,-6.4930832849659454,5.0546650429845634,0.8244609483267531,-0.86276006615719159,-2.6241635438072883,0.56249355029486492,-8.5008835010428925,5.2107815297176705,0.75997747718157038,-1.3366382273793369,-2.0394744819669981,-1.4242500621329657,-5.1415236786685634,3.8431506886030742,-1.3377550528651547,0.28195594277464442,-1.593327400814937,-0.47361891864648131,-0.67454449782729142,-1.4836822344744225],"bias":-2.0171866760396853},{"weights":[0.29158480552738542,0.51847004804475083,-0.54981650127407233,-1.2753137682039497,1.7188391061059729,-0.22153019392969181,0.83025089759285042,0.46268089917646127,-1.0610901603862255,0.027570626180952428,0.76620698132227028,-0.62440655860133987,-1.0469603736954112,1.4071897534725946,-0.090718126403541294,0.10625526251170186,0.77421237367029261,-0.56902538505547051,0.46052911020460041,0.96267700891399133,-1.1278739817764525,1.106843464529186,1.134494160099462,-1.88520311628224,0.11420703620941412,1.0220113798946455,-0.89037760187893344],"bias":0.23095425006548068},{"weights":[0.039486892055831418,0.11441051476549825,-1.0184002631385374,-0.60099723134996175,-0.58407549041561746,0.4268220222708255,0.022666376428302451,-0.53801043420289452,-0.40963190543670641,0.42240445650764957,-0.77957394913157096,-0.43157505126252255,2.7480258949518106,0.87282942741065983,-4.4753777131876671,0.3037534987122042,-0.63474741896610953,-0.5344546870750978,0.11595398070475788,-0.87538438112298045,-0.14747052596137458,-0.60962967667602397,-1.1186413284363272,0.83395173055089877,-0.11651317241951147,0.46280507717081515,-1.2053781723695378],"bias":0.69974355207188732},{"weights":[0.73317300648173667,-1.9956735922168543,-3.1814545363054885,1.9743708899370092,-2.2551116915935956,-4.2205834190957994,-6.9074775200830425,-0.62258993042177779,3.0025431634020152,0.96398297621551099,-3.786872584906722,-1.5279813803885871,-6.3701512670012983,0.63917540016255692,1.2081453313897201,1.4554168388239754,-0.85846006448111845,-4.9803248184196249,-3.2342295733247499,-3.3639978410080418,2.1915430889226832,0.18205704544838441,-2.3282707042639972,-2.407179955658707,2.0224677211567554,0.082927120815171257,-6.4832607690614834],"bias":-4.0462751237572263},{"weights":[-0.54254459165099378,-1.4025244079237524,0.55688460963060071,-1.4681597323459181,0.28385849351343151,-0.15292927641727039,-1.159274474433279,0.47061302235227254,-0.60334099344788605,-0.59871933483955009,-7.1624831290525117,6.4891407711056006,3.2386704969258826,-8.7803393375321868,4.1793246862125981,-0.68559650930524629,-5.8257696046093193,5.1856067575102891,-0.45131722806000707,-1.0610871482842787,0.15168651494299423,-1.2144466396928535,0.52572534140800042,-0.64109410591813654,-0.45374790447509278,-0.04658257621152908,-0.862548069035878],"bias":-1.4133325127294305},{"weights":[0.47398868143823214,-0.23170043384974556,-0.46557002210166609,-0.22504163911203739,0.17607797312505144,-0.13052974857352026,-0.069862396863573789,0.21166912812522323,-0.37849673203646256,0.44262115830077553,-0.53639201720609586,-0.089084042126715612,0.27221486385704607,-0.41357725353392294,-0.12482747572315117,-0.96682497673874013,0.44929811904389416,0.41106495287556016,-0.14432019390520337,0.23199891045519799,-0.341867887269591,-0.24222448347997566,0.2113986384318659,-0.083238294241635744,-0.74406690978671874,0.09617089601105519,0.46076930581464604],"bias":0.55847643500313626},{"weights":[1.1760844396454573,-5.9982360654154023,-0.67993020052886999,0.65245973263419721,-4.2234203355479201,-1.8243137246380075,0.99989293725906014,-2.5451440545596942,-3.8594755159806273,0.17081715926171495,-2.9310612606157385,-2.7177097111878883,1.7082254910778742,-3.9364882162148978,-3.1810514785020474,0.75988172172451174,-1.9049629656663654,-4.3181718593356004,-0.19270847443525116,-2.9645621253058301,-2.2954868503070212,0.45311399726325768,-3.8725224098327384,-1.9626932966176698,1.2625268923617026,-3.91797655212032,-2.7621467366349557],"bias":-2.0304243841452605},{"weights":[3.2104231285068914,-3.0136250773124784,-1.2526168755254379,-0.54962597499318266,-0.23447157118490281,-0.35137830815859622,-0.74355372442114076,0.71939179130770803,-1.1186472811052959,-1.019373412185504,1.1273153569713084,-1.2518769424806704,-0.40521794699251124,-2.6634882482211566,1.893413271788803,-0.50654567920307825,-0.055091083742990717,-0.52574286894224564,-0.65467858931639222,1.8337523198289976,-2.3148778712873752,-0.58920481382493806,0.68287837371419891,-1.172145065978258,2.724832711956684,-3.3925737976047041,-0.45818144271667799],"bias":0.33899664512373984},{"weights":[-0.74569226660641497,-3.5694866363141093,1.3474900930124822,-1.8782694977575691,0.28038659796664073,-1.4048384810617927,-2.5900576233920996,0.31673609178641676,-0.71738866047126004,1.5450558901461244,-0.91596693469080948,-3.7043793680488282,-5.3576625848602193,-3.1051256347483522,5.5002893870689515,0.74186422620302184,-0.43402727893083698,-3.3038026796455329,-1.8715202342735686,-1.0707786254789944,0.034865405177493113,-1.203242252104656,0.82687557580375193,-2.5769951669410087,-0.91412473548080453,-2.121163256666208,0.0084245388314957738],"bias":-1.2190074429542597},{"weights":[2.4415993397749274,-4.6125113366018455,-5.9139343455046456,4.133108111299256,-4.8487791002813889,-7.3232186294032218,4.6865164023749841,-5.8878383616931815,-6.8969444288391664,0.42024420572113119,0.31270186403029904,-8.9097764995628488,-0.84219865858934506,-2.8317860305420846,-4.5397664995330977,0.01211767039967643,-1.0833385161674125,-7.0654957137568326,3.6462136039725448,-6.7921753523932145,-5.052484187344664,2.9327897948268968,-4.9582316120565011,-6.11089876427042,5.2766116038626718,-6.5139625356333939,-6.8048651514590421],"bias":-5.4820685914095844},{"weights":[0.6522636836428265,-8.2308853094081122,0.93258135703631739,0.21623166029047419,-7.3095817368843488,0.34070425612337374,-0.65756290973743403,-6.861525085879955,0.77688456528646166,-4.2845752354937376,-3.7605653195373732,1.4185826767306822,-6.9439095990542414,0.37460925842412618,-0.17143268344417142,0.39309944764925847,-0.43516422713624103,-6.6599243341094532,1.6236823837599788,-7.1717314934733887,-1.2516038506107212,2.193527067433704,-5.4641111935215685,-3.3799963965675213,1.3147866937602095,-5.8660645494325134,-2.1682937151012651],"bias":-3.0219891804860186},{"weights":[1.0555925478955497,-0.2022261064347137,-0.79284569698808305,-0.077514973989207522,0.16460295603568728,-0.080035086149090579,-0.15927257445616405,0.41499404165817028,-0.20781959507845568,-0.82878648894863349,0.81443198032626174,0.077768708894810482,0.40881299844148439,0.066034329624678242,-0.48004096517573036,0.64609579965139374,-0.014453433975739526,-0.55546917494383252,0.09275793851423314,0.16687605661984836,-0.23737627589800467,0.091353039576039047,0.14327840482980761,-0.19863421273468729,-0.65557419650295035,0.78356688593714929,-0.10726063190866643],"bias":0.44519343969137887},{"weights":[-0.50075219679473426,-0.34204631636565974,-0.48941568017899917,-2.2248089041154619,-2.5072669395450786,3.338505240782355,-0.93735271731345604,-0.55204839562659136,0.06405595655527016,-0.74247242271988634,-0.357797596722501,-0.28316430992120173,3.222396028301425,-5.243674258023594,0.59368626647607126,-0.71425701377706818,-0.25809438330065143,-0.364669986406368,-0.86594548561455864,0.39148244094556128,-0.88653108038779993,3.3207004014411501,-6.363116108931079,1.5743540246383947,-0.66479318143327304,0.50272476727084547,-1.2528418342920737],"bias":-0.31605681166844607},{"weights":[-0.045103404581087525,-0.071959174148991001,-0.035032274459529798,-0.66972004014898689,-0.37136655058954732,0.72034188337879423,-0.3904097478040881,-0.2367856661658789,0.38139310646617663,0.50654638166490418,0.46039211251905626,-1.1902867508444497,0.72493645963301612,1.1001321035294227,-2.0915099042458256,0.98642387027892287,0.07104651418251047,-1.2807961755904771,-0.11475088787519032,-0.38956441772736933,0.31716925984750882,-0.5435157866644077,-0.45486671167140313,0.76544744228611594,-0.25080477324541178,-0.23338389042849014,0.33987246103857094],"bias":-0.29223966776916499},{"weights":[-0.028772980043682523,-0.016865171240059124,0.025396126034129104,-0.25993063901822872,0.11251789288926385,0.12514488655673145,0.25451684418736109,0.042763234498653477,-0.25011718918781173,-0.53708346255580375,-0.098396124956510608,0.58405742102333669,1.5361733590039688,0.0068876587854176758,-1.5179348681800333,-1.1706850359344407,0.15422742255598565,1.0157974165426329,0.25754525129813965,-0.12368928013333642,-0.15771602582518252,-0.78771483015547195,0.32692691344056063,0.49739498009379762,0.48535827065585879,-0.54702847735927485,0.11738804641167593],"bias":0.73090626448988638},{"weights":[-0.961437122531273,-1.3731338676225702,0.27461251230011047,-1.1009783581603865,0.046016973711971346,-1.091419772105032,-0.98939763629315791,-1.2430909080382089,0.2112870641941707,-0.43003827100183656,-1.6826772436472222,0.078388787782781258,-2.0931247487008053,0.54320603111500332,-0.5372974894660919,-0.41744250359758328,-2.177471663002728,0.56075848329932976,-0.52551694365262236,-2.9076807974647099,1.4040160457640909,3.9779736976005897,-3.9634676549055756,-2.0282572677301385,-1.1529643904403954,-2.5909970425144579,1.6691671380620996],"bias":-1.5723271145477928}]},{"neurons":[{"weights":[-2.8694415809246188,-0.35795907471394195,0.0051200356352146675,-0.13622740263149888,-1.8171951586172199,-5.9541923664797594,3.6896108026157624,-1.612494486303655,5.1988633712850705,-9.1107930863467512,-1.4813865754454552,-7.081331777651422,-1.3828004469179327,-5.7804929747998228,7.1581060392670475,-3.6240081959162036,3.1664938809873679,-1.5349454337698385,-6.0371534326845184,2.5336628173411961,-2.8262932029691283],"bias":-1.8634858070058513},{"weights":[-3.5596279514794138,0.20482540550496195,0.82468010508248835,-3.1525799634248912,-0.92261641111994674,-3.4018179934675747,0.94500821045317018,0.12887836009440085,1.7274557655818363,-0.11340148950174031,3.9291995755107756,1.0054074416305037,2.0010944839119116,0.02500338491886625,0.30203820523575309,0.32552487519971751,-3.9394239189085059,3.1976610048305041,-2.7768862939021455,1.2833374602974441,1.4072130409526507],"bias":1.7774102926570097},{"weights":[-0.97763815233570928,-1.613252169830762,-4.6767497103641578,-1.6744726941675123,-1.1936027816696828,-5.9724281275609563,3.0709927133539576,-1.8242630251744978,0.41990616409267162,-3.2580809943412574,-0.50175313908636121,-1.7295836976048444,0.77984182552312986,-1.673906282240271,-1.8593096305677261,-3.116815153092785,-4.111539785735852,-3.4454270494406019,-2.6126183586733416,-8.0918011573152526,-2.3478862666785423],"bias":8.2024011447293397},{"weights":[-0.77469794487662691,2.6614925599567485,-3.5781971744411707,-2.0057635342362974,-4.1855131736338391,2.1705792263356969,-4.3452608648645406,-2.1518880229212671,-3.8873010851854084,-2.4377290350698049,1.2708297500812773,-1.2954587324242584,2.4623195880660447,-1.4221031884540674,-0.90906941765722238,4.3451803981702781,1.8674768560228416,0.55463540833404024,-3.1277881588471814,-2.922299641049221,2.9147835008839742],"bias":7.7706698206086422},{"weights":[-3.1032828627470512,-3.8161322579893211,-1.8043554292895465,1.8099397070949192,0.62718514186307128,-0.70709196892251092,-2.3867534666343997,-2.5656614254158954,-1.4014973014561085,-2.9118973728459232,-5.5213383310804112,-1.1409044812678748,-1.7226764105044114,0.57871400229948633,-4.0441395559920235,4.9003816485082945,3.4530614514384572,0.13192158134154613,-5.6467115832340866,3.4295775419497381,-0.76335433878646797],"bias":5.0010633492476604},{"weights":[-10.567026203120598,-6.9944721173704529,-8.4832451805577733,-3.9541446329585614,-4.6701120160788943,-5.1940706622290191,12.049608804958321,-4.9953421368801338,-1.6951570738226456,-4.9400539549414244,-0.31027689014633186,-4.1831552265613494,-1.9267644327892972,-0.80317819637949694,17.727056226337361,-7.0988836515003992,3.8916235234035406,-2.0296287068501817,-0.74511387979706911,2.8612777826448008,-10.377787569756045],"bias":3.8124481199733662},{"weights":[-5.7021122098005197,-6.9067133375210794,0.21878851100763153,2.6832525450400433,-2.2832388659349152,0.55319668722717685,1.501596261615227,-2.1384565342853046,-0.23590446756220529,2.5397611290944893,-2.2504934340110925,-2.6712431053626275,-1.7053436842281646,-1.0744264218878696,-2.8120287534552491,-1.2941125809111098,-10.474634612502291,1.8563469892298192,4.5462051488236934,-1.4211029527905241,0.10685701846903188],"bias":6.0912775551068297},{"weights":[-5.6176508621400378,-2.4020289603358136,0.30574181586863708,5.884848117113096,-6.4412603235906225,-0.65318726841880359,1.9879824332865708,-3.8692594361700161,2.7694204722130524,0.5290529470900871,2.3205788177261888,-5.1153521642850581,-0.10760579173077978,0.32590497768091781,4.6926681679419096,2.3691574735198384,-2.6505205125475939,2.8591134743288036,0.78600470577942061,-2.471427842674168,-2.6853892552928169],"bias":0.76614615666072272},{"weights":[-3.843597063760174,-5.8945919712956654,-3.4327701124198029,-0.32181882515745275,-0.0079074672043837595,-3.2377323230922941,-5.2579865179789191,1.7322927504579684,0.44093090090753834,3.6334507291133833,-2.3484237966158665,-2.3117899015885262,3.5866223171940965,2.4301286638449975,1.7613238263657562,-1.227572123179324,-0.97865386084465233,-6.6143496566329691,6.1909023830884324,1.1747143912630347,-7.714729946633696],"bias":5.1166903802400485},{"weights":[3.9551465407178186,0.6337898896929397,-0.1002308426480978,1.8560869452508997,-2.343759543009007,-3.5332791646469697,0.50166481177556188,5.6339064927407838,-0.89373556095512185,-3.1070026774406712,1.3472998357661026,-3.7231902631583846,1.3162198784910051,-1.6845490554597289,-6.7397065520659378,6.2951842467343866,-1.0955296437775173,-2.9319409460783632,-9.9340767915789172,-0.88420666041006823,-2.5138708246289072],"bias":3.9486400135892041},{"weights":[0.032544021852207006,-6.7932032670854658,-0.59400851947436428,-1.8821742093879921,0.22661264504921158,0.4852855006641959,1.5634007143634465,0.69872746510969508,-0.32982717841834613,1.3389661388524925,-0.79277054774646394,2.1720947303537996,2.1270902149815574,0.91119549919549192,-0.78847003712272623,0.17198423912818808,2.6176923674424977,2.0079193964591391,1.0582208060999911,0.082169851303753982,1.1142147371896793],"bias":-3.2617429325315159},{"weights":[-7.5300710721611379,-2.6976108723083625,-0.97535440693201991,1.5175771786932688,2.0342372550454915,2.9213678621483954,-2.4768863717561342,-6.444767483770697,-1.711042451588499,2.5531123865493743,-0.30365325495307344,3.6551756756679898,-0.66492444948701601,-3.1041216340393594,8.0307241887050296,-8.3742463005728052,1.7275566532151598,4.0085393434516581,5.8325918694283203,12.421732364311104,0.63613911298150416],"bias":-13.028280257203804},{"weights":[3.2397404007287931,-3.7779592565230113,-3.3687325005964048,0.16950473754858844,1.2205828261422358,2.2483213774698902,1.5913649858108598,2.8069559227746548,1.2791406466773527,-3.8822545067446597,4.7456266101485776,-4.304379896906509,1.2773128387326045,-0.00062266584299061547,2.5174006604999346,-1.1265595908919876,-5.4510065063741662,-2.2728280222919222,-3.19471422470802,-0.25284657135102928,-2.3928781652522275],"bias":1.8620826073246723},{"weights":[-5.2748647588167223,2.0799807389023681,-3.7969232465515335,2.0153442553980936,2.7192151003719389,1.9872245609729584,-2.2429841549293399,-7.0113118918065762,-3.3049380996269622,-1.4499699427208814,11.084977605469401,0.79819389095732352,-7.7621475563747522,-4.9742291178489317,-6.5976685435850628,6.2066053162181252,5.9037210458895739,0.31803517312241847,3.6422662890564146,-5.3139690712082368,3.0823782484743631],"bias":1.6341862380157568},{"weights":[-2.1436367455023859,-7.4398497826900893,-0.22343078299331542,-2.6323883787948943,3.8686532944523941,0.11934892258093047,-4.4862295568097119,-2.8349306068876734,-1.5427231146793037,2.4955149808839341,-1.141718361253427,0.43840414768009484,-2.5003637318013441,-2.8395645532545153,3.0466971030376877,-4.1274850945669685,-1.4698261632567482,0.29606589121205396,0.95243940201858779,-1.2826046624788963,0.13232550826966683],"bias":5.6719381351957772}]},{"neurons":[{"weights":[6.5666089033654576,-0.66689116744785071,-5.2660116233863263,4.5324111700565375,-13.019907312741241,-8.917060308845647,-20.251879834751882,-0.58078453314883072,3.0924220075294011,7.0628372660346752,9.8620233217536839,-12.923177872108703,5.194606038863637,3.460288458415516,-11.048812228192775],"bias":7.9702563740273025},{"weights":[17.630661502094963,-1.2437562450244879,5.6111458495753697,6.7215159106389279,1.4723145484118849,-18.076283664584167,-6.1979882722261452,3.9783964572669337,3.87797259916091,1.9943865682665693,-20.522426104274796,-6.0022257619091448,-7.0162585378651938,-2.8171213415901266,10.45848980406806],"bias":9.6352704001773155},{"weights":[8.0100866969732625,-2.5437390329158784,-6.4879911820361107,-14.184482366219823,6.013691203546399,-4.3092165530309412,-4.57169619995563,-12.96233304540719,-7.0375958435242012,-7.2855123986268175,-5.02682158660435,-13.645668635583339,10.790650315375444,-0.63870093462732513,4.2184419356947709],"bias":15.559527549599828},{"weights":[-5.807488107237881,3.0157046877998708,2.2341828017904679,-7.6293133319970208,-20.101678178618865,-14.442742148458906,0.87415366733109534,12.317506242058494,2.9441775303045703,-10.02756254714901,-5.3452587063201502,-11.639742729574614,14.251301481237014,1.153525126722148,6.1796904570386113],"bias":7.2498665808993463},{"weights":[-12.893338155579928,2.2320634867143063,-8.6388766271929534,-3.7442487051696101,-6.6620450691324207,-7.973544201866944,3.1169330516357752,-1.9849339697418618,1.0742855567481759,-0.36352185539222343,0.84521908550761016,13.749902004259214,-8.5115871811364414,-0.95642407519765449,-2.3865349011848225],"bias":8.4260305862591487},{"weights":[0.5032287158468256,-14.982849364433052,4.9219030317518104,-9.4475282978822612,0.55632306414790034,-9.0689575599178092,-3.7606904074313192,10.265113161211005,5.9854039916639818,-14.522875264302353,8.2859235965630962,-20.444004578426629,-10.697797040348947,-7.818490161153349,3.9233387334306538],"bias":19.336530841308601},{"weights":[8.235602557513154,-16.46730936151496,-12.19582113101867,-9.6617594940735163,-4.0357869565116058,-4.0776935558518828,2.1572443076317129,11.448909652692663,-8.6174235759822224,10.122924214316511,-10.010053657570513,-5.0622607542374567,4.3114867606449643,-1.5876526492557681,-8.6118919751471186],"bias":18.323611774517055},{"weights":[20.531292489196151,6.5189144270265844,3.8104450623903579,-5.853904892015656,-2.5399334797390707,-11.338407732528191,-0.022233681198820639,5.9028092042448526,-17.57524598828461,-1.8909107980356998,13.386770941405302,-11.250389779272583,-7.1166998259433694,-4.6059953776669689,5.4431917711506701],"bias":9.5107835561513596},{"weights":[5.0578775731420453,3.1453689624821219,-1.8351470358752595,1.4124446366152854,3.8023941923553046,0.50021866869003462,6.2119869416106868,-8.0553418532696792,3.2434978341203333,1.5875154608914173,-2.7685126345590696,-13.642658673246464,-1.580168067147488,-24.031631931403261,-4.1182950783380985],"bias":9.4685068087788995}]}]}