{"layers":[{"neurons":[{"weights":[1.4907503020447364,0.47664100307428869,-1.2686771198055831,0.37257759500585297,-0.95985602229813471,-0.00062351138448085231,-1.0639293073076186,-0.20376014317907654,0.10275995265615469,1.3513840718326495,0.47880544074035458,-1.3076796917524278,-0.32799179020625341,-1.5571179882440644,0.051116616467860587,-0.1347337405494152,1.0154069990132928,-0.51315605629633843,1.0047253833333827,-0.03382412922322979,0.22555844989272456,-0.89640710958265701,-1.0391393298007325,0.18794686213070888,0.45998439665134166,-1.4437431035501267,0.43453165070551752,0.0060020288453620646,0.57654926195888057,-0.29164004950334532,-0.23428096020241926,-1.1395284491478741,0.16598604895068286,-0.023981629680414514,0.13573759595235774,-0.16024512313988554,0.29165310131298194,0.026086496280095201,-0.34944864957943172,-1.0738509333299175,-0.74798549321396879,0.37693440884898627,-0.16374597457128715,-0.066848729495022463,0.53729234425589045,-0.70429061025511974,-0.22936297351171714,-1.4935956313395582,-1.5480135885962349,1.6502830005543205,0.27462697458405855,0.89460013128610971,0.19979716726094202,-0.24019450686576632,-0.88529187023792555,0.18148225622162709,-0.060076635672479839,-1.6899886279018081,1.894168404639248,-0.28278156283564926,-0.11536390387421143,-0.16009323132427303,0.15059096212511033,0.89220944887000531,-0.54818400718425009,0.88248014023513077,0.7026613837720066,-2.2773390691413984,0.67983631395316779,-1.2643763710192366,0.23919253979373534,-0.42248026854106002,1.0181206670506679,1.0643949287042986,-0.19459879824672502,0.86821439170937698,-1.099917239876337,-0.17981096315329792,-2.2237783656367403,-0.3994603444100297,-0.0054545325296286914,0.13419513280736814,0.43248625600894092,0.74777408412468138,-0.42356755971787557,-2.1134306291966429,0.020905260004620063,1.0257973497515394,-0.47414408633622762,-0.35535467345179012,0.33463315022727091,-0.64426309025322104,-0.77432093139642388,-0.57937601473544265,-0.80032061875040439,-0.29578169199312632,1.3555467553694001,-0.037350763523820621,0.2565681394597093,0.57473295457107021,-0.87792232136784754,0.23906956537702556,-0.41606714282325513,-0.94115515659764337,-0.53933086695735244,0.42864303513763347,0.2220796041060811,0.32534051514185131,0.570478744655188,-0.71930919378000802,-0.53239954876584217,-0.64872948451690482,-1.1223341749145048,1.1671173135292967,0.86244628113074528,-0.10486216408290491,-0.5342320205585237,0.92866397897243225,-0.79978390803073651,1.2028605642581807,-0.72345808316490046,-1.2050953132375237,-0.46539523977993053,-0.36742379077736237,0.43198754836496461,-0.023430787475028084,-0.61383937498902064,0.20190867152501124,-0.44654032522193909,-1.079029940897011,-1.6837587922055159,0.45699227184729185,0.75248009136822214,0.54572398536943645,0.67577635397099256,0.73833270492229275,-0.5294430602236313,-0.48371187917479691,0.94767910657182464,-1.4664274788709841,-0.0072647146890417232,-0.46494748843742634,0.030072891646368068,0.26378811425986631,0.21870457238850294,0.5811697196718919],"bias":-1.5287323547034177},{"weights":[0.15012494946877436,-0.80294708729959186,-0.14507091338675354,0.26276219875346651,-1.058035746307125,-0.44777016978826728,-0.40375550571574387,-0.45550988044763907,0.66841405431137735,0.96046896838683971,0.80676683751408418,-2.311268439242574,0.12106393575947764,-0.6127155878998346,0.7946836912871581,-0.76267899299647413,-0.082891944648593174,-0.98124793153981815,0.99894499844713436,0.39129482141711175,-1.4426130806490218,0.28676274155065445,-0.47227815768659759,0.20701677560688347,-0.4371368360243707,-1.2768237293534952,-0.28658376765251037,-0.14913186799375144,-0.73383977299599223,-1.2037294715010771,-0.076134223428278566,-0.64193204589388575,-0.018224293092907577,-0.56718072739127567,0.250081506103708,0.97716836607465429,0.70192074954940686,-0.9416871111924664,-1.6613890838475662,-0.60969338565259878,-0.72452126248414317,1.0489971740032302,0.37811773179473207,0.63361576650656892,-0.85154516353063003,1.4909981734033069,-0.54397234567375119,-1.4548789582117878,0.38538030382051103,0.41681305872921964,-0.24071517773660109,-1.5333960320928683,-0.52213186976294068,-0.26073287878102719,1.5951607956887377,0.43715409217399387,-0.34879182025755939,0.85468526246260579,-0.5135272859130896,-0.11548517314239394,-1.7843821695229038,-1.2843448930570494,-0.95563292418911594,-0.028157712157817243,0.3588536875251998,-1.9744741791906901,0.39655353296062812,-0.47602511300202033,0.36882494803298788,-0.39956408907077839,-0.66352422549985812,0.29628968583003057,0.53739987008550227,-0.76951306232025429,-1.5487926534618639,-0.24541885402000793,-0.30263400983541283,-0.59562763434897992,-0.13576815840429199,-0.13978686720707109,0.95164459046999905,1.1073535371500354,0.1339599176591473,-1.7581327679652594,0.25778327199479945,-1.3983729169541526,0.16014585364187153,-0.65294567364035472,-0.25193832429095681,0.32324987755949447,1.7903115539431127,-0.20837277088284559,-1.0604811407969046,0.8332281743754093,-0.70518212683776138,-0.41154808575811236,-1.1597236798081001,-0.77031016536264241,-0.24615828272666201,0.47948929575836569,0.96466159659187067,-0.49797110758772917,-0.23890967620947445,-1.0591415043727794,-0.54875413415616414,-0.20995119434120982,-1.3615887943341554,0.48437283593105296,-1.6021235635104716,1.2457866879626693,-0.5906239920518781,0.26784126667357738,-0.96853739684996365,0.30855858169581424,0.19441924589182416,-0.54406222358501433,-0.39842796952276521,1.0058156891632766,-0.17528694467980238,-1.9348806878323737,-0.26562331208572609,-0.50617724194770741,-0.75282684403601519,0.22950371119351654,0.51075726658756515,-0.12064208095553425,0.88972656675936601,-0.1219907081838406,-1.6736593262460437,-1.0770806970453639,-0.11419176001938806,-0.45387702972384641,-0.04982717193760007,0.40261124926566627,-0.020905348518117574,0.092928273521366719,0.72100737975674323,-2.7059906624470149,-0.59713966356520276,-0.56899712597413299,0.69219493936856646,-0.21612946416173878,-0.35490918006577304,0.96615496902484954,3.0395134548153084,-0.45629827047593319],"bias":-2.5652622089245987},{"weights":[-0.44678528786249644,-0.17621839507648018,0.094773460222163791,1.8211917921128553,-0.29957918830161806,0.26747275424024208,0.066145371568456734,-0.69496680033036562,0.48765846565282012,-0.01776347165956102,0.29328728645279295,0.72863136415817231,0.38643892628430387,-0.33757455328187247,-0.5007386019737895,0.050637600075136784,0.44126665914064633,-0.19729686998624901,-0.39597464723626319,-0.34571214733084255,0.54006665143409349,1.1043458630264833,0.25668145051797242,-0.35152934840406669,-0.085756652881220335,0.27745949112249763,0.11091552930644819,0.010489610099877247,-0.67979641147363346,0.4483781074033743,1.0367123490918984,0.063844004534805668,-0.042986942557425148,0.31393299097739397,-0.22166236735437425,0.10404712959804595,-0.41491921532222231,-0.11494185561816721,1.0306477504224001,-0.47873954275681613,-0.27692214028122436,0.13140686963669188,0.71097185337311131,0.1968630829950995,0.074076233331695898,-0.035919561568204687,-0.38014422887806415,-0.65928890722187283,1.1750478338360697,0.37183663969379838,0.16218283805314673,-0.16740109697802674,0.25830904948343103,0.31985179771342032,-0.16604997876058905,0.3930805697485833,1.236962577967297,-0.5324065718107106,-0.48099098123809841,-0.22014080164828223,-0.29655949751126309,0.35489458357221854,0.65730069593611795,-0.87297695093306105,-0.71297368117890059,-0.13139375614386789,1.2326095467498965,1.0996122079956432,-0.36091894836541727,0.61125694807793929,0.55024933988689217,-0.47801676277950628,-0.32860017951561971,-0.04914041867463053,0.30927911191509772,1.0584341322101858,-0.39848998353630077,0.22944057716969993,-0.032154671039194727,-0.016106760142509155,0.041886480949000562,-0.16199085649618525,0.37702351893019309,0.79993279302795961,0.69962181058659323,-0.064962450022968271,0.057252539125757194,-0.66454254789684164,-0.18054880173731919,0.0003505767397368852,0.20673393506447574,0.16994125508031513,-0.076805074475099447,0.98367906892894308,0.4277954670065221,-0.073510717637811376,0.053165961731953218,-0.3942435991628534,-0.28533841452273107,-0.37147002820787078,0.0042132761482055244,0.27008722770011401,0.54871524425481499,-0.14631053487190909,0.022065804872874718,0.0054780061827016642,0.26044271685833353,0.26582288879438853,0.4281816339246135,-0.27512794757519271,0.48835175708711964,0.25064720247458366,-0.46193661583564416,-0.013712057462579752,0.15591918013887998,0.37686620677644544,0.038579788515278005,-0.27281579926929167,0.58119256360227767,0.55895055314470343,0.88398050266796546,-0.29912941848644331,-0.20115154926874909,0.00086227150639218465,0.049789059586881498,-0.4336890925204,-0.81047653062895797,0.5149767902401261,0.84146662577664277,1.1373218865363253,0.60894085161945855,-0.32486782292437655,-0.65180175815090147,-0.26072797170752698,-0.15632962953319396,-0.56900468485648137,0.056080193974653816,0.045547738928952329,1.2382001547938617,0.1804538124193184,0.26687471315485872,-0.43587062079402999,0.63585334011064776,-0.47707867283621191,-0.099369168076062914,-0.60174652314653754],"bias":0.49304091343564188},{"weights":[0.018943804967726002,0.57375183649728945,-0.2038648611463332,-0.12827492088866677,-1.2544710262019165,-0.20436010515917447,0.83249950814903639,1.0921622557348383,0.34984439120789002,0.73399273497764439,0.55304965306726916,-0.014666475231296753,-0.11019878554059996,-0.86462112576376704,1.1128776976583148,-0.55752799826437283,0.012476292520841205,0.10057558697970236,0.44076135750696949,-0.042202588302043202,0.10238781068969524,0.11616203697858209,-0.0048344983686413011,-0.11190054759330971,0.16149204124150038,-0.23387484126317526,0.35940066628180684,-0.039826271431283422,-0.35356472755208429,2.4531042299276442,-0.58600607893520884,-0.29662069319625239,-0.21425983033098364,-0.50307556175223211,-0.40809564322564923,0.9350826257292284,-1.5945219181229284,1.0516230971532097,0.79445036220322618,1.161406820389673,-0.89038210919047789,0.50409996099387988,0.048827781237774627,-0.19055165114333109,-0.056311395101899926,-0.50351431850697614,-1.1557698765906994,0.61650102583887045,0.41140821259010468,-0.44962568133244879,0.80853474027659455,0.746766500135009,0.52222474423272625,-0.14130772389297216,-1.5131318135505949,-0.39696029370489072,1.4809896939361882,0.77724984437354594,-1.0301998250006505,0.56426588571849712,-0.059292660793080272,0.16010924443022101,0.6635397775369748,1.7129729151014563,-0.10796049711425967,0.85759617742622851,-0.12006664565678787,-0.55750270475565489,0.29491282233845001,-0.84666629298835616,-0.69496027614962885,0.37190751209680917,0.13830996471666099,-0.70790616385795524,0.9456586529620965,-0.19500159252666538,-1.6495007685344352,0.7960890727677562,1.4731296950467991,-0.45989768176522566,0.5586741701737572,-0.57857833682483795,0.0096518079965565058,0.64298493560110559,0.3425666801700708,-0.32208717800640679,0.33282336915510352,1.2356456153842572,0.17217340300019546,-0.69999047228652178,-1.1431536109463232,-1.1733774914161503,0.70088416827757538,0.55930130384455234,0.94644682362454458,-0.047588041723125966,1.3206595839584565,0.30842197151096573,-0.449227181570307,-0.046489141189285224,-0.65913252275345069,1.2855134266145121,-1.1815785509740728,0.39567633313420353,-0.64399742401984272,0.83956614715622402,0.29580093693084081,0.76865804294427698,-0.30516491431478387,0.17255054067388589,1.0708961765232117,-0.38356832159141574,-1.4909220785029869,0.29862469449702295,0.55504555153328261,0.21564593624560702,0.92617328302037261,0.069924609843006941,-0.61579972910150815,1.3568240146568276,1.3200748656088075,-1.1714577764938821,0.020775561137902535,0.68624893826892375,-0.81556041098628573,0.088324061722788227,-0.86432026136668938,0.68774315123671648,0.51804492025013893,-0.39765031144882584,-0.36299274914326457,-0.47919758348072722,0.34556079188636984,0.89115314133518464,0.74978863646112504,-0.48470685469375979,-0.73126398783327107,0.16829398578486779,0.97283028565729379,0.25983881745254489,0.27938375590321879,-0.06006413510805967,0.63192262744084415,-0.073913207157023486,-0.33436349984618485,-0.082921218002847519],"bias":0.50809203315808316},{"weights":[-0.88991290258574707,0.59744183573289211,-0.12371805349583717,0.56721949109177039,1.3072594463059632,0.21776751197778438,0.34925727100137299,0.43788351675096315,-0.67521359423659899,0.35195398474146278,-0.11612582875279805,-0.21963438963289186,-0.5335724998699195,1.2417906980253768,0.31493792300101675,0.14305596813623728,0.042169999952177392,0.64890000792135483,1.1334503450857234,0.41404496995978168,-1.1191612647522138,1.3764642195873724,1.191334058152111,0.039128501074968076,-0.012690022682055596,-0.31117757238727478,-0.9061193965282176,-0.62156719334844068,0.28066208911334101,0.47237166302642414,1.1087899806945576,0.16563626055882652,-0.12378320752754328,0.45317633146344649,-0.1179674386150191,0.19286354211014506,-0.90073978898925944,0.10287991221828198,0.69932278719234098,1.1024672038873435,0.48782621848634594,0.99138553900139104,-0.68353980082266985,-0.0035753282170994287,0.042084537969107799,-0.45992363823634691,-0.66766032518526053,0.61818738705164289,0.85318607518535083,0.97569610409042384,0.02171872560627305,0.49377449847666099,0.15902298184079128,-0.13001025904230032,-0.26616907134073381,0.58584479798707267,1.2922030384360317,0.59771716771037575,0.17969185644886196,-0.343886585917692,-0.022053547952022409,-0.48603784224578706,0.39780213454014962,-0.42900023903728629,0.71748920385697001,0.73303447330190397,0.43770800930418202,0.90283019822222155,-0.43066050422176927,0.019120400950499522,0.21956123300797362,-0.29184898135137283,-0.0023136542500787117,-0.11845681904655053,1.3598634367030769,0.27974373635824584,1.0645023986671034,-0.19446561085642347,-0.47496274125858395,-0.12891352896529953,0.18026602589144408,-0.84497268158346917,0.81944856530106891,-0.15432772561507294,0.48653963657777055,0.76631396830607568,-0.29114765098738499,0.20867340456351852,0.25154993380418939,0.58322166513440354,-0.40408466953352745,0.34168293212057949,0.43875219129623894,0.96683111089638685,1.4498811345053408,-0.73838855320020536,0.73798902888795714,-0.60632820309163649,-0.23130524327244437,0.32281769643140562,0.2776092217671724,0.80460525768469759,-0.42127548272279469,0.24868703327597017,0.056600485431510757,0.63045110949870731,-0.26205431410072927,0.19583693858249576,-0.25521623328459819,0.76494543875108878,-0.0078608237199180118,1.030012457071787,0.074321643399715795,-0.59974965313060413,0.36130373616192829,0.42097246325042426,0.093420980857483987,-1.214036124425365,0.31647489396241407,1.1614748945807754,0.24068624095376101,1.3350599025994012,0.18635050423097349,-0.49460193439405831,-0.045702721969429178,0.38697720855811046,-0.99189339549632249,0.58519301213745223,0.22385846352435812,0.81814946070244954,0.089291817786476449,0.36517377545385671,0.83017364135256855,-0.58641599010018586,0.32339069888141736,-0.20364180439828033,0.33235516180843078,0.57389975596541409,0.98954889519207123,0.5539810765175962,-0.015774596786250695,0.13189231394483017,-0.062740866981771101,-0.38570115232632091,0.30408037057285747,-0.088287728436251878],"bias":1.4260671807199401},{"weights":[-0.96680437567188526,0.40642185891600746,0.89205735200512315,0.33128076512455273,-0.024866716392249827,0.30196019830188198,-0.4334910110897332,0.5845719614827608,0.12232195903304389,-0.91386702364846939,0.82207572001511386,1.0552880876536019,0.59209475982411452,-0.90411499532009831,0.26634558954421628,0.48007168197742139,-0.12444913336621165,0.11179186122692557,-0.33081734942336066,0.53061742757060437,0.51894913834115974,0.14649697925448693,-0.68974091109709479,0.5460630965426192,0.19444079398993788,-0.2888654108709075,0.8643660077710783,-0.81675907309132745,0.301411779404268,0.74260652718734199,0.62507954408266075,-0.33037448811391967,0.45144888710512759,0.128932297805923,-0.38403776027620229,0.54367469978700178,0.075738288852395669,0.27817072603839377,-0.77659028941029618,-0.28134847585794909,0.2009372823605011,0.77177651880627129,-0.10846278034420603,0.11175870897218537,1.1502817930292932,-1.036119995819085,0.98738197092691249,0.3233443154086264,0.55139722558294235,-0.88446730748010072,0.4013699028189136,0.5538960292786631,0.67247677663941796,-0.18953848798731088,-0.65245511034935622,1.0896057653952238,-0.51437791913992115,-0.076541244106992923,0.32868934650265746,0.15497398586718555,0.94590636117960014,0.68467440327610007,-0.58413782944410275,-0.39131654105790126,0.16003322657846814,1.0590851763515063,0.13669470715469859,-1.217046449895502,0.093642533724406382,-0.24814776001207742,0.63824163655866695,1.2361023653241643,0.26695527751530029,0.45907148458987629,0.44137021963548401,0.63248086287832361,-1.0216400213694832,-0.020851459921355866,0.66697693486440079,-0.15554533755046401,0.14447807084870362,-2.1165853999268056,0.82267594897083474,1.9747705081347797,0.18741865613205108,-0.50165297225966221,-0.056078677985520749,1.0078368890720693,0.16093340632579542,-0.047882277423506363,0.79486182849946541,1.0936270703741429,1.2203348507173413,0.035848774386867482,-1.3481804787220963,-0.037356756963305801,0.3509293002842141,0.058189996994015225,-0.74755580911796093,0.40596489115878964,0.89332503202927516,0.25668262561135402,0.89637932002405263,-1.9968041011973112,0.020787448018217882,0.668308473435965,0.035056433309256396,0.2010265901214815,0.0058691084035598709,1.2372656086514577,0.50463483535279763,0.18604300013876038,-0.42698089058946931,-0.50426566677409379,-0.22526825544148324,0.53827631281089394,-0.076629923892075846,-0.013097572243121761,0.4320505324799957,-0.10321942604992965,0.13549791504265357,-0.6992648318925494,0.78083168952873727,0.82273413524502592,0.19298446221234658,-0.19138040125393982,-1.1296883725007683,0.49808508754614617,1.5826845032932952,0.55553340998863288,-1.7555821519972667,0.52835940667715964,-0.11292392538666783,0.41287419561840111,0.88570874796563248,-0.29718216580075196,0.6481595121906113,0.81501597254945768,0.54693497732904983,-0.64551475592773921,-0.29719830469993108,0.39290384125604122,-0.0028264135241648294,0.15345343986125654,-0.60726941213194241,0.091725437782920471],"bias":0.91249326668800856},{"weights":[-0.447497434841515,0.64940307488709748,0.42122770023667777,0.69935932686524171,0.22527344162157356,-0.6792052362543064,0.1614047989126948,-0.14539555404609167,-0.13116202418822817,-0.29650903623032121,-0.085496928445164655,-0.21260243472445206,0.75371420547082335,0.60361128813629317,-0.36518226462074921,-0.50978354821232352,0.36136894021451371,0.14904573617338898,-1.1654533970410215,0.77672487138209123,0.33616739322643974,0.84047818540842389,0.52499171443338721,0.96325669144587223,-0.66228702397048367,-0.70699059518825991,-0.36631040884493687,0.16549569744991813,0.8060321884058449,0.35425158352125685,0.2153725250982198,-0.42141457222535894,-0.36084018835476256,0.35686867968518887,-0.40029255303969696,-0.026944099548135012,0.56665224405743375,0.49111256736529041,0.16210697426398535,-0.012804743203750822,-0.17979990966542161,-0.36250023903581741,-0.42781589781443508,-0.15065157581237046,0.55397053637330962,-1.3164351211862231,0.52899898870821471,0.21091639582934715,0.61787520833752863,0.68778358403694839,-0.062956418369521511,0.64320553110736223,-0.28443157341315606,-0.4279673821265581,0.41262777294654568,0.0061095759052534069,1.3337565257132207,0.58986805772836959,0.41519861813597281,-0.52346887999284997,-0.48698242529125868,-0.69720413747615007,-0.76214776496448577,0.63499715124980061,0.15695596035507201,-0.72200558276558613,-0.090185868902215374,-0.22458520868545595,-0.14407280043156934,0.14036410417805864,0.23225481043353605,0.5327184799131045,-0.2196278455835074,-0.78123814076491038,-2.0758842962371173,-0.42370187208251758,0.74749321729010787,0.4715230446069601,1.6457801699675567,0.95535810565191304,0.28458865986539034,-1.1658752224228486,-0.34903514758565651,-1.5837902832443698,-0.043864241326614102,0.6057385653244628,0.3326033635203377,1.2257769385218635,0.6895014501386495,0.7575762299590264,-0.43782832713381248,0.050390698750181484,-0.76662620609109411,0.11569469661672921,0.18599835830987388,-0.51451883656103559,0.19426195881672698,1.0370442574974161,0.64926543892128274,-0.73421199816961258,0.75900452310218502,-0.54150303225962493,0.35072351041842276,0.087966433112036432,-0.083138303223879176,0.6722374704637275,-0.16579218260960898,0.26151469754436563,-0.95102733690961705,0.6145507308650342,0.43401483625168036,1.2027904941029355,-0.28143722218646333,-0.32511792935349104,0.24377923262897228,-0.27460262919815176,-0.20848260229553478,0.28797899973987418,0.3735126791441285,0.043697908113565824,0.82324849660358446,0.51591487950920989,-1.3965165215956359,-0.15251182831137544,0.09361612179860225,-0.094618183874149539,-0.9807966289654334,0.43948354099878523,0.82413336079072808,-0.22933504952654626,0.31900388760240939,-0.53741621259341943,0.62310464586898617,0.075002028946079463,-0.057065842380430741,-0.95118418047315367,0.43374740890724212,0.30438400264303861,0.96343489461074661,0.078889746913147013,-1.0010648930315591,0.041472001259221063,0.26518117825121196,0.24014352567530664,-0.039330009057077134,-0.86958120975892061],"bias":0.11354342597025285},{"weights":[-0.011910905873213685,0.45159674846645576,-0.60891297945155776,-0.18194193320578037,-1.0939144725361698,-0.0071973499054694672,-0.46945218165210384,0.89290743548445128,0.61425316269493968,-1.3089018676454747,0.83776675691663349,-0.11684309522911761,0.83348314134628021,-0.36382902605950124,-0.47589976723383809,0.22618108453609986,0.40879647670905334,-0.26903862643019688,0.84935359967317559,-0.67515194630575004,-1.0917814946508313,1.4635864176902904,-0.30027756992912835,-0.18275552549835275,0.35252378606086165,-0.61798113902818441,-0.046118493887509826,0.37526077353151605,0.95813728904663387,-0.94450563492840356,0.18412664148017238,-0.13842926135117326,0.18636421854777288,-0.12287458108818372,-0.47952134568624805,-0.39079294638828355,0.90380475835858287,0.12816983115052338,-0.75408045281143699,-0.1991101173022411,0.24547028678426494,0.02565958311519875,0.061887163666229962,-0.58914261594741968,-0.21139798919364511,-1.3059352676311189,0.10830371038692456,0.16793312148003359,-0.71101240789266451,1.5856882093956592,-0.35712280340613323,-0.54450677117652269,0.070871217503096759,0.53108479536312714,-1.2542488346490195,1.1713166842158325,-0.57697933099788468,-1.1617163272164093,0.48630330866954585,-0.48331553953444956,1.3357663837984157,-0.26862061344329835,0.26210045137140819,0.45489145440513623,-1.1006972280293155,0.60108415487474054,-1.0361993731705295,-0.67624818953217447,0.6924825310998699,0.17342348291599816,-0.18971455519595187,0.71670204471858812,0.13410330446433888,-0.37116613474513893,-0.91198930209797191,0.13855260162295216,0.32227942697706458,-0.25884515998520968,0.2348707122855124,-0.060089629103298105,0.30518478027609186,4.2550406444592852,-0.87248010774682228,-1.9813415352586956,0.18010204335115967,-1.1669130441327373,-0.039496167077560866,0.50719728180070689,-0.23036968318729664,-1.1328643176734543,-1.2647162711906497,-0.27040677145564807,-0.48725961283198371,0.25029273272787567,1.8958138100931556,-0.17161808368035525,0.87988016584466711,-0.274050439046644,-0.79776440821135008,-0.31319458345614737,0.0056648475624896969,-0.91944894551575407,-0.70265591285543583,-0.28508096668845451,0.57171004775611123,1.0253331312419391,0.11207175373284635,-0.00011793227992621843,-0.8829215425716026,0.58749536989767548,-1.2440401150173641,1.0410639933861694,0.02331289437844624,-0.4401128914743474,0.70137219943275031,0.82351623358948334,-0.88365436504651473,-0.47734439693850073,0.0029527115531221265,-0.94501646325018063,-0.48310493689710154,0.41580938864539146,-0.20074482987646092,1.477877994677933,-0.038364258483219636,0.010647149109574119,-0.091584888935507092,-0.021914617105733659,-0.30570649857000143,0.65704155196966962,-0.4256126422897713,-0.177609614560684,0.1693010963315717,-1.0087372597254591,0.85890770497459479,0.82328446048441195,0.17866715785412818,-1.3722322224383161,-0.058251156199141965,-0.67015341167143772,-0.20587171012671596,0.40478602313076589,-0.75521507252939135,1.2757514783702515,0.39201944360958391,-0.0035506285476528984],"bias":-0.80756398708245059},{"weights":[0.67436554803601334,-1.0182446629261319,1.1038000205500322,0.59134135502010232,-1.2810708594931608,0.25704878774576961,0.26236375134134049,0.59604788373590245,0.16484329393134547,0.22002398205247245,0.5095570771196134,-0.72889896628181639,1.0925607168580853,0.0245939801335835,-0.12477722025411599,0.17216794915329003,-0.15837203525682469,0.25673263033126981,-0.24288615780744044,-0.15500839682709874,1.6627494029372698,0.18250679561734851,0.069873900563273569,-0.022524992140758114,0.36785317932333633,-0.11466386359116935,-0.35304789399474062,0.1032717314412057,-0.010544380859117497,1.5083061504992408,1.0701300808219865,-0.60755907716500823,-0.68388650616625679,-0.44998952360460448,-0.032090524999917498,0.3481814093249781,-0.383891287044893,0.41593177166759593,1.550677666186959,0.073689348489982515,-0.28618389110681852,0.49078819835967885,-0.47249862296630135,0.3704367717608929,-0.35175895897015536,-0.92127361426382304,0.4521595674216935,1.4087662355510024,1.1030002069928291,-1.2725525494741483,-0.0050174875528534403,-0.0027581263634514053,0.4669263878017193,0.18236287298735446,-0.63365634312877395,0.78357793180032154,-0.4514665665954008,1.4222120967316123,0.32484916024637084,0.56177231844326414,-0.86714178341647219,0.32137093773167957,-0.2955889685483935,0.41271043181577866,-0.23364841123855581,0.95730932433573301,0.83685807930086631,-0.44421466528250325,0.014996846464248082,-0.40625387673069785,0.40620185452923274,-0.17001694439210066,-2.0337728710371699,-0.61118272455659728,1.2393118782993091,0.2742327173130632,0.63462849728330784,-0.32796376688511325,0.87605854163688301,0.44098989713132475,0.87299201555877437,0.68149598506743547,0.39773827198949452,0.6437895922351311,-0.30853563509892862,1.2170568373027386,-0.16129893364282491,-0.50187809678528328,-0.47814587472459225,-0.32852927890561828,-0.13059105490472142,0.033208555907084561,-0.60616867037881472,-0.92508553149237638,-0.18769037740968192,0.30780075972535131,1.7414870531215823,0.64087975929085406,0.48230861244576789,-0.18435753599747806,-0.65420700035371349,1.3262569075351653,0.99819320332555506,0.29774725106254502,0.43825235048090055,0.29340177271353324,-0.37612875350411862,-0.75105473829666902,-0.1757428330770906,0.40226470537474124,0.7732602063619175,-0.12169602229679606,0.47083476503730748,-0.45477912145003907,0.23141864876719009,0.072495541073467853,-0.038355001754963897,-0.59647160203588501,-0.74658393652642951,0.34163004019397097,0.63890570132040658,0.57507243183620083,0.6113925274098605,-0.93445682643126615,0.73591774184078051,0.48263302875308384,-1.0497208823122781,0.95724984768971022,0.90968232343529343,-1.1228754153716669,1.1418910874122732,-0.059433234932070325,-0.126908098075523,0.35899026738015372,0.27228267804371753,-0.54071890636356379,0.63426439889352293,1.4393082606040608,0.43328828435454819,-0.66584129388367508,-0.041544622125786669,-0.034304854455520589,0.4071137219679542,-0.37369762282872659,0.44740873048170315,0.32407546244935576],"bias":0.84747875944625894},{"weights":[-0.37677346895281,-0.055952374217859729,-0.72864471959037957,-0.16617168127597845,2.6227261764126051,-0.30997695260394786,0.10546053645401472,-0.061210404226034264,0.34364680908151241,-0.48675024871380024,1.4824778034915786,0.10939476474295848,-0.044400514218136865,1.2861248593495778,-0.11554242487999393,-0.028984815129207402,0.013012885878848838,-0.81956325074702241,-0.0091986218500606266,-0.28668043644165003,-1.3474989989189676,0.19407366850019617,1.6822185222909953,-0.033046845104718059,1.0043502379058094,0.17560947099581251,0.11777187124345931,1.0481445178338433,0.61490985522357111,-0.30184491044510497,-0.64867387710658664,-0.26014103133543426,-0.096660830563433373,-0.36227705766145774,0.082948218408852428,1.3778876588319831,0.83640344054873061,-1.640717243942847,-1.2828436975604733,0.79416943102421389,2.1849220588613965,-0.7355944303545886,0.95372785694007911,0.02231178582259373,0.40800438386016097,-0.7367946143455244,0.51490276172136973,0.85196575637089988,1.5199706236234845,1.8715045882758756,-0.29564716827672521,-0.6902781833441578,-0.23335141928584446,-1.4582619932152789,0.42427456291748172,-0.73768135548285352,-1.1677654619150173,-0.015526328378122074,2.5349435961159896,-0.082534019732188768,1.4663833059537519,-1.0917140513397663,0.29198540814021684,-0.1224519182703481,1.3286752506928465,-0.51544012285828855,1.4440071040008955,1.5655938812330366,-0.23331352434596153,-0.099221799060712101,-1.0073195017056387,-0.84405499930449168,0.18461806990780502,-0.50369477050259392,0.8580921232119616,0.07662418972851337,1.1371121092086931,-0.48786524199579212,0.26985650156074281,-0.091800954482420177,0.028292327977729667,-0.30375604405151108,-0.30747719802956969,0.2802913985531163,0.6688832247868971,2.7812473973184297,-1.0697572538316766,0.69972960567004183,-0.38430488606371138,-0.95711309675575462,-0.88597582666595109,-1.6326551184455105,-1.1540547992308166,0.28911541712307681,2.3128222618494321,0.73647122244917207,1.0223673650913419,0.20408465254151623,0.60103222197249917,-0.13085423714735092,0.72758454370094416,-0.32267394696459134,-0.15938338050470671,0.71788137399609842,0.17354625562775541,0.35686061408351283,0.066694372176435077,-0.15218857720282364,-1.3014346270439767,0.22826402395086151,0.47045310206047053,0.060101349027513067,1.3123159632258892,0.41140754182692307,0.25812945677632643,-0.1199724476867394,0.19798597502582557,0.45748110017382432,0.68620689927458778,-0.22699649664205368,0.5322648120715876,0.94835470873256023,-0.32022645189479187,0.17902333727606379,-1.0563595445485687,0.17918095527963998,-1.2308435880220499,-0.17714981308197006,0.31439099114663072,0.90648139202557931,1.1213104875839417,-0.089458967999295883,-0.065853896545426394,0.089299783315314352,0.60750731653452594,-0.29856219474174572,-0.13951860945015482,-0.57878153520113174,0.13130814155967732,1.2509295374588414,0.48191586775708478,0.86641847773603919,-0.48541370003714784,0.32034536937790326,1.4152118454801035,-0.59738997560064422],"bias":0.98326161466978856},{"weights":[0.31208370102163502,-0.75812242033425514,0.68129930593895272,0.11017160251092539,0.084417093466766235,0.36543095546426047,0.057610247520659727,0.097875136500921195,-0.26686387853972704,-0.22571103598100276,-0.26915447443962931,0.60885135194119644,0.196109079224175,-0.99794271745102636,0.40349790839066435,0.16545566185932367,0.75215734145103841,0.14132334008832351,-1.1573986906870397,0.068401932022633755,0.28372322631390295,0.49774078654599807,1.3870586966955156,0.29226344734790038,-0.45143152778878715,-0.42572715533497291,0.2509421589937319,0.18126943497938036,-0.24345090287776217,0.070874808650808668,-0.34071682435606548,0.61584841246182997,-0.14648873531655207,0.23938718909391965,0.18468226315424707,0.18965198556274962,0.12447939103608463,0.48028741105232625,0.85565596998923754,0.12514158106533774,-0.99190832957713004,0.14595960855205434,0.22103302423464694,0.21671551000615452,-0.38511408361124,-0.26368886642820821,-0.17595645835607349,1.1240077810005908,-0.31576369847967339,-0.39635864156220479,-0.24568568157370377,-0.14737273477557125,0.90751013350683196,0.2284916376201088,0.27374415699071653,-0.18989351366328452,0.44079052246180173,-0.1727668812826145,-0.86402492076705895,0.5365381104515099,1.0117231852675042,0.050311928002014249,-0.37418122836837736,-0.75913409929358799,-0.50113839323368292,0.13081899281374645,-0.70854491241918083,1.4904011603572993,0.50005449215324715,-0.097081450318158055,0.44131926127828397,0.29613900338161198,-0.39093564324880625,0.90543845215452468,0.35710461883361849,0.12161702168780165,-0.64910026610802707,0.73269138761864427,-0.58811964590326837,0.10718729572865378,0.15216591949093342,0.44221632838101649,0.21640221850241723,1.6995914660593032,0.4619206250444291,-0.93669459916931441,0.036942563786547401,0.088754033891055212,-0.56329293132345326,-0.49592265832161764,-1.1737682490467753,0.081161397058644377,-0.31410177763520564,0.82256637262092858,0.031616384512259427,0.20586341117668924,0.77170848421723237,0.056570680532452872,0.26794057329585225,-0.69609260034145615,-0.028293699728852154,0.33579744596912225,-0.97848105252443596,0.032162576798257923,0.88549549531833793,0.4058845014843685,0.77084070288403073,-0.069902729075296252,-0.25394366788094247,0.26887032232689517,0.30111904644168747,0.26521359155387852,-0.42741827701605445,-0.43146228011704346,0.51038586215491322,0.12708022992582421,0.27746460346374441,0.12516976437138327,0.64460673913393873,0.22096177467909525,-0.51125212595591008,-0.22880087712748665,-0.4161379496156693,0.40098450827377791,0.38499449371767414,0.034780938938912993,0.14707488676833444,-1.0253793652421943,0.52181283116438015,-0.60602352271727544,0.097277252008651074,0.29688791512413881,0.51036721806303198,0.37105901296748989,0.43812033446725057,-0.21032959016344024,0.53379029960377766,0.74747347456321733,0.23879919607642133,0.30498180390887641,-0.29644888396892632,-0.0097400623056060238,-0.15518244629918973,-0.27960206336379934,-0.083626964183809133,-0.19330458606411602],"bias":0.25717495133173979},{"weights":[-0.74569905660350488,0.58038537760615261,0.22820460304380072,0.40949430046632612,0.17634491345145165,-0.34974461635588677,0.27433326664863761,0.11038870752727925,0.51287230086580737,0.04654523110062897,0.74905903212686054,-0.25978509720803439,-0.21444565725346829,1.0011644611702466,-0.37138728367851676,-0.15695197259381341,0.60156162468063745,-0.34867129819546155,-0.5887170146956302,0.26303133154033986,-0.3754256986515061,-0.49046111388049946,-0.15449539199943776,0.32765019451103106,0.47620292425965288,0.96640902749255908,0.66081613698566644,-0.3804092400836695,0.56592990445702873,1.1318371599091228,-0.13402672922448144,0.37759114415705763,-0.31494652476137985,0.382280911561865,-0.16490877328637821,-0.40252436896389687,-0.91537128801624157,0.11920773654059065,1.5017914391962217,0.88808546941645017,0.27281737389021843,-0.01214869971414247,-0.13537677630450445,-0.16682137825418045,-0.47380645448628866,-0.76916667768477753,0.29751359632884422,0.77957173516142042,0.81827773064190124,0.2764616566917184,0.40112657314893463,-0.23604985831520758,-0.23751890611913268,-0.049030946473255267,-0.21735673789510962,-0.11229624855634418,0.9517604150004868,0.40837027000878046,0.25774318806344076,-0.49413157521506973,0.18989939569707226,-0.20929777962781509,0.2192528640251343,-0.38698224986874369,-0.047719937550662971,0.021876376781677826,0.73422821018859652,0.34835103630838382,-0.041371090826460767,0.17322361834463143,-0.36812700655888742,0.65329067772607496,-0.58986464303938835,0.48962033154714957,0.94962958962288269,-0.50058937768519518,0.39598483442380172,-0.25366392627221779,0.20120515964152352,0.08767085827940499,0.35717369291899093,-0.3707746133222321,-0.45602424195817653,1.3126425928875087,0.78598717767513837,-0.38020197060119831,0.19963589694644338,-0.17036270548017535,0.12600978361522502,0.10820288637423676,-0.90806868571361121,0.33883256534106632,-0.44438676382217235,0.1532525729529168,0.79036152158865047,0.46907635754501192,0.32849760420208424,0.41320663180426631,-0.049691062253478781,-0.14403521208268513,0.11161155472823629,1.9493782565167148,0.09039752036846696,-0.80628334555056691,-0.40358152164912847,0.1950841968116736,0.2881527071531933,-0.11057171816898965,-1.0327089687756994,-0.17606935679920649,1.5030643681459364,0.48393671974859992,0.071732843388593759,0.21646842375645667,0.396286788883633,0.07243395517999919,-0.45541515808828331,-0.67010296405799663,2.0048664836440957,-0.55509787209020556,0.76407639457780474,0.90431729816395257,-0.37245312244946643,-0.66032254786231659,-0.061758634430718024,-0.21301176315335846,-0.29162805284394538,0.26949961164081665,-0.27994983767338755,0.37230467888900237,-0.49887697330289482,0.55620408021566659,0.29325493399054725,0.86606598152537473,-0.12771839539447125,-0.72169483342317153,0.21856844607492926,0.58095730627268571,0.133182384328563,0.87782932155198745,0.045510698881205784,0.017007847594809226,0.010330089611304463,-0.022970186612738142,0.60649720447209066,-0.049534591579857325],"bias":0.64001262354772126},{"weights":[-0.012559717881168607,1.87755735817842,0.92603472353197336,1.2152953233614248,0.26177194935566928,-0.68438798408374624,-0.1674846088030266,-0.70929134704858299,-1.1337693235335136,-0.060515519510656007,-0.29844361574635447,0.25818662505504864,-0.89741031073392119,-0.62589994861203835,1.2388266380169852,1.1995220778116689,0.65949064582347627,-0.066955887760262359,2.4225003581879871,0.49042764884056417,1.5443918014704967,-1.2043623976031501,-0.80305987414953739,-1.8394738886228073,1.4520556560113544,-0.11125425562426862,-0.34266546924285551,-0.3392849628763277,1.2779228680813846,1.1852279046051142,-0.035081334874975487,-0.92599619693900681,0.042423449820707296,0.11940472402862023,-0.20749223107357098,0.15799871273774821,-0.065819708360944307,0.76947213447013518,1.2444515530713709,-0.028888044395030482,-1.8976081987905071,-0.3816825418650055,0.30965496849650609,0.75067962110385666,0.63734516157225052,0.63491598779063552,-0.54452346946966179,-0.13942054331143106,1.4577638810919376,-0.85219815212056926,-0.3276909466435321,0.28693671252371494,-0.0366373743272334,1.0014521033854711,-2.2764597358349956,0.27412586081565227,1.7762053121722865,0.65400076745507085,1.4375570685801566,-0.041212725848190516,-0.082357383781765145,0.40626093624904219,-0.65838833422303333,-0.28377304333977049,-0.0084535397982300545,1.2836455497218995,0.37758457374482218,0.13900412914561663,-0.87168460737903075,0.8462368410718939,0.21829439872548842,-0.26065974449668722,1.0542202436310206,-0.41665133610273813,-0.50506798505278538,1.4867719981426848,-1.7440020161235932,1.2395122351848398,1.0385197748112651,-0.53654080106583302,0.080161857258805549,-3.2695556639325059,-0.42827292983298321,1.0103361135865776,-0.84303607188719809,-0.90015942026650708,0.76526742837778849,1.6098174034714094,1.4180807793560435,2.102783841796501,0.67370191450272643,1.3797781705615471,1.9837973584822466,-0.44701317864790674,-0.94923607832177836,-0.1859383280205342,0.58162580231208494,-1.1120681272450741,-0.45953493655508837,-0.15767461680711251,0.46783469437875241,1.0931177547767816,-1.1650549188631438,-0.43360763976505906,0.13367279862479883,1.0955877956818276,-0.10509841680540245,0.55330857835982794,-0.38839699032051961,1.146026114643826,0.50289359495962505,0.44073402251877292,0.325583426512639,0.55102151543194766,-0.63866109563394413,-0.22409626559906343,-0.22276989174246578,-1.2390274831847619,0.41924556803433682,0.79037221500831711,0.35175919336988881,-0.82529501235179314,0.33611706817361708,0.65647024196431591,-0.017285891763145371,1.0289815624291023,-0.22592583639451766,0.90305929711426802,0.33541085722701164,1.7512320301279281,-1.0136358248478035,-1.0381729338107957,-0.62680802936864499,-0.22451274593319881,1.6342843728414298,0.16556381618167473,1.3140221261992242,0.35946063016779928,0.63719736228572177,-0.73042602817563473,-0.66814638710414809,0.80084319024137707,-0.52335488637773453,0.099243132140717838,-1.048156653206614,-0.56622879883481492],"bias":1.0751591069974147},{"weights":[0.59495712078013518,-0.78965919746923574,-0.14922355189252398,0.30052573650162817,-0.31972055402094923,0.75448709275093095,0.46783335525947251,0.2146946043529008,0.164538172496212,-0.049873531918709017,-0.1790641133386946,0.09237879014667659,-0.021050786600210872,0.13179743906119987,-0.30246798786908713,0.85405851908284058,0.44771048182920969,0.230020654919979,-0.67109431718333934,0.37877918201925304,1.0421192249963702,0.59816997494307478,0.18385881362977155,-0.70849108775785119,0.48280029137580771,0.20461426232515903,-0.2549670004950183,0.32058342347601271,-0.44146093497247452,0.30361573074673437,0.90259823327859756,0.26591871245424692,-0.44361066399263244,0.81281393089020071,-0.43143379402191456,0.068949426183513643,-0.32884596124696863,-0.11582417257364359,0.29863087558985729,1.6428416152234857,-0.46247905446762416,0.20633275029532486,0.86751487088498169,-0.63011515669749874,-0.2808603419563499,-0.95289244981606047,0.16807694660033706,1.7960173145644449,1.169346342862073,0.44999211873700135,-0.45060183793126557,-0.62509072073559302,-0.33786238915449196,-0.061828611610708795,-0.37208685839799693,-0.44735314465605991,-0.2599387994047711,0.13698130136784559,-0.042910442087310402,-0.084132025531662907,0.79235207579042688,0.84740759514750252,0.70472911046929232,0.21799539956011232,-0.16063589580801602,0.071551224315198003,-0.23476334033627758,-1.0944610357344355,0.6605336208988748,0.91280969628102049,0.034813547328270564,0.86321628553471674,-0.28343016828563272,0.44378310783151614,0.34808096570845548,1.0527182817691147,0.76545496022645643,-0.087782154135165325,0.014709586040100267,-0.96279552670821211,0.023762408354854426,-0.601533525090586,-0.053893469280518143,-0.30546049126463531,-0.18567148983348175,-0.059100057393616331,-0.36289646995017227,0.3404072451685563,1.2593328127558721,1.125077359397868,-1.0618026251044255,-0.31543886826366885,1.4510986173351912,1.2329214525768897,-2.0555552746898358,0.60109168836820115,0.93323403719707732,-0.032447120743053608,0.47452765502319977,-1.3266833677766168,0.64231589931989663,0.81633123374491812,1.1879745574603295,0.16181496282914012,-0.32582921875750254,0.81688195731729185,-0.16491225467221549,-0.6082977093422326,0.067667597732971402,-0.41216996505009157,1.5965874443225065,0.88195841337305214,-0.048656068621142405,-0.43191386875582144,0.41050997530975414,-0.27744449771669161,-0.30662621837703097,0.20600665082525008,-0.47512149234042705,1.454289846923674,-0.65946198154730118,-0.0093484627023647446,-0.28464332844756496,1.5840982075206442,-0.4664950597538402,-0.11009491875300861,0.9066154911812544,-0.35846530006839317,-0.61445861487804843,0.35610894492856998,0.72060062157981031,-0.39731739529571108,0.52078571424530584,-0.23032978305949967,0.37121565451805583,0.030113299433345477,0.27494930449016303,0.20900724725577371,0.14673638615482237,-0.56614168733135284,-0.56877618018325504,0.34655369541711933,0.7000589606377613,0.59104555692561722,0.34354958026608695,-0.27812716599466641],"bias":0.76775972018472505},{"weights":[0.85393582120012801,-0.60686661272681952,0.58075095436829227,0.12972439259530602,0.30400576330714152,-0.37049989543641682,0.15338218682148366,-0.1309548762991426,-0.29584958546998186,-1.5849316188393741,0.056828113287588855,1.5235864457256609,-0.1940545013556822,1.3796480778683364,1.2667429447942418,-0.95915533448719248,0.1106397787778266,-1.036565257585329,-0.4326233176181507,0.2131161927858255,0.49028569294463226,0.24509420585179711,-0.27999311106577252,0.031432903763585561,0.0086576982425139431,0.068487166272019256,0.23071053500467978,-0.28624368126322586,0.38150708068487432,0.57617340649145965,0.44437718061665898,-0.030775966401308169,-0.58625145671994761,-0.091167354542511195,-0.017183701030346624,0.19708815438952101,-1.3164612620387925,0.40015715755499526,0.1896722165173064,0.80816368161021646,0.94288609785417288,0.046487371662095524,-0.5740811865876434,-0.5297772256741915,0.52315413937740463,-1.6917483884954816,-0.54818119553217393,-1.103587946730366,0.86127817376492966,1.2839962432779375,0.48901452671933804,0.62631450593973104,0.22838027583433351,0.50647264155265259,0.20702564070215548,0.28247737552593161,0.02032505256650757,-0.57960281063076102,0.72719835348713935,0.097766025272433402,-0.5902312423407774,0.44586185383983334,0.0018817102891554522,-0.50588166524560274,-0.31726652882605039,1.3265130945163808,-0.71055313023735256,-0.067716649469954357,0.017000731642195448,0.74098727045611601,-0.073415008726892467,0.25257587709252682,0.31851829759643685,0.005001322482311805,-0.40278074851312506,-0.16490590643821593,-0.29915438205156036,0.38684186476836369,0.85757626854884905,0.27599724030633166,-0.5531725854799161,-0.07100295192724497,-0.48564164173889246,0.98578726829370389,-0.19165694832897598,0.38904141686578009,-0.45914586121633116,1.3063147065422689,-0.012966443434043805,-0.87233824117766368,-1.3198009116147891,0.31611338110774828,0.56377305438477088,-1.030788523222383,-0.11262410492513637,0.59853770431009867,0.33536445755285976,0.37360822084651252,0.7418820483649784,-0.87244396474640062,0.20426890317612811,1.594831196198166,-0.72324071469216666,0.63512288204077061,-0.47599261090385503,-0.20059777222971989,0.55790436980847868,-0.23710215631024018,0.19797890692560416,-0.47180052137799755,0.096311659240502667,0.22572115830546285,0.2923424234704412,0.84666658234254588,-0.48666187690925555,-0.16827267676465368,-0.050831871762996063,-1.4175050040687069,0.58768962512511203,-0.12481173161680038,0.78033840180757907,0.30753066805648988,-0.63295879002529964,0.4746420634338428,0.39077743661146186,0.27942693387372558,-0.13249651045750119,-0.1527108815155207,0.65479757511316228,0.43341118017276248,-1.020579592307002,0.53450951705016059,0.23420244574766869,-0.27915654072664114,0.36036942166024638,0.1847239795284846,0.89048856730033576,0.28100072074053872,-0.01171203944985854,0.087572582030505566,-0.19939943565890889,0.041428212513431352,-0.12765444809421245,-0.55110911878104163,-0.24215485675310533,-0.4133495590802293],"bias":0.098186588590967835},{"weights":[-0.49029413161501756,0.64107491740657796,-0.93543729557151856,-0.4478266258295493,0.67357100094183209,0.31374873238904866,-0.088947431706530966,0.89619590274427652,0.61138015129603662,1.2520232654348824,0.10387654435159749,-0.57041711184678845,-0.31472645467957172,-0.16489779039192506,0.90240649776814641,-0.3029012802350598,0.72359721498147811,-0.4146565807128027,-8.7975844238614547e-05,0.75430385750566031,-0.40486484730756944,-0.62509373758554299,0.13295955818930122,0.75267013644433067,0.66421857668864193,0.22714951367010286,-0.26916336442470429,0.051281940787521567,0.61894632387271975,-0.99834862000968572,0.38516002961661028,0.86942453553785204,-0.089598754994596672,0.072306850085066807,-0.38707096173524858,0.65930596459995905,-0.27265514725230616,-0.013278973091197053,0.14747401100675983,0.80428331325249436,0.63085586649437386,-0.47944363591596212,-0.63989683980390755,0.10080522158775904,0.86028613657778097,-0.79307636375832014,0.20281396724135053,-1.1346553370132801,1.1934185309279437,2.3593814436281533,-0.59881812302942183,-0.080926469244958388,0.38299358567822661,-0.34997791372946335,-0.62071786018577635,-0.4444545613819692,-0.36952992561487213,0.44126902074532182,1.7402759937795982,0.087025100269367675,0.22697358412650864,-0.031505078327501858,0.21130129659580393,-0.960408924102229,-0.30828548861743099,0.22742965928517875,0.18739535062577506,0.71057320861282236,-0.56610427498078275,0.79855987086695768,0.55104880475848461,0.63365787458381384,-0.74264120952010249,-0.40202821912311609,-0.31289412894700674,1.0053326450889906,0.33389146015713145,0.4454900164268682,1.1365283728483024,-0.37622089053901009,0.2324771393691912,-0.033694974663324669,-0.25182392036799217,0.42923408624799664,0.42478663659253424,1.0842458914899731,-0.43676562511671146,0.031089505484678075,0.081359172541269842,-0.10295689091984273,0.22258084136960407,-0.20629312166626962,-1.0663721746086123,1.6945136822466769,0.62418210761634063,0.46452050893053004,-0.41233219440023416,0.019133158816295858,-0.13438550599052745,-0.7060702746107933,0.060164581294079686,-0.068364998655016801,0.37125999595351256,0.75378725888173026,0.12431087644007657,1.4051632905411209,-0.50978717837308662,-0.10599555923322514,-0.76481869480595854,0.16003652426582893,-1.0176519643036255,0.86111856692575472,1.1749379133117739,1.0504880277839397,-0.58493608634440453,0.21607736374486353,0.046007761819637387,-0.21079471515560813,0.49385340594720478,0.63505477441169911,-0.077712129257294357,0.74549326480080036,-1.3462230959328441,1.1706658210489809,-0.23749811958053657,0.087789974029331336,-0.75702684152141153,-0.30191432311051453,-0.23188792351284107,1.048129844196336,1.486335563708677,-0.25668637063502764,0.22238058445943995,0.11371198968247853,0.044358295380155385,0.30698043635704608,-0.20676071226813161,-0.8468389667687154,0.37977962203834875,0.97470688941529726,-0.69764048529136913,-0.15926926367142075,1.3711809532813914,0.12981833310868643,0.28827339072437164,-0.21050619752382588],"bias":0.79381767772381795},{"weights":[-0.43288311912049698,0.084834201388963609,-0.12556332490071392,0.37361467903021356,-0.060154957543453798,0.087502137929306167,0.51879805785402744,-0.01168224623420182,0.74067874098331454,-0.32287188320864546,0.47295744334404083,0.37057854176427019,0.75998970477353911,-0.40239641014293165,-0.10759620791147775,0.27153638291358256,-0.3144360331164493,0.41599226377655429,-0.41587449083486655,0.67468091381506623,1.1724879752886463,0.37913299785206245,-0.6264335543651347,0.43454321699986714,-0.46725339556759049,-0.57183559394278571,0.63336367382366865,0.11119694133355135,0.10519058958527241,-0.2293235751889092,0.75614214722210238,0.40560810795568569,0.47711402467676362,-0.33862137805635889,-0.39227859448879537,0.39934783665301699,-0.506077094866623,0.68152473629254262,0.23195471331796919,0.58805473907791717,-0.50020038843819947,1.258723207301832,-0.71301236887458042,0.18641575124746723,0.0019837382678030134,-0.44183500532183895,-0.053018723958153505,0.23607152045854848,0.37626273413311923,0.3198903225535803,0.29357890115600982,0.56777278091483752,0.19785636471180504,-0.33822711365959929,-0.27392860440811928,0.258784109182635,0.75451404182017157,0.95214376398942757,0.30924263075944558,0.27844214084382829,0.39912160518063439,-0.8642908549372238,-0.59902028927554185,-0.87472694704109166,0.7008377604194217,0.42694349154781075,1.0206220952132565,-0.092983995614109582,-0.61747361736635364,0.29244243879795112,0.40175521984697748,0.0014678843582049436,-1.1704694394670807,1.1393264615703809,0.31400955006402514,0.66282114949953408,1.0781384146211004,0.11541006362073419,-0.23885973562825172,-0.42656483443511584,-0.19012148469271434,-0.94198016648875538,0.76473742875301076,-0.99417460202679631,-0.37854683320483606,-0.08885563803757264,0.72215749049419209,0.54849308282827436,0.7741165103323846,0.70115761078030758,0.57776597159216669,0.85172806684888036,-0.85097169221226809,0.63751833444588524,1.4011370745156881,-0.30331319597285888,-0.47542120776758229,-0.47806272111331588,-0.21758154596700402,-0.23092937435654984,-0.58609831152940439,-0.73182157986823126,-0.36988532997446066,0.26923545118100289,0.31028305029593151,0.97137967170389716,1.1745939234746412,0.18735825802147332,-0.23142118421022509,-0.69251896744373864,0.64843669173799368,0.47236473146450275,1.0039705288093108,-0.46918612853175351,-0.27289854245039863,1.005736392020951,-0.29930305205983354,-0.81250292660091239,0.45262512850543341,1.9609075588284701,-0.10850527491714136,-0.32981548727316762,0.42603777747678068,-0.79720648905195513,-0.10330816352170649,0.29210777198538146,0.2800138199758751,-0.8547712635795538,0.64876333828219779,1.2826863066097192,0.81436862383020192,-1.251544575698796,0.067236988347068719,0.26913705087983569,0.043232081570327617,-0.74814956315542636,0.94609859146466568,0.41345385555782449,0.57687963447110835,0.47028562277163405,0.19432853644236125,-0.10395304247750116,0.08645608676956365,-0.55211388071000278,-0.95673149161251336,-0.27936295247404952],"bias":0.7162921997908771},{"weights":[-0.80341443608549168,1.0578470327266589,0.27730143334568269,-0.22772839984630719,-0.41762726790469412,0.55712913760335614,0.35937815894329728,0.64710364759751227,-0.069880877375322739,-0.51098823515070657,0.038542149042184594,1.6082391394993043,-0.1267401401058986,0.94091932214162832,0.14361574934115134,-0.10527428960128969,-0.67847848968493008,0.11936891204727669,-0.46638087660206484,0.73691115376266692,0.352616530638585,0.28715222056076639,-0.54017715381153153,0.090878003761252185,-0.174864931138865,0.71261900130650568,0.44745729041158794,-0.74622894994924327,0.029777569066286907,1.2799561123982151,-0.062808535568536716,0.29693633397118135,0.49848519447148076,-0.79181698526458444,0.36558224364311914,0.42839099347454473,-0.95707172384611716,0.4521038261916967,0.56031434125902513,0.22705301624270821,0.75330428847540243,0.87169116543077985,-0.61995958711970733,-0.08579821421148856,0.2196037926365878,-0.59202701221743759,-0.01082781370279683,0.17069262572318281,0.23394665104974946,-0.26858419200714884,-1.0004099840800507,1.1546126006446611,0.79341048443484974,0.91650548480996796,-1.279065307300107,-0.69666935028028709,0.88591609804231486,1.6328070586002106,0.79533178278562822,0.64505772249958426,0.34127099104601089,-0.36871197384327598,-0.54968675025366098,-0.43696396783359298,0.045535737412806331,1.4598294019692259,0.018471633362695455,0.206848416885103,0.40511727372881623,-0.68922169285275392,0.17031445429602254,0.054755070360305982,-0.89968954551852653,-0.85527234593032586,1.5652745904133472,1.1891335071972369,1.0486584387907099,-0.18002564512603744,-0.58051562677641888,0.10263122135191263,0.014429396085415432,-0.96628005966534158,0.89888171472891021,1.786369781440625,-0.32104437499128075,0.55720733767573216,0.28750243311107998,0.091428554897283243,-0.30187673833131023,-0.69712944598922633,0.019046510837886717,0.22615351292811417,-0.31080924564609935,0.66661760157921524,-0.36186805966384378,-0.051543013098799537,1.2879966089268406,-0.67987042142144472,0.47958172333119015,-0.94603973674335862,-0.086654605382022576,-0.061592735474741998,0.39422408093807826,0.27447501668986929,0.27869576654588218,0.6633072728676217,0.57036304670710891,0.26470217456892986,-0.20340306227397961,0.1131885238430998,1.6219805549328055,0.54555396846516824,-0.38963276844230632,0.12624715558876079,0.0083397022755903397,-0.05581962276226117,-0.3465454657701646,0.66585878624676698,0.4501735489692188,-0.63828746602452369,-0.46707760559138156,-0.34330147341923573,0.18286210822254936,1.1808363768625669,0.52844054464830126,0.0021646215625298207,-0.3365671499375395,-0.18881996341903304,0.83962658859519479,1.0472487139352451,0.13016721842045845,-0.38982392752906642,-0.13233984173030469,-0.2358666075281585,0.66991224298691343,-0.18502924628835526,1.0656418899856235,-0.1540828831449072,-0.45160714391590223,0.33734671386790505,0.22288030072255122,-0.43110771041961238,0.4943068135196842,0.39648659413806625,-0.76443910443889129,0.17855940061757289],"bias":0.88512474402579788},{"weights":[0.28263407524027684,-0.16827027765190369,0.36825926526793407,0.76527896641315674,0.38944104915318983,-0.71194085461074885,0.10342156454492961,0.45768658578385857,-0.50577371617838263,-0.83907742908664695,-0.4935926577094869,0.013077098348903466,0.22296103896569691,0.61948823652699503,0.72061385045725945,0.34067465701938932,0.34727117765997229,0.20509382886920405,0.25453155235021835,-0.19011166682104966,0.01336101656093233,0.52257536389304149,-0.25030736569996487,-0.23437526740721557,0.82160356009597002,-0.075185499508591283,0.32549347724512634,0.16584159540808066,0.080159429382680225,0.97358969049861244,0.97424251416565988,-0.42002671614574166,-0.59965145221007021,-0.30929659006258758,-0.11921466990310471,0.56466069276517239,-0.41610962201695018,-0.52566529834440889,1.4153009474421956,0.87812934520439279,0.52999733315187902,0.31295447245863106,-0.11349787321992082,-0.71091107126799402,-0.23665582435439925,-2.0498063163048523,0.37119219872927961,0.059976225968623016,1.229298567704191,0.19733576545989115,-0.40105739699685516,0.65770680113459334,0.89627814633878533,0.41314137358384773,0.39609792058439952,0.080972799042226429,1.5264983358968101,1.4786120893406023,1.1238410059474986,-0.27101890084711433,-1.2066361559108221,-0.87693041742243794,-0.99996004639307434,-0.19710370110901498,-0.63222144665188329,0.82110429786710282,0.52964442181564553,0.76061764804490206,0.18875516297474174,-0.59443280184643355,0.21170252086596486,-0.036955092260184487,-0.52315403060785426,-0.68269217199679344,1.3934960147178319,0.20171447670791814,-0.19132216436380772,0.13205883334146848,0.58918836849839895,0.16779842476072945,0.18313277243378717,-1.3910224803515532,-0.65351335749454387,-0.49200108824495525,-0.087264830201144811,-0.18115298332745419,0.19551238775430943,1.6681702043760196,1.1771187329448487,0.86179833309837961,-1.2637428490121696,-0.15101581241397288,1.9461317476526756,0.40324163169032201,-0.1540521749466523,0.079952422804602991,0.87264495191303526,-0.49326326177612778,-0.10575590902159172,-1.2512106147395941,0.025876109894675866,1.2515038578599809,0.52152983032631539,-0.53015346365783589,0.46848745809610826,0.63197841011584932,0.099268690478647323,-0.095646749808130815,-0.86825806645604264,0.34110303875702702,0.95570887601909194,0.99516057600781849,0.62279032089523167,-0.025259867286202636,0.031454189423790073,-0.32932968076375169,-0.57072717469625389,-0.95065260773472449,-1.2825930676257553,0.34830876976214437,0.5949511224778864,-0.047978047424613902,0.68866218936171175,0.31561659936886122,0.41720871831613032,1.2071249643248783,0.2760478378475571,1.1010076193511822,0.19219469204734677,1.3894638628874987,-0.48542566011256172,-0.68324572402668471,-0.40000657080333046,0.055101620741399862,-0.16234600489779116,-0.49613895860920088,0.31988348687683171,0.81756297789168475,1.6269595153085503,0.65138472307570261,-1.1909122333345226,-0.31685256876133266,0.15121134994226124,-0.56246134924018554,-0.47385663466521571,-0.25406439029226691],"bias":0.71027679258206866},{"weights":[0.4299510004290516,-0.06903555520388252,0.17487473322644048,-1.0586546672623072,0.009945273282708722,-0.045489236196072022,0.96106664446424295,-0.31825119047489192,0.12844723782653863,0.10120070324050943,0.22352455598785267,-2.0009154588817748,-0.45619141999035456,1.6799461478655315,-0.37611248858937801,1.1396265506883185,0.030151997282251743,-0.34040177750577882,1.2911888107769429,-0.94515620088736185,-0.90419695559875957,-0.7677508750052835,0.61573746781914851,-0.9662988509143049,0.45316985762746409,0.039385461979108041,1.1544115459177211,-0.88089071119368023,0.69826712306394256,-1.199765309098686,0.21233828343582126,1.0972009540099275,0.33720240969031751,-0.10194898567386702,-0.19548859567428281,-0.030704986786304993,-0.49221412551509791,-1.2517984137709779,-0.83710473071343494,-0.1623457861805418,0.63949740786932774,0.091503905950626505,1.2191147733896404,0.64337050949107044,0.21404982215032281,-1.4877943477191327,-0.086658157334168748,-1.1756868158424658,-1.3492321927111808,0.95492934598862245,-0.37645753887927141,1.0947410732994172,0.72318511508160777,1.7403634739723881,0.94652649477786011,-0.14395887088679574,-0.70152456239558381,-0.61303201299846877,2.74554395986633,-0.44884971539161017,-0.16199161043944177,-0.52911883467428011,-1.0354804265558708,0.021973619243686161,0.60842574046916931,0.4370824783483539,-0.51159785430833937,0.68391475930188772,-0.66661811706679952,-0.027847587693641179,-0.45961634454631195,-0.052956333833756877,-0.34993745917110769,0.34909340914630965,0.20260051006004018,-1.0214361664308218,0.84124173164560934,-0.37144065919155522,0.10447337445662604,0.13574366557984949,0.17719860686514319,0.89789981777075767,-0.77495793004674485,-0.95445952366476783,-0.49167669023796751,1.7728251777060973,-1.1312915952964271,0.21104664531162692,0.67915493815472483,-0.16469836002258992,-0.10838134262746377,-0.027947213847722672,0.089160036905807191,0.3500262632837674,1.6994091015786268,0.11832013833167733,-0.25543535265144318,-0.53515416192839549,-1.1070581030664293,1.4035869840486426,-0.4701354149398595,-0.69535891503318004,-0.38052927815855075,-0.34357025981824008,0.29234189725009457,0.019671342832216089,-0.21155223238928741,0.41177958861826669,-0.29160452517914365,0.13708699517975417,-0.39389256751948948,0.16005382831037793,0.50165531607652192,0.51722122611856791,-0.21209461134228541,0.23798366521253125,-0.68090451387796846,-0.26776532888988214,0.44856175402032544,-1.6656700378742819,-2.1056809507931038,0.75324567355277061,1.3936534278326564,1.0871585191791642,0.79809186792678766,-0.42461209200677308,-2.2605966684336485,1.2755551493604,-0.016547721760350593,-0.94648618277682139,1.0389798302179127,1.2987035793471613,-0.34655507136546804,0.10911682737616424,0.050040574002328427,0.66304668428331814,0.59192367777663002,-1.421833948591859,-0.59026908265904821,0.38890490340031086,0.018131223957294065,0.56620916885845085,-0.31073288960176304,0.097145464459076153,1.5229777822786168,1.3834050259025215],"bias":-0.39202522787716337},{"weights":[-0.6177253475939023,-0.56707199217267046,-0.014819740982551241,-0.8168397973738899,0.20538398527668442,0.47937458287666718,0.80901086683956858,0.74067122225842785,0.32440919740721907,-0.25311014466312265,-0.099348404281788427,0.14064050318392296,-0.55171061722220893,-0.3230283387702465,0.60636714399331548,-0.033223082674747072,0.37362657892459794,0.7825208495851026,-1.4292489486204931,-0.43054722953440772,0.51821968507042815,-0.019397138445050002,2.0812724337126243,0.58091399169336655,-0.90651383282833997,0.24351104340581922,-0.029451027978337083,0.12954410834850874,-0.053861822931079904,0.589843159635558,-0.53242648001933846,-0.11525905755366286,0.22143656288152616,-0.061235652075699518,0.3502892371774261,0.086191028837395031,0.078352808280909222,-0.48982233696488237,0.33796185337280488,-0.3885979805643493,0.33988761041724685,0.54216922153071734,-0.46182994573310027,0.39153189543997363,-0.014822661818773132,-0.60483400672298093,-0.42099141426826364,0.34312846117493329,0.87443711420702785,1.2805826395066064,0.51148932512850831,-0.13585361172832788,-0.59722457739130519,-0.74021015685108049,-1.5066308894509999,0.11838944950638292,0.045598350796980935,-0.17222954130786111,-0.52977342302404673,1.1333075985815007,0.72842561103967651,-0.4236489578192168,1.0841295549749173,0.033162326955572495,0.20052474734407569,0.46051203485539599,0.058366670776145435,0.93342216402856137,0.030602403500786135,-0.15103918203068009,-0.18067132523782181,-0.80260067260864887,-0.46292913718636247,0.41188906894081734,-0.00084511461087380011,-0.76109620360126984,0.7709645017318284,-0.67700193930583075,0.83425370223487227,-0.023662808857029659,0.41730110465990056,-0.69342098576396782,-0.25307492792399289,0.10026405975469597,-0.47953986978038199,0.50947304124404369,0.69149897174157804,0.59692598050361201,-0.1271553905123389,0.13440509212382151,0.29080033990763221,-1.1298440297740242,-0.48066157249597852,0.28352038231608229,1.2443706359420212,0.26204947908985865,0.055356402655317376,0.2377040811153173,-0.19581082192912563,-0.20068032933768165,-0.31601000766595261,0.25362868279569639,-0.42061015637005461,0.78411103431528206,0.10786976661790497,-1.0310848438667386,0.55267072411967932,0.85204617374915204,-0.16032409456909238,0.36566269428195008,0.14430159370353021,-0.40235763690647719,1.257698576821469,-0.479392397084622,0.29390029452671596,-0.17459113426915038,-0.41881138215029851,-0.6694243947172992,-0.37812399419591392,0.20562765594274932,-0.30491616538234179,0.55671655388160401,0.62138698022314776,0.81421416438466865,-0.57277568791979583,0.19800431408695826,-0.11251234619474612,-0.79882184534763723,0.19259826308838557,-0.70045819342285731,0.98071777775337754,-0.68468104750361003,0.80536198350694443,0.16364337397492823,0.64239082613510667,-0.32489617181964697,-0.62696282866547115,-0.28291774102073219,-0.048296784696019869,0.2535509404788957,0.15246118059441627,0.37064838495558466,0.87321779736010452,0.16117556444025244,0.71506398052992171,0.26319134697415808],"bias":0.066882205025191765},{"weights":[0.026595769648639238,-0.39487644851905745,-0.42302484201536728,0.47027323819835209,-0.4066851899315741,1.0219437301482259,0.38895770063813895,0.23206063833771517,0.18129105919044722,-0.18363352535566402,0.90479255850554541,0.61961390078784551,-0.48421677988769102,-0.1072974241621605,0.077090200764750358,0.044092154167165276,-0.060190064974410817,0.29695406450844908,-1.00680710410747,0.49205064990904646,-0.46743517529456158,0.4713315307153485,-0.52989525925797143,0.10603625029326609,1.3997748830631394,0.14934285942486361,0.50589097863027399,-1.2029314753736824,0.4671730263277436,1.1843089751830091,1.1684383478378852,-0.84763803316562303,-0.069828234027374897,-0.19613839200311084,0.48861914493046738,0.028039468413108868,0.5056227073220021,-0.26231841174261589,-0.19828167445824485,0.7061870045193368,-0.20565217115748707,0.17946764091101594,0.441679200947038,0.081047597042350344,0.0060173773665646163,-0.24275356975829979,-0.13680312882047432,0.45995551614448638,0.4484285462060143,0.0055636097221206781,0.21448883810249336,0.37901633821113501,-0.11368868412658409,0.27897789452657523,-0.70920871805778574,0.048748044266130414,1.1154973512927149,0.33620083849145549,-0.30646720880213335,-0.055053182773340578,0.51026850150192038,0.17185546957005038,0.021147632105777192,0.25607477593899347,-0.25475039848207087,0.28189704694165157,0.28885368242713899,-0.33977950068333101,0.43072882571588406,0.52677844750000635,0.19736230341321329,-0.25827692528619434,-0.12522336860650166,-0.19534252398777369,0.86697559236917676,-0.80370887101235966,0.42452649555877769,0.14858388959142263,0.26192194729356899,0.027626832494641054,0.41962551958703553,-0.69108416294749597,-0.45344536830885435,-0.10021613806587686,2.1479725478568543,-0.41838341088002057,0.080254890190751577,-0.1685754946847943,0.4555216474791976,0.38690611276105991,-0.72446437657057949,0.5458983289844821,0.76270002621135735,0.37696659242642006,-0.43706272723973105,-0.21372457007064313,0.31533452711919513,0.37743287475838222,0.29847653125243373,-0.80022722308612015,-0.0035558899841391794,-0.558783263885682,0.29839311430353066,0.63183929377602144,0.76438853266955098,0.92668620460601714,0.79382576244145298,-0.86131885965935107,0.26164074934685139,-0.14533713922548602,0.82705831648780104,-0.12601710182572112,-0.72737428303757479,0.15520437076969601,0.26158227918094118,-0.072327042874904851,0.68723495219980324,-1.5526434915152945,0.669489536536095,0.62614649429600955,0.0845180202414436,1.1114820981277336,-0.029904904900685689,-0.044490004613522253,0.099594572642257739,0.14736553776084665,0.60697546729575902,-0.097232419967651529,0.83888175832871015,-0.72453095023155478,-0.23878159518200703,-0.33234011191268092,0.43265752872766483,-0.037874240514281649,0.69761770790723487,0.4400203059340656,0.3179143165023226,0.29054614443936116,0.21610455940973586,-0.65452004924272222,-0.43560391586575264,0.03732925722195167,0.72649468888398439,0.2513809297355466,-0.098792937618409279,0.32395305389473433],"bias":0.72530006295046645},{"weights":[0.15976561345581433,0.75995792826070174,1.13006114763355,0.62868577872806175,0.4348820883230709,-0.07613054379804883,-0.48991949706510635,-0.30373181120299736,-0.80801165150452037,0.29018514613017382,-0.1727839610867675,2.1719000524917136,-0.26137567002157081,0.11608099912131464,-1.0331868758574105,-0.18052347941044014,0.15557592373579585,0.15545009398082746,0.1020327572285436,-0.59818302425837089,-0.13544647875949933,0.17425282753296634,0.65215418302098016,-0.23424023509717889,0.65094460916673758,0.31623804020787283,0.6585810667233517,-0.51292856966080624,-0.22752276993921525,0.94056171313608727,-0.73509271906069873,0.84117670119748034,-0.43400339710263286,0.32140113231035733,0.43477136520856541,0.66510500419520469,-0.10290608701899363,-0.38373433363511111,-0.10790798353812631,-0.28461561097857879,0.29620833434083327,0.23186553063576515,1.0545750235800093,0.17842366116648051,0.60334049659267097,-0.069017281871149597,-0.25561528134455042,1.7994296986291447,0.58671158748246222,0.63665786010789971,-0.17889769899864533,-0.97241629598682677,0.16828188235148239,-0.21785626951900475,0.41078061272163341,0.52687824051720766,0.065178398724814735,0.45426219423969938,1.0265794844299942,-0.009205071828580165,-0.75743696951180906,-0.49485656192634486,0.23040601617311712,-0.57380853904714513,-0.042811508537788548,2.2374705054850752,0.50609035887729059,-0.07077083195715711,-0.76777974795155313,-0.39230334199237787,0.11829408041898945,0.24516935161239695,-1.6396905044106522,-0.7707742992004355,1.0385867945937939,1.1351499992154885,0.012685212865170064,0.11114093898062362,0.39712142289364327,0.55477815241799067,0.39636042708101737,-0.45440059387339488,0.86278617034388705,1.4455592829270134,0.21789759814759058,0.4586579175243734,-0.46182782333599098,-0.59651939317670899,-0.025631698731449007,-0.1042067335453474,-0.013538513436096963,-0.77443167057987972,0.54801667504598828,0.48274290121190361,0.46564476172880925,-0.23492423597132103,0.43817058676976828,0.63144274925269128,-0.1316794418022609,-0.75972451944369879,0.040998880105632456,0.097722367866437038,0.37697776291647545,0.26248778011228224,0.82011522659086611,0.2820829732249685,0.24117995930818689,-0.13006057739120275,-1.1338262955170466,0.099279713444445875,1.9810940985140639,-0.19308531836238688,0.79797763697007984,-0.079862956406789615,0.31231210958675526,-0.44830473540193128,-0.14469428007731561,0.73982751370471023,0.73234019078542967,-0.60313767504382243,0.0061947774632823086,-0.092464654931928431,0.026792847602903232,0.47800853963626239,-0.016270131325605234,0.11186467124918575,-0.12767916656891234,0.49575344696924423,1.4012689269310521,-1.0816895509946016,0.45761838165775465,-0.32017751941039474,0.13539949165126644,0.050722752486661304,0.33718001120024854,-0.46660772845262383,0.065960834688985961,0.95254464540917749,0.71555845630131687,0.69373358144157915,0.12389813429549651,-0.11955219309065955,-0.34387579960035797,-0.27111654275968977,0.010755015678384036,-0.059204161323433521],"bias":0.8878266426987288},{"weights":[-0.50289006449426255,0.13551317082361222,0.69227808858223616,-0.11891671444676769,0.83201747914897939,-0.04251627679051341,0.31807839462190246,-0.19544157141765886,-0.088240604023627808,-0.49380667555564706,0.40024749397784282,-0.41448574476939298,0.1585646885827238,0.058792653795899964,0.50091646342688334,0.49803154710977915,0.24335043384478269,0.19569100228563061,-0.42238553527385664,-0.47681669310092689,1.1402950275724431,0.0070171592582844826,1.3099448783714165,0.094584164068980195,-0.17111060650512383,-0.39000501497912127,-0.076791044333095623,-0.84268541880929804,0.11381756045102943,0.32734024442787613,0.13106463767835846,0.3161176812188406,0.49293666035992462,0.23179758846614187,0.22502153234401021,0.051319562555339003,-0.51746477402367819,-0.30794848812149933,0.4641925601227696,1.3001158381133708,-0.097495244716765309,-0.44485197357429623,0.19329255223611821,0.15845425261310242,0.3532746622286525,-1.183096729682763,0.52689580186771023,0.69721281036864058,-0.22366512842555655,1.0141395981915486,-0.19214685688572553,0.31163100066566668,0.28482257929459975,-0.10915140921614862,0.15598784015721559,-0.13089599227822421,-0.23917224450711511,1.3505749392382334,-0.36380411807726337,-0.36859006997129784,-0.37776720406056019,0.42356563944103698,0.67900767311671062,-0.56743741568730321,-0.090602441152030866,1.096314157657537,-0.43720553697624776,0.23197310862233678,-0.083742758963219824,0.2035191015802143,0.77015081886875503,-0.042184829197919896,-0.16960864144291715,-0.028666272986718519,1.1659856779835647,-0.13569217814149095,0.41480013544511946,0.24091042234151028,0.028683339401378887,-0.15209292659810877,-0.32240776415000866,-0.36819982129177364,-0.034834648717031784,0.015999408949197946,0.91921339351774178,-0.35949101098176822,0.37019055702468656,0.21447652057551675,0.49251338935000649,0.0016984662221778987,0.44154063895271684,0.53997976910479284,0.35783719454887292,-0.43173290624972649,0.041396098592417364,0.2167984764874015,-0.026445433565109776,0.19498573139535619,-0.21663849223783932,-0.40716505435433525,0.017755154407562531,-0.84153703600408225,0.79703732708183106,0.60747252508599059,0.25611763537669141,-0.16638133522477144,0.26456167137204556,0.75793327700200663,-0.89757407589835714,0.22074521224359753,0.58802223949906873,1.0836392077710741,-0.10663406788055153,-0.28994954794069222,0.10791038694928838,0.23875066746950577,0.015082647074755389,-0.46983650934219057,0.53983644447036216,0.79262844572914637,0.26881766002899965,-0.060579362681082514,0.25993961925861531,0.30316050912162951,-0.53470736628572879,0.012908526205702457,-0.67816888543989706,0.01437862062002797,-0.37604583945714853,0.87286760994364565,-0.31854743098637772,0.17220771313554373,0.47944098097592541,0.46041002202811204,0.46190225935176171,-0.7103755872780938,0.30613649853175112,1.1398252879867978,0.25669354262908656,0.055713299078340342,0.30080123971018058,-0.15265346460221696,0.21669044987419292,-0.26810468935288151,-0.13989762816989959,-0.47401475336047633],"bias":0.6331751310037631},{"weights":[-0.69318536468956971,-0.32883596506617974,0.14738349559392225,2.4072908594092386,0.01429278166659761,0.71278138981416983,-0.32304088305718737,-0.59602924216418363,-0.24194659189017942,0.084641642634009182,0.32821849047834867,1.1283624730800104,-0.9494291289292115,-0.45878998910519236,0.6979208353926637,0.34395614175280598,-0.68789840035679961,0.56419190353445337,-0.74429937260123491,0.76549160286211348,-0.15931214716799827,2.1276648921126959,0.0015195512819242804,-0.089800006875648847,-0.40783480123188126,-0.27183158855987466,-0.095693531844813787,-0.35396250875328472,0.17151546308448201,1.0571439556666267,-0.79430780858208194,-0.22422750433878497,-0.022106730923828363,0.49411848061640662,0.085271609747001098,0.52259569681192486,0.14261738734452795,-0.13191312396456251,0.73507709684337608,0.56709352403424684,0.38065330652029455,0.021486028206308079,-0.39056126097292748,-0.085879622976882161,-0.20324250292647369,-0.91006663588719561,-0.18127659957073175,1.1463367909788991,0.48834786318664808,-0.81038632445339587,0.75111990323305788,0.29642533822696382,0.10302122236251525,0.10643032591918571,-1.0033619746058562,0.8362890469435752,-0.49614592895865628,0.1304043156489145,0.13852059000762645,0.0013082868418199183,0.66496441333323786,0.63204305808846828,0.14622701184928613,-0.75506445811989276,0.20036100238129698,0.83856004065735357,0.38181531884932896,0.24874539217125854,-0.38455187352141834,0.2498209638871616,-0.13617679732093219,0.33660172214365458,-0.25300002663943094,-0.2046476901433594,-0.067254858076527507,1.8098376026973144,0.044942166416133217,-0.2478761212369705,0.017280065518860629,0.12856784072866981,-0.17569654101725449,-0.68875831452317626,0.50519192916158995,-0.10625857146404953,-0.47162449401083967,1.7168528789327693,-0.24890278275381303,-0.05081228785807964,0.19716987856823634,0.098273529661428771,0.37173658535650439,0.012883023999481973,0.29666580596592385,1.8673099808912785,0.50496232509253591,-0.44356143103236517,-0.60392075929487687,-0.42313529526252275,-0.55032711894788444,0.046935437124426584,-0.38560690485182919,0.8066276848420979,-1.4879521560446718,1.372632331292839,0.34240552973495481,0.17205979088274634,0.04500113318724553,0.12900416044614055,-0.48568856289179546,1.728668991268417,0.016513104397183946,-0.36863536549803616,0.84476384967908902,0.3090981129150786,-0.16186912967256079,-0.27798909763386248,-0.42792341695179159,-0.82707209575623497,0.44834915385171881,0.41081941679785999,-0.21278558050185745,0.25629789027223293,0.20152394769631291,0.36341579045139605,0.35732453414682608,0.074106186797639778,-0.45259109300140488,-0.13216542433857784,0.15399987761854589,-0.062530137523879495,0.77230194913618433,-0.47411862108903369,0.31336287500710902,0.30836247194013755,0.62726768142888323,-0.71724796208672559,-0.55490554209016885,-0.069683374109473631,1.4797263996237646,0.16878157101658126,0.0047654013934660773,0.012634639723429987,0.70304244360177781,0.026926321051116284,-0.11027554921073716,0.18917893405054573],"bias":0.5870304145949925},{"weights":[0.13115641677256928,-0.64974499891881676,0.95077653181551047,0.55366631894392904,-0.1635080076143012,-0.01981132928137791,0.19236482424240381,-0.23468833044367304,-0.06983119194129489,1.0139065251705237,0.23322145990451681,-0.2298774566320046,-0.5171568685086152,1.0391809084991543,-0.21156105687190885,0.094069034123335407,-0.53421653742470709,0.017399952245447173,-1.0052805198729535,-0.18206771481026329,0.30987517797553643,0.0018077755754171564,0.49027243194009845,-0.13097922552223798,0.44304716143790557,-0.093373632170850512,1.1783986012710399,-0.36087926360063355,0.29909287678023072,0.39277336586157796,0.057446818999651796,-0.29488382269511398,0.17746671766757829,0.17191103844784072,-0.15005941082312413,0.37617795063739673,-0.27357763032395666,-0.98706824967083684,0.1251226696162962,0.30823698011706935,0.50559568949565303,0.65529946457900501,0.26280442307597651,-0.3410592965983103,0.58923615142721242,-0.17248591645563041,-0.50333551909806262,1.0858295736127137,-0.094743212532058863,0.046186914628501205,0.27324375965746345,0.66366543615969786,0.0066713975738178074,-0.47914548099621801,0.27512567792113046,-0.57245222717523958,0.88417744377227969,0.18073444619778389,-0.83863424140593601,1.1553278169361076,0.31041148408106967,0.087283391327513435,-0.63793189870482192,-1.0751602599359498,-0.14625819745993479,0.28917030512092201,-0.32095371941611883,0.27287688583342401,0.025487654904683306,0.23843797465564853,0.63753497191089459,0.91673154694090064,-0.1630570631713574,-0.16291963759254666,0.99431589561765021,0.63436917371178558,-0.097856866958762431,0.24502614940897427,-0.20063264458471844,-0.32983950518365868,-0.14507058043531176,0.36944536167448599,0.10637274043068679,-0.25796002225121861,-0.58132945685751825,-0.66178446622588039,-0.89239392001201701,0.37794675941642364,1.2635464383561279,1.1000249056772866,1.006032988702074,-0.66962578000689532,1.4101423873979066,1.7257347032127506,0.24722193198728987,-0.80146970519076133,-0.42652148699378462,-0.25315595939131424,-1.3423184406599462,-0.21093269872942164,-0.11420229796273874,-1.123039459993745,-0.16964460177195648,-0.5026382233329999,0.34723331475190378,0.76636763030507782,1.2595128618614937,0.65786616248594332,0.3862473868741283,-0.7792064870569847,0.46198278881061167,0.23397572416427656,-0.35571404244578486,0.08199957414365161,0.55787184880696716,0.46430916577483128,-0.16539949700079348,0.14057103592335399,-0.26131441051953869,0.94085207542778093,0.051873620582820093,1.1286214535021932,-0.59143559325362216,-0.77316612569171073,0.21889835316034958,-0.15755236428835262,-0.43655825618376415,-0.28292891704211975,0.65259600297933573,0.39512210096200068,-0.12055935990840423,0.71847351390409775,0.0014621364820274494,-0.16395414691413099,-0.0055388442332265694,-1.7964102780823743,0.34921620655437019,0.31813637320110272,1.1571011407441862,1.1560074465767678,-0.20517650013174149,0.0053701542410960739,0.37143936324146154,-0.58796365692017383,0.14415205719921917,-0.22153220349981043],"bias":0.35040010858083981},{"weights":[0.69558957310750402,-0.87796264906424981,-0.17007211144594647,0.13094964086633779,-0.31827236768385264,0.25051741518179615,0.34288151964530034,0.5804530027100272,0.36042854643457684,-1.2593885559144737,-0.84094294720500129,1.4627521140863211,-0.4668484033481064,1.2923216730865339,0.64819138031084178,0.4928786237675068,0.15979249239475887,-0.29427633999771952,-1.5549721553706599,-0.52568899114927536,1.0984415279057627,0.32836165203991763,-0.49175030406317766,0.86898673043222441,0.64920205821105126,0.92616490557223063,-0.057802444681706942,-1.1501747077233351,-0.32427571882006706,1.1037436136904546,0.36723713678590225,-0.17902303081257143,-0.16142274451497313,0.49599427863212653,0.28117902979680814,0.78022483280826949,-0.85247202261591271,0.14269002010974532,0.60262907423715339,0.076406339557501229,0.95728080796244674,-0.49342505607693454,0.71795234693530086,0.39979720898090987,-0.29838352790886385,-1.1067758790664435,0.076631288781415091,-0.077860226239783212,0.4639291157845678,0.78273133663304983,0.34399793102437615,0.40731903147920484,0.33472444776901422,-0.032084576121327132,0.85650570964466266,0.13310918243861172,1.3322031627422706,0.40404033510875415,-0.41723160635685924,-0.1200024537966182,-0.39408314322524712,-0.51563584212447233,-0.10651608162651857,-0.88575869874766311,-0.518107729145733,1.0047095979794121,0.23138890662889391,1.1963961518903936,0.10225488317957755,0.52540345002425015,-0.29442688711897774,-0.20881061772032053,0.29588985830108649,0.32890121724653892,1.0958538547841417,-0.25775141475423741,-0.089950373558663782,-0.37857358596971863,0.32754763201922255,0.021345787444275871,-0.18575409891180242,-0.68466265579991481,0.19194891639559755,0.024874259177385734,0.53103507163699126,0.047683195258555133,0.47530285459247135,-0.12637495879244889,0.65070243128437655,-0.003231320582091966,-0.30720808078591738,-1.0729558703249953,0.79251573614711934,0.68751923878383814,0.1920819269779416,-0.92696613295451746,0.27831707525355631,0.8403188727553017,0.68871911446183509,0.31849645061649923,-0.12304346242314403,-0.56174839182063174,-0.11035601477696559,-0.61935749574322974,0.28582942065057032,1.1888611509720584,0.42688876625345695,0.40643433742300938,-0.013772709008398316,-0.37623837793542741,1.2811263221316644,0.16982218503767096,0.17601575412361495,0.7933149449341812,0.08484458617941662,-0.89900762929163325,0.091011931924778924,-0.59854622063105689,0.78359477906512176,0.25020542512207866,0.36066791319498581,0.44272813072513423,-0.67956818792077411,0.093301525173020622,-0.11001039650774551,0.73301004434472938,-0.084965217402872051,-0.26814255007088744,2.2836903093089291,0.046371959738152828,-0.35689976471595869,-0.48112029930733069,-0.41441626244046387,0.047149140621751351,0.42170628359503776,0.18562063164632284,0.71843796888433331,-0.25775807534913148,-0.19494973124064321,-0.6786018096498494,0.093357978907312011,0.42263204540287358,0.75534765662372894,0.20707832715994251,0.66518365896855658,0.51157721706827308],"bias":0.73521725309063113},{"weights":[-0.85808931469330907,-0.15715065859767913,0.41622939522539448,0.87332633362578471,0.83697198080329671,0.078437032130236603,-0.015188406062554007,-0.052386120458564646,-0.1645019680095394,-0.12349557026980647,-0.0081649568855201374,0.071675385883464712,1.8955811875187709,-0.062406787361269249,-0.0070789685176416116,-0.52223043695012794,-0.44565731555797733,0.071467801470633752,-0.32447103830306806,-0.39934457089830444,0.86896115021351339,1.0484727859970224,-0.26052374501107312,0.38585236310213111,-0.30984409415620268,0.10132890123175076,-0.18095112608242359,-0.78971276705664339,-0.015408486717020855,0.86673776649611334,1.1253350066355805,0.19651377395699063,-0.37491302538154303,-0.23765944293713259,-0.019287968393792314,0.31665279982521582,-0.57235583767519593,0.48631067353047475,0.2053867103176284,1.4955693282775351,0.30638378030232882,0.23843700580909516,-0.64885313975247394,-0.19609773937680069,-0.4940682663607141,-0.40923321327156792,-0.36919399246286894,1.4449759705844847,0.73781624637482668,0.38056801102862886,-0.096922244828790374,-0.021123128936797714,-0.43298700703894571,-0.16049644826616224,0.046710609804880364,-0.17629041457198397,-0.57245206122342129,1.7765591017640012,0.017945937725398691,0.36187960145510639,0.087503637373208459,-0.3460229365017165,-0.16955662608461611,-0.26362193230201802,-0.24491353810782918,-0.51032233981290787,0.78426896850923566,0.82095380824559461,0.093322642931582933,-0.21490391117191612,0.52815658505334151,0.16234317429366618,0.067312298882890365,-0.31579102438736556,-0.41097150308158165,0.75112151921989145,-0.47505557332025905,0.459398046729114,0.11194449146645033,0.029777895698377223,0.78395566580400411,-1.1806135164834617,0.41315830746522209,-0.027332899744074889,1.7009477103750656,-0.54010458576901477,-0.82168124658341646,0.39871466028179087,0.59491163299205441,0.47603420627148635,0.17621954951525698,-0.18825260244132747,0.79510907282078447,-0.086958126965618998,0.62199499477702636,0.3360838804388947,-0.75262632780815342,0.17095133737362128,-0.076913216077679841,0.3220251584500009,-0.80351572147463868,0.31283705241196902,1.0974194033971008,0.21604222509782928,0.11591991426679243,-0.21466296755065739,-0.037347190656581639,-0.014969789829992652,0.1165525380185034,-0.32604669819374477,0.815753955349238,1.8148188720210137,-0.47659158190960926,-0.12544274056263541,-0.45433316639212867,0.24297316351652729,-0.52870381299838243,-0.11756860436455482,-0.49139040279036617,0.93614206122007448,1.4690595972421874,0.18033939400675825,-0.16100345809612754,0.022229178780666353,-0.55583168867542643,-0.21117766149314154,-0.10614997168115181,0.26120773297044347,0.25661493327333024,1.742425943574289,-0.12556996671363291,-0.45734346206810356,-0.22740297536273546,-0.15391031009905243,-0.1236829221303728,-0.24841699470522061,0.12381451903415112,0.056610858477205983,1.5940503489824684,0.56262151612192124,-0.4450858702440198,-0.059422108650334322,-0.32790735876619614,-0.20082251636438148,0.21338775198590323,0.51989845638546817],"bias":0.5698258285056409},{"weights":[-0.47323650016525937,0.18515064362819958,-0.41340091180997934,1.2815260713816334,0.34426457657644227,0.10783661444120413,0.1646693455788088,0.16909715479275067,-0.16143696190146278,-0.9288013336574622,-0.10640545596744171,0.6702165593774263,0.68240061078959258,-0.17523103925896269,0.19539152416552488,-0.031398452952209624,0.42773419478866409,0.35074386313470357,-0.70076332147170151,-0.46559750933308863,0.80194413716799806,1.8424297572169404,0.48780596130248161,-0.25711519077849881,0.045372239801079392,-0.17089998046927879,-0.45841747181793663,-0.15259173341768467,0.2561691778225752,-0.71952522223430138,0.38684606463595567,0.24412949971674039,-0.1345254354162024,0.48032578673898541,0.2211894352102044,0.59935526519438631,-0.43316983645726193,0.26550644351373437,0.1723836007282129,0.40201336569856261,-0.15454631964312171,0.074658829475661437,0.13097263395111275,0.68232002886929233,-0.11229786821155814,-1.1109926812842388,-0.28754129127705824,0.51877212103670334,1.0320179095805939,-0.01227516871420891,0.20227733607530959,0.032420141758142562,-0.07047290599153419,0.85736183435973712,-0.89410992209879236,0.60404851819243521,0.42984113395313989,0.39162834901277177,0.6884661969108361,-0.32752401872677711,0.022828313290710302,0.11978160216290096,0.23641288726426302,-0.60897845189787869,0.42380710922855708,1.4842688159149258,-0.12428382069249677,-0.56788104952964835,0.4042091592005177,-0.079967890488588655,-0.52386602669466131,0.69950971114557492,-0.74074464078866209,0.13504094065885885,0.98442626217759532,0.68404005252547351,1.114146617069115,-0.02056949725220783,-0.45825409836518799,-0.25697761845160733,-0.25271854307076763,0.32755971120158006,0.27847184549246801,-0.18439086735527882,-0.45139369285459363,-0.059624785476303135,0.19164805477484897,0.62519316445978723,0.52253168605403033,0.035916960320741743,-0.49748910899645743,-0.38469826501909321,0.53021027148589484,1.8371092841504286,-0.15861416426267827,-0.29328244055273689,0.044438007935820471,0.21118416092672729,-0.10031406820070954,-0.2557602809734516,-0.21876904516774509,-0.053920731234597931,0.40927827272913664,1.0825074082113617,-0.098547271259268279,-0.1809821486476228,0.10941438078502097,0.42459601749017184,-0.24029759663745859,0.84802289587019342,-0.5750903479547923,-0.040372059222172366,0.59917301851760951,0.19119379395197528,0.47687396168213098,-0.056032565535398648,0.044297051457297371,-0.55229070620391829,0.17903348758254695,0.44731988996533606,0.95118647945704493,1.4468230527385129,-0.45697224087885308,0.19748017422902342,-0.58375692502184318,-0.42202254759074725,-0.52290372268400531,-0.67472606266475432,-0.22662285344502114,0.10401905740347829,-0.2954967720069448,0.51333587976878681,1.5575904006123367,0.54801905799435979,0.098153420736311892,-0.17752363003622657,0.024388628933437503,0.071902325266907777,1.2797696827510239,0.24104820145107025,-0.091931645664969877,-0.072104238712121071,-0.25163893981351421,0.10283794717549084,0.17329750436033603,0.029097987780374833],"bias":0.73186337117306288},{"weights":[0.15080929014870406,0.44515055195613118,-0.18841819384715916,0.2144378225110688,0.97040845333564307,0.41182151491487623,0.0054798483040782936,-0.0041613323720525565,-0.41284755226413528,0.77949804102411369,0.41309918690159286,0.34769237253048696,1.0939509948697794,-0.93477186946096646,0.17967992113488299,-0.18615645839127798,-0.27288637131085586,0.090830969208247181,-0.87733615312493984,1.1783170678295369,1.4328315672068592,-0.094544859152129623,0.53641080384809114,0.07791012636247964,-0.073906033285829092,-0.72762143133254709,0.0055648517042405209,0.77943727614250935,-0.79703347025981497,0.30815561415052478,-0.23331777596034453,-0.39535279186910605,0.43467193129057907,0.95335490878792029,-0.7149465819598938,1.1103924773810683,0.093898784065572699,-0.50787153806723595,-0.53391511416590776,-1.2536800811777398,0.88541870676476175,1.4741682959997813,0.46640329466988167,0.36094568095045138,0.42221163427567376,-1.2335283060832352,0.30159590418506771,0.14191458533939399,-1.1350194673432643,1.6202326042222275,0.90564012970366847,0.38353117376606305,0.44408575325532929,0.15967965846266277,-0.45871818714968676,-0.54860500810777635,-0.45487251580064053,0.11369654652695389,1.6449473736838349,0.44938505956206004,0.15299321946662606,0.95839883185053287,-0.30789191951058698,-0.19253837765463053,-0.055294605140333158,0.2042524486503266,-0.98291320367069457,0.22749018405724525,-0.063754626589415345,0.3826052137914735,1.0686200073736096,0.87100069366569177,0.57725569653944675,-0.040776263615056291,-0.38070838389353373,-0.37731174665848316,0.96056524151336431,0.45013685737529707,-0.3911375383572781,0.43550841687251324,0.18034831821423614,-1.0934420667545066,1.0695478458537366,0.32036303943562633,0.56727815862516429,0.92271719154764109,-1.6599508253061477,0.38483378849135513,1.0591628602738803,0.0044485966306326312,-0.34786464338029244,-0.65492241320048428,-0.089417229939242726,1.2821366872306215,0.14108812638106472,0.4405823608972575,0.94981903787935218,0.2669146682588972,-0.58755603843921456,-1.0383979975075259,0.28554782446525884,0.92624580380747157,-0.076143786223288629,1.302724706943835,0.39244086769631992,-0.97592092425764165,0.44762943494144564,0.10991372976074917,-0.7132458507032009,0.65932171864894273,-0.39148098203658149,0.16868908005604255,1.692276039124613,0.42671401028390343,0.39859246384220015,-0.78023612417452182,-0.069543331474715961,-0.29021317355996801,-0.1497702092877963,0.28999194803437939,0.51877443164845305,0.60582275486966786,-0.16774427215748922,-0.13965003156357009,0.3680138218061258,0.41960017856592324,-0.15277610316863707,-0.83935857399143543,0.58759013819302153,-0.79692123296676487,1.8476074850183637,0.73884250900833792,-0.41546909950270106,0.70328646875351108,-0.23379779518003246,-0.77445360704358723,0.69737365702202025,0.81126660403111872,0.37951623236345272,1.3078905095100155,0.22491162491005579,-0.28145786518817939,-0.026409565255625211,-0.84547893243323358,-0.086800805417533156,-0.50260940949851474],"bias":1.0152415235746723},{"weights":[0.29276129903588222,-0.67573604235170137,-0.016833720822793621,0.29279647935330955,-0.47921841289960482,0.27617371461587753,0.86395345432322801,0.18368627701345178,0.72246232472058436,-1.482073766419663,0.71273697097058242,-0.45411989873480191,0.46003338627225632,0.36265626120738709,0.4901817410259377,0.6240084678318405,0.85308465662491473,-0.14408709405645828,-1.1274805640663872,0.04754201448149345,0.83664907271631306,0.50591550508256267,0.30492990689141297,-0.33810481208750309,0.85688363878764373,-0.54388839758549701,0.80538200296003382,0.16710689123291481,-0.164981711183598,0.46758762690240319,0.59776312405668264,0.45645606288157259,-0.44828422759712611,0.064171856120780385,0.081559551426238941,0.347001484402438,0.6714397055753496,0.88394032951662416,-0.75651850702535073,-0.64068352641737114,1.2455026984114079,-0.094369502478694953,0.56568952612466417,-0.28472961650206868,-0.027710692503510222,-1.0601768961417815,-0.32764706238562286,-0.008443322470693182,0.73879789130372175,1.4769569324492218,-0.18499157784871101,0.1646482220997724,0.63216896471816708,0.029560846262612562,1.2678866939864946,0.72254774589057513,-0.29517193368444045,1.0662836201884447,0.47410083958074178,0.042070919688694891,-1.2256352411102049,0.135882709385994,-0.63410312981505135,0.40404062868865365,-0.19865250907653367,0.70778802973380373,0.44902054912578215,0.59705356376009167,-0.39917835331091678,-0.11278329308127906,0.34330411230050317,-0.30496172345875283,-0.49042025850761717,0.069186014220292746,-0.83858968219334995,-0.55303625565935099,0.97667865582156976,0.56979860717406716,1.0627284434430673,0.063775389954388084,0.38275620120510073,-1.3906686415793619,0.23423578671499748,0.73883884337658368,1.3561816673651184,1.6480395579769183,0.15721249735856954,0.040283789588006838,-0.71539368100004486,-0.57340080479414657,-0.9752075596050237,0.75542096358747912,1.152880668942907,0.19064781633854691,1.7898585159723499,0.35214102698851513,-0.12291513017405813,-0.73116789190824505,-0.83200105536200986,-0.032222685406245843,-0.46702653367844921,0.50636735236590591,0.35514088502129187,0.77145404972901255,0.29651363558915705,0.52160361188377302,-0.36712184531885877,-0.11996430772936545,0.80565462817515054,-0.44863136800301534,0.29762939969057062,-0.13200500286966282,0.84798448969948503,-0.39243256393495601,-0.024903900693455803,-0.32158866396319308,0.7911533210938716,-0.49488989670178346,-0.11190167873415066,0.1360082428647493,0.58801475769618528,0.92585480376118268,-0.32505531072679966,0.32261829282062982,0.20558808982742841,0.24149092052095728,-0.24563303780982484,-0.72031442737139706,-0.28092478911121777,-0.38873249026978834,0.95306009360596955,0.18701982052467409,1.5926565154479024,0.10637126204859852,0.12730740663065587,-0.045822066636859594,-0.2963081865426746,-0.8326081076082813,0.01870040153110494,0.95857284739132997,0.071147208256693531,0.51940357921200064,1.3979826012602581,-0.41784822969894253,-0.2639740648934491,0.22588162342295079],"bias":0.97593079256352255},{"weights":[-0.34467633983413176,0.34506360243544554,0.53900351328006568,1.984513193686642,-0.29897693540353221,-0.2574287601733708,-0.42676731223485509,0.29901433965704843,-0.40278723719135978,0.067881390766171917,0.45235229347672029,0.42618257432320072,0.82812340286580277,-0.60828950464243992,-0.79618503305616084,1.0163069294513345,0.29023836576943185,-0.24749682203974588,-0.8409948314802782,0.45576638355701343,1.1695067829195835,1.7911022768698708,-0.7079741653253312,-0.87039505095912639,0.29268711752925619,-0.50204797950176816,0.66534163538547175,-0.6347441053138615,0.26113969645414647,0.87386216147009887,1.6751208076486961,0.33031661257475636,-0.33892799533955786,-1.238369356817802,0.66959249255370101,-0.063270061290707988,0.020260115101333465,0.14556545298048593,-0.082114431651673953,2.1804091219364787,-0.1311505169215344,-0.85889933375870131,0.50858320707418814,-0.46453991282226897,0.11424351150091396,-1.6633974640706519,0.50461797058655555,-0.3987997174658629,1.5198222082897015,1.388779373858088,-0.34133618767445612,0.27033389653628792,0.27963066350878663,-0.026097515143777988,-1.3121503421605714,0.92173688793047659,0.28925734396792363,1.1176969721019983,-0.7839089898134407,-0.096894898427789519,0.4311756133116918,0.21946187620949717,0.79398250597912257,-0.68990046881887412,0.28039851028864188,0.19666298109292937,1.5711300604612815,-0.097367109216298181,0.36379258666389663,-0.44266341759440614,-0.1930870196554122,0.38748250595870459,-0.22547393704532848,1.2283148787227176,-0.36174801559367115,1.4660867602521375,0.25467981901042236,-0.61104863496388462,0.02921068966847732,0.28136610691734565,-0.60290423341121702,-0.10051936472918009,1.3212003156481762,-0.24849055345848495,0.88521899000661552,0.20558878023812896,-0.88496501250688908,0.40532368461396423,-0.21324547107414044,0.19771901556082136,-0.79272612178782054,0.365124768689295,-0.50535212125477957,1.6262167502454585,0.39692882283400083,-0.55908624208471513,0.53922807244217053,0.29492170550395586,-0.027026588632047786,-0.40966190980877948,0.31420138833925421,-0.01538944922866398,1.3832301922471013,-0.51169782633918204,-0.27675298254413344,0.44450512050585195,0.81538865813585915,-0.27795542924398914,0.74626292876435063,0.19553585375031046,-0.10576125539854711,0.96920357621616249,-0.092949574039875138,-0.91682843288202132,0.24411060684997463,0.43218712956388139,0.0010457750723232089,-0.043757647890243848,-0.35751007765671866,0.58341344126258854,1.3643294055314519,0.83899032165258181,-0.9786644364547894,0.78676058690144091,-0.29330089360950862,-0.37884527744959468,0.5667055084371394,-0.18389212727884913,-0.45346134736361277,1.4977488939077765,-1.0932919679597712,0.20143593311715466,0.14273371021856049,0.57928438279184991,0.08135164040551976,-0.17573834569743185,0.25274133751570688,-0.38676168685284529,1.8431490928875995,-0.1339698199546808,-0.091209919636118769,-0.14841143830366951,0.54613943450818503,-0.31887660068603868,-0.48631542297926622,-0.093334765610071577],"bias":1.0022481077188294},{"weights":[0.22083013767074805,0.87701520415229728,0.19267458601504742,0.13241161481922034,1.2216246151695127,-0.53784516318276898,-0.088195890715627792,-0.81894664099466596,0.1919904277752737,-0.4234319370510079,-0.62182528672879045,-1.2775096441699638,1.1841332883557845,0.15838919862821227,-0.45890859615830565,0.53460446849296095,1.7789689731864891,0.32502529669959146,-1.2938415311770426,0.23068944435390198,1.5829624635196933,0.3924831348626231,0.4088692891599614,-0.38463733385566617,-0.55938905294951713,-0.11515210366062457,0.85967979687249729,-0.31304679786778639,-0.062973612360167422,-0.57825354069024226,0.013552719616720457,1.385109427955959,-0.75111508124835558,0.1069773986200102,0.81929336807977482,0.71976106168008613,-0.4169933678414745,0.4664954641382465,0.080590598385211432,0.13450280982563576,0.12513728292488774,0.54578701851440958,0.90696709430644051,-0.034781815568768221,-0.60738357901436768,-1.2452870889147643,0.31281652214376932,0.23627138034279191,0.50985169087984994,1.2508903482495619,-0.27267122639829966,-0.2628178520843531,0.66182959670047414,-0.10378926326579817,-0.048076420395915219,-0.11692303052194611,-1.0971681818607395,1.3544995094565955,-1.340047440946422,0.84140936105609121,0.56626623125281683,0.33255482385074397,0.71629189423550621,1.937506290905564,0.5143455654016027,-1.598814291843428,-0.014456423821991197,-0.52985078251851114,0.69817229276669912,0.11071848697940836,-0.10085607411896697,0.21649406965786533,0.56187724142689166,0.38331581818052485,-0.19716624585457099,-1.1483112452082351,1.945782667171394,-0.79904054314241912,-0.19171361045616273,0.72304183849565629,0.079191895500738838,-2.001026561876639,0.32915389422439012,-0.086630649933091886,1.0839350784496808,3.2424608717319563,0.49161049366048931,-0.48187905021577027,-0.035602447043229096,-1.2331063564234328,1.2564218769907423,-0.69279709161418102,0.041017541353708123,1.4182788237201132,-0.072369393058454828,0.10404542209393876,-0.37214952622552105,-0.25491413674273233,-0.2338939453006437,0.016557337333744756,0.22105235656993599,-0.19131978587969584,1.2499098340751373,0.13948642051935253,0.23018288659705108,-0.87472791848803688,-0.039828217956337245,0.52522297283330976,-0.38469380976257905,-0.31219642631411004,0.31710977768378845,-0.0070540799890284698,1.3303068027906289,-0.015099727480188094,0.74967157192436984,-0.91618321669444813,0.56138340560427735,0.60824067935826875,0.64549807325366404,-0.76749831679418412,0.82164802717501173,-0.18229054497195712,-0.43324686690397052,0.056349832140545078,-0.02851801364838627,0.58842831259383954,-1.4625771586445417,-0.7868308859316171,0.86280550125725497,0.21448821011055741,1.622596023480593,0.16391746206638777,0.044923194659707164,0.31613444726178402,0.18882433199888229,-0.050551125629350324,0.45606634435805848,-0.37728528926855071,0.50689095789475336,1.2136512402242485,0.28986502525168517,-0.13172456597299292,-0.010393980335307132,-0.60108359010933943,0.19316143892110429,0.40858481716861628],"bias":0.8108388160824479},{"weights":[-0.55401739009217965,0.27897132240573275,0.16612516096819518,0.44743497375715424,0.3307739944274351,-0.12914851055590906,0.33289543044683684,0.031967445844279255,-0.10649742004829091,0.40118804860200591,-0.049376329990852806,-1.0952749603349752,0.74197574262583055,0.27349767684400095,0.71281384059765152,-0.32323150152054581,0.081152360805358592,-0.034063351315733806,-0.55370475504274219,0.20233202657235425,-0.042572606770738243,0.78770793514509208,-0.50737993079207022,0.72609380249246436,-0.29961081456496591,0.36742581362757165,0.053114899291758957,-0.89558715033461367,0.3718985959123558,