{"layers":[{"neurons":[{"weights":[-0.015990746392744018,0.49361654943821731,-0.20298556483658245,-0.39041973057494567,0.64353095854710307,0.40976834982993832,-0.30848479426105563,-0.1426275979559303,-0.1083275833872154,-0.10683051425905866,0.68825284558719579,-0.17410605320442304,0.55220972353027575,0.30993740152117816,-0.36779152680442412,-0.21395037137790662,-0.20705951069548653,-0.064999759934130097,0.23611073120482556,0.55342194739995931,-0.65958956570748994,-0.20307744024084332,0.07413501994373678,0.28875292876103692,-0.37923634613636814,-0.014771410430423244,0.62877408693258607,-0.57030011129578895,0.77544858973557307,-0.55134976104256816,1.5803622607359453,0.059142937204173768,-0.091953323522566036,-0.5766669358323735,-0.30000197363857578,0.17126626304360806,-0.73355350903321859,0.28139716267933218,0.61893210307124658,0.71258198792578986,0.44719304107602154,0.11323762235055421,-0.52357473299882995,0.13810665859357557,-0.63393252988743132,-0.27877999855885005,1.1692938660541088,-1.1972634050737931,0.69204957838403169,0.58946977552167323,0.014484004595475707,-0.25673379141537439,-0.018681380968150411,-0.15815824991991492,-0.48902563972908369,0.43442716854318719,-1.2739923028687319,1.6674996050384159,0.21598263657235828,-0.29271675118223939,-0.19248622208591606,0.38607758344161286,0.068980614869893445,0.052461241053050417,0.68692910554304798,-1.5617831605334187,-0.14285918769837147,0.37918895780193329,0.088858578242789976,-0.060633217575589926,0.55037808104950614,0.48643671698539209,0.23474373540708549,0.42518069893688559,-1.4243348203989437,0.44459809147405854,0.5153639458624053,0.33523526107077684,-0.22939670202754542,0.22062208887070456,0.053953084175878532,-0.61504618330807292,0.18030975569043145,-0.40670531212184585,0.85841823411657436,1.1390411297838374,0.13154386147175232,-0.062709813198030206,-0.65431266477134109,-0.058405602352878574,-0.81959793457461139,-0.045336088983991468,-1.3371910194339347,0.83458736130404165,0.2462008424198093,0.29720859502414393,0.38213608008493721,0.39630673979439901,0.50666310675031501,-0.5889089806442297,-0.25438584807675341,0.23666264528271869,1.8925879404135906,1.2040602863538477,-0.17169654792662439,-0.65078028786456388,-0.50461358711852988,-0.64016614949957651,0.44964215699586862,-0.21681474300822146,-0.75841951264911978,-0.11319397673818531,0.27214763402827674,0.60790127390985049,0.2428847498405213,0.34027762852977972,-0.31686526734594533,0.30601141128677156,0.47250830644835695,-1.1922816067488617,-0.54966362800949287,0.92770847471029283,0.29418822650434545,0.1580665501298491,-0.15376649662237032,0.22122202387860782,-0.88558880579773935,1.0694015154966883,-1.648015035824334,0.72619589972961296,1.6839604975834925,0.2063414603338159,-0.24519956563220105,-0.20745813904463747,-0.39992609501360382,-0.44654663086552721,0.36188857643408323,-0.33620689017179256,0.044534552323438531,1.7662281549878465,0.12007825040910082,-0.47286037982049339,-0.28457914172700061,-0.34954461769865675,-0.049039794387965456,0.027702883335022063],"bias":0.31806323818099003},{"weights":[0.48037619265078019,-0.19262456980024587,0.230987313921658,-0.098036431162077012,-2.0238059498819307,0.43860395437224692,-1.0730662385837859,-0.24013893693430916,-0.31789374057483155,0.36531995675303031,1.1265776579926647,0.28843435732433892,1.2401908354113877,-1.4451279184039332,-0.4190942307595677,-2.0651281642619512,-1.3482489032859626,-0.66309133080208449,0.42823090817830062,-0.22945342953969164,-0.3573978731299895,0.86371701145795776,-2.6095353082375166,0.71706009965629058,-1.5462227223924261,0.021005134550874199,-0.17021832905852236,-0.69631245903564765,0.027407499946998683,0.55484965003876807,1.3139275415521874,-1.3816058350317821,-0.2301494217063528,-1.2746040180767875,-1.1429152109364848,-0.25629246334354494,-0.076650266208342116,-0.1285555775023095,1.0163188821084319,-0.36510260922816007,-1.2552972418669057,0.62297989872862924,-1.8440282682936584,-1.0674826954770211,0.21301885958439409,0.6106260252175657,0.57185268931265543,-0.11225989389255456,-0.57419323599576466,-1.146429757917993,1.1611942966397866,-1.1712103416329966,-1.1902057577416421,-1.1379711350539359,1.3204709416816376,-0.68684152458594849,-0.37959830567980479,0.40941275065604332,-2.1890194220876902,0.65683741692034336,-1.2078225466199166,-0.26551702997950638,-0.52454944915104995,0.372926963565401,0.61034679625168631,0.32013581201901087,-0.58340863797828058,-2.9291516747874571,0.81082160310192009,-1.3397844652846009,-0.1852412885436287,-0.097526960240453486,0.11595401097872778,0.12190757580966671,1.1419931970789536,-0.56959635303228595,-2.0295849564352095,0.15787861017252081,-1.6210800972496764,-0.53417868108242861,0.19976308288368408,1.5193024017621888,1.0038725015188148,0.71044614380884508,-0.11978882037510145,-0.47898753730727844,-0.91554492907838736,-1.7594621730034907,-1.6812306653752331,-1.2926719535134787,0.66009434362972741,0.263133029653911,0.40005569399476959,0.031453162398376831,-1.3453999376626236,0.3256991985094056,-1.6091207470119169,-0.93097967222915823,-0.6051845577021967,1.1544302724865474,-0.32466297259264687,1.2482304089146665,0.21411857960553426,-2.887674716491611,0.208038437875286,-1.5022530253964335,-0.85565316927018653,-0.24472879036926398,0.16730167429722881,-0.90856426376756338,-0.13149041570892545,0.49917879870938242,-1.5039674129088343,1.2733841537874198,-0.99000866457645331,-0.56828490942138365,-0.80422472171779846,-0.54949901580692107,0.62927689517538221,0.86573395153456234,-0.06877271311802359,-0.99106768543086743,0.28777485465042868,-1.9942239913749311,-0.35468275888149664,-0.76727112116445917,-0.020347173617495704,0.36222427262343904,-0.80155708444448304,1.8293085869360226,-1.8467960084070936,0.24538037575012814,-1.5299801436323108,-0.98802840949389259,-0.17194313408427869,0.5171006052913889,0.55112517726660359,0.3245910002206483,1.0532269437794797,-2.9954810685690427,0.35556668708502887,-1.2074266176294783,-1.1126844689893283,-0.59857122961372111,0.19403098421341791,0.085269424146484044],"bias":-0.54088933224394864},{"weights":[-0.033712626474127483,0.49796384412723382,-1.5918510070532919,0.44269774817912089,-0.02006159560266715,0.091524545441454774,0.32586466642605161,0.54883674317736042,-0.1469330283371317,0.048388322797762007,-0.048940422243754958,-2.341931929148414,0.50232441905787206,0.78836691868004827,0.90111785139288936,-0.40633814147388941,0.24418047133813497,0.35916977732737326,-0.5846404087899012,0.14789365092020937,-1.2507067617594945,1.1561296404410204,0.68870013146927123,0.21085342623633552,0.092701955776614164,-0.41901393786083563,-0.010287050108349773,0.33792546106923937,0.0091787505854944353,-1.1599648710729729,0.34329750875864379,-0.32699858755400252,0.30423194314561935,-0.045793298128187346,-0.027110218670270917,0.74054374592956995,-0.088488784046322946,0.35850937833867286,-1.5440901129811133,0.47202928441209813,0.33262403044508299,0.70339777335035425,-0.28135691150600922,0.064941839086679762,0.094741884380784805,-0.091336285870583886,-0.12802984831737427,0.1665448546094018,0.6585428297488839,-0.53587745463743319,0.10570490300030171,-0.13485684458929598,0.34450421498659706,-0.17318511374381917,-0.11347301529657181,-0.40897149423466711,-2.0142615146651091,1.0676066051278332,2.3192575804607665,-0.17269488511661016,-0.36420711519684373,0.080771987682608251,-0.11459130733817116,0.21076861167299588,0.65607446209593978,0.22096544604109314,-0.1370584432575824,-1.022508221103491,0.16741363968093076,-0.72149849863747462,-0.056218502698747626,0.78540065258830027,0.10366198246436775,-0.051094859757579623,-1.3344275430089698,1.4102349337879592,0.21095986549759305,0.018289880136491667,0.0017070681437103704,-0.15517778806682739,0.014078898326562351,0.21126798469315394,-0.57675211297369688,0.094902108932445078,0.07414152949275099,0.16524171427528303,0.29495722693926824,-0.31900923937089548,0.41818566899777149,-0.076621475739746203,-0.2534397182013805,-0.39301224974527349,-0.75845512012346028,-0.41348819080945226,0.2256789674302522,0.58758945446222066,0.46745037410242923,0.54738505802019022,0.21013970522396772,-0.37898911102704319,0.10347721148690908,-0.84906322400539413,-0.41704633736717411,1.0071794526642748,0.10172296952402533,-0.21815741761809615,0.39284141553216445,0.3185796870979179,-0.48111672498078561,0.37152243148555758,-1.2882216967275657,-0.24522634206816374,0.8187705432658603,0.56456180970643655,0.14981769681566606,0.32827555789014856,0.057720762027066844,-0.43943369576754054,0.82914568265654864,-2.0424783046985793,0.79371275330968472,1.4691664170222796,0.20253863235448388,0.35057982822376399,-0.51997712517631611,-0.4404036959902845,-0.39057674033888057,-0.95805771726272904,-1.4099848453854877,0.32331613736819981,1.6237922174466857,0.10957566332054958,0.24406399097469628,0.6227277094728193,0.0057830892348130717,0.0013003819597205257,0.071918588109228201,-1.7094884234075558,0.41224378333361833,-0.43770654092046007,0.2160920463914007,0.76333706179077188,0.77319418620434188,-0.072229816085062973,0.27862693338007843,-0.17721245315668113],"bias":-0.11282739280396563},{"weights":[-0.21920136855178454,-0.24354902148006508,-0.10546996373126494,-0.55776682976989789,-1.7355451872870589,-0.045569255882829722,0.35126067391729482,0.291861349433299,0.0084465176459474281,0.24560371161929137,-0.31772516739849849,0.4612458090490601,-0.029618746373704419,-2.4230152599037611,0.19224648548515363,0.074479790548026253,-0.25489953813613486,-0.038613034938442328,0.20084885120155899,-0.043121482747504443,0.089423618257651688,-0.5344748411874678,-2.2113798080450091,0.021923124112189028,0.43868093342064807,0.3171826099439084,-0.28411284678489884,0.6059875868481529,-0.47595417713532345,0.73749377052614506,-0.5082781216024771,-2.2619150174778242,-0.23922040480167911,0.19910255979597821,-0.36520081172129126,0.076715113416179703,0.10119386287983248,-0.47656265634641326,1.0007092568681339,-0.74263321710758501,-2.0678983349484614,0.093037373856420635,-0.10141902638366723,0.30324409862317098,-0.33678852897274675,0.43835862351324212,0.25072754913030154,0.026803151392855964,-0.29351102377680838,-2.8956284401257193,0.35033962601190199,-0.23756478698406999,0.0097150347086027624,0.29959447248233229,-0.83221927418654151,-0.31666499732739017,0.61197100059779785,-0.68748425979332517,-1.2422384517539835,-0.04052213581525916,0.12439103202212984,0.062861431425765016,0.25383151712959512,0.24045818544868924,-0.36516794991584406,-0.0069931236167302176,-0.29047075494013946,-1.5847293584248199,0.15054905795191956,0.082323468672447664,-0.14436603326147421,-0.29446774842271756,0.42732625835963334,0.26946568002302534,-0.11190209355682684,-0.23568687247427098,-3.0134957728518055,0.76084174340612221,-0.15119470038986327,-0.11070132072425212,-0.13450227155377206,-1.8227789087216306,-0.19045903910206199,0.12502203326600245,-0.91336604516038744,-1.6514573141436883,0.67180765930375819,0.63611713123077052,0.36066215989691613,0.74651610919662426,0.27390416318924699,-0.40858369449839765,1.229879559512661,-0.8142813175217718,-3.0390423863538758,0.22765779543422682,0.32408191142562737,-0.058267060609304783,0.10666631387508325,-0.096582619764579922,-0.27258761809350585,0.20858165358457323,-0.061615938157639438,-1.0789043920553465,-0.44440054269522516,-0.096105950484913827,-0.37756792657741051,-0.0082363159316075039,-0.063268529107888979,-0.71947187489113062,1.087096121286649,-0.38208673006216481,-1.8763104391338774,-0.071929804404487749,0.33839406337457445,-0.37623060836347144,-0.033610693381784094,0.31358360702245114,0.1376733732701928,0.41768120030964989,-0.47779455398723142,-3.3825510998095054,-0.058262929298984814,0.36930773304932701,-0.12155877637694215,0.65358603061063569,0.16474056422229982,-0.66491738237802289,0.25632650396835127,0.3684108796023367,-2.2644886062075433,-0.11881270568658332,0.01150316746014687,0.021960174622369683,0.15458644795129153,-0.20887425882732258,-0.052911047919112317,0.31052023765449288,-0.38946486252560214,-0.61347198586830487,-0.11681211668413002,0.034738037537037907,-0.72893968999029268,-0.37590925208519399,0.045458772675030831,0.008105618311144135],"bias":-0.4540186330573277},{"weights":[-1.0185330282546103,0.12634782189626059,0.52315381080696743,0.2653806020902032,0.39665209747132202,0.20726341292712117,0.42349931287447551,-0.68831085333272468,0.063774208049759765,-0.83415187482508057,-0.16635369555425519,0.13073048758020764,1.1837869357401443,0.49687010633141732,-0.5702215296505696,0.2066080455505358,0.26915346631711701,-0.40884577606548883,-0.20402905521258949,-0.64699458068781113,-0.041201517985627267,0.5056298238017265,-0.47955307412405251,0.45966903953176563,-0.19664579631769064,0.32748100680391828,0.6126872332063461,-1.1871276134348361,0.44125455284845716,0.34398237409059162,0.31022022721042086,0.22622142889482089,0.62186093140093979,-0.34329428847135374,-0.014490701693884155,-0.079636874315523562,-0.27462347085836508,-0.77095442278241288,-0.88334770340797475,0.22802032072450415,-0.09416783551267939,0.66343691264556903,0.90985781165609458,0.3835989571459501,0.2035691757839572,0.40271639818957311,-0.45894516468219426,-0.010286480151982254,-0.34519484593322636,0.59797226848895746,-0.22167179664203718,0.32179378620055371,0.50848255642661966,-0.47346569119393506,-0.050976729920793475,0.39678361264112183,-0.26444152316794012,-0.79438293884214695,-0.21574682494039976,0.45370199690888208,-0.016879520553000835,0.22686657184987538,0.68969209144403076,-0.88211317406932088,0.77947748584634369,0.48861657165332684,0.36069629790621766,0.09876353487426541,-0.56445287133094502,0.31196513309051654,0.0077070488735433099,-0.28360685344436887,-1.1313894156897024,0.80509139688490372,0.52956049223391266,0.27778993544636743,0.050938734568012123,-0.51712850901232288,-0.47157319527391911,0.43242293765079004,0.24137117425754581,-0.1485297274387069,0.054558236366720983,-0.060576763404842242,0.29336893274146275,-0.4590364089000788,0.26172428138896209,0.13129021062624341,0.25860391978870856,-0.071941885443216155,0.47732203859853101,-0.46108166556923608,0.53247231679729112,0.11880880082734994,1.4931698507167221,-0.62880134192212012,-0.11909165850125276,-0.74271525524408455,-0.4371351678029422,0.082389678487631374,0.20979674895713907,0.019797849849389263,0.14478689711278198,-0.58026411887695284,0.66369757934285545,0.11108362070062569,-0.36333405830823778,-0.020159326009626877,-0.48817364770540356,0.17405680079089439,0.28967618177297871,0.63744681365363109,-1.3281752990288445,0.88357397603573851,0.32573438135552607,-0.38659073934558458,0.17094815205863548,-0.14175293045161913,1.1270614526136222,0.35215614621012942,0.07560026979428594,-0.82264033005334936,-0.086543110451741401,-0.16404546309690218,0.42781153713313685,-0.55255391944010601,-0.73029053293147417,-0.084321246169362624,0.091791771814397002,1.4016786771953929,-0.14091593679110703,-0.068670331814989341,-0.58420520217856553,0.07084389437671057,0.25617240236095601,0.20481145368787676,0.60982165334208083,0.63854423335667654,-0.76249294494762487,-0.061769935044183891,-1.0189031564782927,-0.075137445787442053,0.61602500105298441,0.14193281956931592,0.46087718050366916,0.17435135829194282],"bias":0.010280569786217407},{"weights":[0.57266283543873753,0.041198275206862152,0.34225533551064863,1.0983849578717895,-1.0132886466343058,-1.2122363117210602,-0.94977601800180744,-0.91042155572941563,-0.22520143718393706,-0.19473299068698091,-0.43359694255916997,0.42223758942533735,0.18303589546376361,0.71250591270312358,-0.72603896835486947,-0.77766514180560331,-1.040677707917951,-0.51379730883739338,-0.087840155576534115,-0.55384388762078052,0.1163255451604551,0.49343248793795202,-0.25735068981406856,-0.86523488345243016,0.32399677038073921,-0.72372335914072783,-0.85621098573252452,0.26092048067150053,-0.44476986944518926,-0.77123865043600803,-0.48669712892314215,-0.45728226823417134,-0.46877846389792238,0.727978899701751,-0.90470863753004838,0.26998602247615783,0.23191077841373481,0.49322740914008928,0.43104009434873075,-0.38100163842837681,0.0077691768669581954,-1.404202883172206,-0.16912008917037283,-1.0817585397272065,-0.39306902335902349,-0.40131474505590697,-0.36566101149429636,0.54671532555450431,0.77872576940201477,1.3683429895264214,-1.3772758542497665,-1.1743173077404903,0.072172622480391996,-1.9055918229134896,-0.45506680352174278,-0.068382223672016421,0.92453016614508177,-0.1279266192927109,0.28131282467284385,-1.7168581235421723,-0.044956091231993421,-1.0241809848311865,-0.10957560343979127,-0.21276730853324249,0.50345523701392247,0.48940630750276243,0.34143641651586226,-0.34344226723969934,-1.9908961860654493,-0.93857278986236958,0.51888686947197205,-0.66981816495381774,-1.3726555372673808,-1.0849362751940701,-1.2445454033840442,-1.338284455162563,0.081707177545322446,0.46560059682023586,0.55576418565743235,1.0709756090998102,0.52556469998635069,-0.88254090329159063,-1.1002324473512552,-1.3161263290539995,-2.6258964792250006,-2.6121012784832756,1.2758026170233734,1.8263259378476369,1.5189232994738289,1.4779860335427231,-1.0213230662165822,-0.27772207734649168,-0.95566049441206047,-0.83925326799214528,0.10673587958001725,-0.060843858304072358,-0.15784042813854046,0.35883885062127607,0.70942233723562531,-1.0271377372258501,-0.83049342468418619,-0.18529505887671346,-0.20559068846633322,-1.7667428787942845,0.39918841303820285,0.87432715847930975,0.037280411554492604,0.57279052910173289,-0.18680441867105169,-0.74973860139183912,0.053099233705442062,-0.053800819635234275,-0.78617188615175149,-0.28246738296771035,0.2215978046173849,0.38223735147376259,-0.79401044913545815,-0.6514321982799951,-0.1423088501023814,0.12356147543618419,0.11484272378895678,1.1360028926327344,-1.5517243726882495,-0.18094568099278882,-0.40980659535799024,-0.85274145404613377,-0.48531207679363786,0.41908473795748319,0.51936834278523814,-0.17371705093614204,0.80880526836741351,-1.8543815133427768,-0.69820624312551438,-0.044366618658668415,-0.6999131313132696,0.032119347266892355,-0.31080555306090668,0.18564002806812357,0.039861847920197979,-0.60947080854585745,-1.4093698612349326,-0.4381945161647024,0.14713470833682452,0.071671109736834465,-0.15686522543142925,-0.045536273537027265],"bias":-2.1762389469430796},{"weights":[-0.28391848985528262,0.14147889696675467,0.99806136819688529,0.25013411506447819,0.1272240835313686,-0.01777385343369136,-0.44391789837845669,-0.59041304636214686,0.039647754327656229,-0.2712362971700491,1.6884589753995423,0.2835793796838541,0.16144642311814916,-0.79295512848180272,-0.062286572052970078,-0.0011894298497340233,-0.25506546790627749,-0.50264549548736792,-0.030428657241544615,0.11201134326387346,0.20427046187640208,-0.57566548046221144,-1.2103191635358901,0.61165811502455436,0.48857291725958246,0.11995900226098355,0.5055443694423416,-0.78233954789620763,0.27619735820683505,0.79503257573411257,-0.072217796153389344,0.57515842805846606,0.55288397893312158,-0.55303861777021956,-0.2367278184593774,-0.34868871753742636,0.1658809392681429,-0.59174143068187879,-0.24027974391030549,0.41435031259657601,-0.94301673666494457,0.54792710494825314,0.091727303007612754,0.53013883577548093,0.24768215580932737,0.36964609448214003,0.5709223355677846,-0.6066653722446248,-0.053500998531916574,-0.41416482300849466,0.41440392208070104,0.1505427674281786,-0.071132889926094817,-0.29794895971698027,0.16628532338267829,0.088859958152671711,0.030538387072572535,-0.58324757706487818,-0.66473773990608698,0.44515631274311457,0.35069110135290327,0.081126303360887983,0.24643426172185254,-0.24010405264287538,0.12600364940450459,0.12248384101996673,0.54137844753790465,-0.88705805188983611,0.62767390853443616,0.098464540470056094,-0.12806067130678869,-0.16909001993688805,0.15886468755734795,0.60104974795278754,0.069418576507150109,0.11562947552389176,0.57356948709711353,-0.2532433655274221,-0.19571223010340796,-0.60213240565298898,-0.1708362254539014,0.82559735119036248,-0.33815298054178022,-0.28661009706034485,-0.088315632814603154,-0.050948612463589227,-0.61676548070283876,0.4779402818568344,0.39606438235854718,0.060254148105324798,1.1546791585422875,-0.16537959822525347,-0.28175136276666818,-0.19367246038399252,-0.16828090111883273,0.0093938986294283232,0.022824635951783946,0.23729648720451851,-0.44950462853076001,0.46977717532530594,0.034538639760390101,0.059095666051357527,0.53506333178444132,0.46834534194136351,-0.4270478121968459,-0.45742513172784188,-0.42681880282364126,-0.11355254496083328,-1.1272364943983904,-0.72304403211301971,0.97985414626600509,-0.37792817805586082,1.7068558495841257,-0.29342559184945521,-0.015511510346532619,-0.10660424263287727,0.2545648339007715,0.62846762337275963,0.37949229401820994,0.41350321691862219,0.7546588753822121,-0.73848431747556154,-0.64994218166664597,-0.041843765945212906,-0.015808257539430919,-0.38787465571878255,-0.16930180238914136,-0.98578068103430561,-0.16483622410584675,1.4423311168866582,0.37824558477349951,-0.41348889610332457,0.31603841806672439,-0.11312943570152145,-0.1272490243584313,-0.19683246686914527,-0.6833253652264053,0.80093429484669898,-0.0065164619580591254,0.49495129738377253,0.089450930998022912,0.20364135994229904,-0.088210521144956644,-0.54878592378865876,0.26519173969738519,0.16045006668038198],"bias":-0.37818539593599504},{"weights":[-0.57181383276891162,-0.028936197346434926,1.3447697005934109,0.5403380530508396,0.44681478661279339,-0.81300040028632614,0.29528137660536335,-0.16164719745379316,-0.27866377305533807,0.13486700630709272,-0.12057166747077608,0.74149738005025356,0.88682291594962803,-0.10848492566762619,-0.34605702988948439,-0.22566391182784376,-0.13634524458990116,-0.17815292611854341,-0.60834571279794036,-0.77556813199048358,2.3049485562383403,0.61376306571247785,0.77147265428047307,-0.90590419116483123,-0.038485859800474385,0.029126571712645242,-0.64578883462029257,0.16527323732392224,-0.52205708641224424,-0.13638463995599584,-0.49770430819487649,0.17169525157476292,0.089355330341333528,0.44758544752463197,0.63883529522737359,0.21138970468474294,-0.15038492036999854,0.7983498747176424,0.65587432132155632,-0.12632070511325491,0.8064212055414256,-0.52609397887568643,-0.20795424280236435,-0.33564443812594119,-0.2006220449402098,-0.99444821488130453,0.5719195650259048,-0.085683244122442534,0.5771774860563269,0.50633742139628446,0.27754816048985659,0.064700307463092244,-0.15821971232277668,-0.22491785704748901,-0.26042114697500302,-0.05763244075867207,-0.012351358999238471,0.076211713695883615,0.18807715904426503,-0.32830409255743526,0.53073633731775782,0.26846372734952662,0.20025875619406475,-0.54443712192597193,0.26866548959333375,1.804423619252411,-0.34199525023117949,0.1092483165355497,-0.38581731045650386,0.24894793504605564,-0.072346102135407639,-0.38805674538990309,-0.50011280001918856,-0.081861357659976458,-0.21327162942840017,1.2752468245761404,0.22604864706471267,-0.29310866984222556,0.2865240791770185,-0.32829601101464068,0.22622595020639075,-1.0183594034276526,0.17589604524700236,-0.83494817282820344,-1.5194058207892518,-0.39498849593207275,0.94143118863339104,1.1716395720527866,1.2221020810124648,0.84254829666347753,-0.82805688302566083,0.45350540335646583,-0.10015018913648824,1.127076100282308,-0.20516223574351553,0.22978339276027479,0.48839058959376058,-0.65689673571762563,0.050748587373764621,-0.53326781464708717,0.010505994077580159,-0.42868641708945504,0.3896697925540521,0.21147514508926391,0.015835214273357826,0.47104249484077448,0.76175512312932969,-0.215322572009879,-0.30995457440653162,-0.15837229013232679,-0.026033865153592784,-0.069823043001005766,0.23289118546668025,-0.094047812379401574,0.68124155242370021,0.34971214685634616,0.16114184902984419,-1.2867310110760615,-0.53606762769037564,0.14835617122308087,0.67526277235802934,0.73114680785576369,0.0059944898820056955,0.089677656526662528,0.25780479698102493,0.47338409797358871,0.077642815360737777,0.44476883760292701,-0.27688741220415164,0.26970652766637082,0.98585557724841566,0.024055966541917904,-0.19946729117484222,-0.37458685083096371,-0.29089728370094209,-0.060001357826135124,-0.39566527862498801,2.3336947352549706,0.19578501967263279,0.31724911413514451,-0.72324221867584026,0.34572817084195329,-0.90415332098592605,-0.42657126854157151,0.093237785749807928,-0.12528200782291102],"bias":0.28241818397301421},{"weights":[-0.31332213722886648,0.38512082838889639,0.34006745804650151,0.19033625042786328,-0.21145190786270832,0.13448826624543406,-0.095923892179050257,-0.25365482375118159,0.19784789006802955,0.50273053329573292,-0.0097024491246580982,-0.19810830950823655,0.20045011000733873,0.27512318470837938,-0.32313805938884144,-0.23569040375841285,0.14523637404119108,0.062314008230985582,-0.62338417035903493,-0.1218292136419019,0.21575938781269544,0.48682352762284048,-0.092504463165851078,0.2297453452803202,0.020366338008392586,0.27416935103237416,-0.17424220075410746,-0.86210764950857821,0.64584827363311603,0.22733032578728307,0.29675642235619726,-0.055086737670060407,-0.22307624045720195,0.45959566480786279,-0.090617793483105974,-0.074902528782482769,-0.19364380429661296,0.31655136832126413,0.38852640550042628,0.33919176370295884,-0.12266719741153542,-0.11296257038637145,-0.29350908209807181,0.1608771872752974,-0.026030551490417428,0.69012936258010038,-0.025024173412820844,-0.25330308621743364,-0.33003330054827779,0.13457765503256822,0.10031972992364904,-0.24563496578220134,-0.30841050097147932,0.57011954899971895,0.14561503562542172,0.0022917159223960629,0.3486382865187761,-0.1529728447004178,-0.35552114442581895,-0.026821691894828262,0.20448547952837676,-0.0022354384394037796,0.26026508843324275,-0.031379419117777245,-0.48991625080002776,0.19104962137361253,0.041851389633938293,-0.010706072117186317,0.440677761093832,0.3077666458153086,0.13074533138747244,-0.30196860506792594,-0.21622124165536746,-0.035136669860479149,-0.081077118565334172,0.14427665771336667,0.61334116361421542,0.19627127249260284,0.05009153964811483,-0.088131938456468661,-0.15800788991261239,-0.41432281779076779,0.02973151344457247,-0.21041487953111354,-0.4568610270828648,0.30199654929954262,-0.081850948891885836,0.45686356376046433,0.7349230430476551,-0.042896852938104288,-0.5765312899915247,0.087915604896876942,0.029055343643848576,0.43125626508444609,-0.20290412507129649,0.11961540922808832,0.23630198955058676,-0.10967760708611791,0.30201652584513905,-0.47586907006686374,0.12248932429146793,0.58876240515236866,0.57226402664829323,0.18210307139731641,0.17445039825110795,-0.12486352805649732,-0.20216321057039757,-0.38916062293362302,-0.75794540267975108,0.6886221442116196,0.35874536005412505,0.56721062130039201,-0.19962462250646079,0.0085325034394045426,-0.12276866149516345,-0.19468736093868011,-0.10074207993530922,-0.30516338475618854,-0.30680202049500738,0.457299522167956,0.29008882597851815,-0.038461222172359859,0.12688692473575489,-0.038209967569622423,0.037254163317872048,0.056711157128828266,-0.42411973665323688,0.42168132573150385,-0.017191245851795055,-0.11226346372675958,0.17468572656499731,0.32195706944312025,0.022663711394592587,-0.05135493048754166,-0.060461635977425023,-0.3856668984779047,-0.35252823209349948,-0.0092174656460518121,0.59818751568377326,0.026721117654313065,-0.1165657675810923,0.19355100400725558,0.26325349299526374,0.088796902460759275,0.095915651008711106,0.10534308030607337],"bias":0.22893244175604918},{"weights":[0.56130481346465866,0.36544952836478989,-0.33550983866527145,-1.3048560735286607,-2.8906788383910573,0.24321339904374548,0.11449833682209463,-0.18534832309700364,0.60954801181972129,-0.73144577683188194,0.6610541910871387,-1.1080741598093675,-0.14555658989696479,-1.3010418825964616,-0.26279685916294288,0.64718619835730873,-0.42588201381552149,-0.39189950451839828,0.050785365512094865,0.38169000877268505,-0.48910004430692583,-0.15307673220677365,-1.7537878633764885,-0.54285685705874187,-0.2176776218200456,-0.41019133248190559,0.26568992269088954,-0.70719476620809463,0.17434683374413387,-0.16136033643661371,-0.24831734495841892,-2.1376544800983259,0.061217528661823353,-0.23139271424881083,0.47181868962803353,0.054799350418794759,0.4504977146311781,0.54232749277904224,0.13821336973229789,-0.47231811496762693,-1.5989925061791648,0.25401523223920042,-1.1705661065643875,-0.80484213655027415,-0.084629897320414857,0.90377637392346022,0.12642255204536829,0.51193637151053384,-1.2990163118172418,-1.7332897720822713,-0.64261065291251507,-0.33929615357986864,0.043339103415506758,-0.37173325341445984,0.60629140507385004,0.080466313878657617,-0.71950245297550941,-0.15606710623712342,-0.45642152907866801,-0.26247757726190346,-1.1306202450048992,-0.25347306798278474,-0.57421790295819941,0.40273623553227933,0.55612748335471562,-0.30887387808123845,-0.96378770881757903,-0.61397803529134631,-0.99932732353444553,-1.0772117455768113,0.20473457632240943,0.038372779248200928,0.56063815105956816,0.59125870063358466,1.0823981817251904,-1.0772734932164689,-1.6039004057412347,-0.6497797963880122,-0.72765569433987654,-0.40412061790397991,-0.48800281077474189,-0.01083424045099592,0.48409697767492832,-1.2678913736171737,-1.2432746018894609,-1.819877541609273,0.21195879300299389,-0.34247472910278937,0.96062800552012173,0.29465589233748435,-0.3656746838156355,-0.60324543360531835,-0.29493939407708814,-1.1666663690486143,-1.4064952789090748,0.75772739840963244,-0.32485796769569919,0.64004109795223685,0.1983155094334208,-0.16830738279963608,0.5333192822362014,-0.30554876161762301,0.10897127587081493,-2.2989756283183773,-0.022557083714307081,-0.63356722465094439,-0.40836796844895878,0.38697087963230875,-0.66741209092945264,0.68505951264834775,-0.81909259879287966,0.16657329420628753,-0.15466230715889306,0.14774642232444551,-0.69530808632350816,-0.40533891111719489,-0.97080987686001263,1.5559459311685986,0.10778719065710908,-0.38647865551712907,-0.36162279721011914,-2.4775047437338973,0.27493069490410033,-1.4965515125068964,0.076987606625625718,-0.019211538083376171,-0.31426963896857185,0.074198968775898766,0.080488435567829766,-0.52390559909250678,-2.0442649087164444,0.070803059098734841,-0.77911207636967705,0.08440066006611889,0.57742322234248467,0.71647766238591093,-0.026530006115434102,0.1574845923332813,-0.32699401186432259,-1.9285964410694294,-0.26278651400284525,-0.64057505121501446,0.56427179335215016,-0.97080906151232083,-0.17857229896890994,-0.1436855285263017],"bias":-0.85493852036576146},{"weights":[-0.15936836433269475,0.62874915222134409,-0.51805988479633003,0.099077856451559532,-0.53872541740309965,0.27103124709457965,-0.8025233011927313,-1.067742749554955,-0.36812224718355763,0.40033026694751966,-0.67081308502046777,-0.30425786491913165,-0.90078486009359771,-0.8029808171497167,0.57593553797351338,-0.2608798618399622,-0.39969905584349202,-0.069521341076331497,0.32774506088847055,-0.14101018308146374,0.39587691205650294,-0.70856674803212527,-2.5619615235127506,0.18127599398732039,-0.63347906666920117,0.28622105522005425,0.14606297355853734,0.47259180407547002,-0.69569971374162431,-0.48453820618558807,0.20717386027333684,-0.64671384004583421,-0.11393341724233493,-0.34262709003815939,-0.78423135907009756,-0.28349055095225184,-0.033254915304042072,-0.83482126836322945,-0.26349933676934367,-0.23636899746099715,-1.5581263162918377,0.61349950356182659,-0.15090918696619074,-0.10450039875761409,-0.054084874019739555,0.48062494614598827,-0.004084805404197314,-0.40697503423453235,-0.32934065423291814,-1.0890234124547524,0.48205705029978779,-0.47010711153156737,-1.0336890254778917,-0.11232792046175179,3.5697445573878626,-0.6880141910025187,-0.82154466336006449,-0.67137504675812776,-1.5994253682039927,-0.30977205705390365,-0.52570105094202457,-1.2158428371084007,-0.25006685036798093,0.39300184781472319,-0.32404518442318303,-0.71945933951376007,-0.22363479329777036,-1.3269416275346932,-0.054437292589740505,-0.54239751166935168,0.36347375063832477,-0.21561774069566128,0.13019273928285924,-0.40190581946666892,-0.85312249825257036,-0.23805101491524289,-0.9412318270014971,0.57714808372828352,-0.12489409871078969,-0.1507101489919265,-0.63346346861602565,-0.14364533060143791,-0.3347230909287493,0.26289529269338285,-0.48917026049883755,-1.3118910183775874,0.20820329377171079,-0.64797587614977592,-0.35060747974887502,0.016788647439988268,0.049422763134512902,0.59337434275968137,0.11859790114988225,-0.70474619732317345,-0.54736499107921732,-0.33537293353663639,-0.85437284219326615,-0.71982748535463659,-0.242683153895416,-0.39950271629259021,0.54669863056073864,-0.52048054727726201,0.29381971941679014,-1.3459316374273431,0.10480833501787386,0.074094166980592721,-0.82781649457775264,-0.58577224016772778,-0.33761552401827266,-0.24205995638973477,0.0718568798651021,0.78026567532420932,-0.62459927115701352,-0.13313176928764767,-1.1182481277461487,-0.53424055110460944,-0.47881079974716334,0.60218054567585166,-0.54270160384658861,-0.37426646515485434,-0.63633302906155575,-0.82556767553558574,0.89187809169476651,-0.45133086750194484,-0.71095592554713949,-0.65164061704794718,0.28594678006908975,-0.65113305151259393,-0.3796603270604692,-0.4801548590429785,-1.2312547112853089,0.38296529691233844,-0.67390477543232374,0.083161251783836487,0.046229929429685575,-0.64237894345771829,0.38615560004283811,-0.091880599837663654,-0.59200984070249618,-1.2992996200011104,0.4278685065736022,-0.25018242947776809,-0.20956938993508847,-0.32257436188604544,-0.24500820951968078,0.070199959924227978],"bias":-0.68675456512032762},{"weights":[0.59176251930668955,-0.15960571930302322,0.76744845985703225,-0.86256562596154873,-2.9701314149584621,0.23258503023779417,-0.41905260353500157,-0.37566642100305969,0.019285930628304582,0.82666988885545956,0.32806507594110157,0.87088339913265622,-0.70777886754922792,-3.2619876772996554,-0.77963062248636295,-0.17632316880722193,-0.41946347472729573,0.11000811583010543,0.21997116471995343,0.38739669080411421,0.034316107983474127,-0.67828452044284426,-1.9093230727139128,0.34604763646169551,-0.5112528256495591,-0.52776699820751671,-0.46805041356014188,0.48393365299903535,-0.45026486149505718,0.09924510716926474,0.028598282330005678,-2.777899660093194,0.20844756467751449,-0.32119560351454607,0.0017558743288645913,-0.45829833422225574,0.76230865242359269,0.3091777061373196,-0.056683460363490187,-0.26128359116082855,-1.7321382098714142,-0.48724654419511243,-0.52368823302936818,-0.49006549621142687,-0.67896018170111139,0.32796583946935048,0.16734910721300142,0.88923862838185952,-0.64174229673011662,-2.5226969943017856,-0.52353594226156153,-0.42428077192724079,-0.53601472705536002,0.045075082779875812,0.068549526932516008,-0.076180072297172288,0.68933071865199869,-0.09953107794829287,-2.7315642003652738,-0.34361973332475737,-0.2353952369276405,-0.3699003601382056,-0.044785427306842956,0.27757924410523765,-0.094853033532603506,0.66022752849948751,-0.24236473201695491,-2.5359684739951689,-0.080265318082700446,-0.39156563697186442,-0.92673326648583421,0.24950188104457735,0.50138618374555721,0.8815240971908902,-0.035181789891083108,-0.86880372407596884,-0.55978076271338861,-0.90916496163424854,-0.57303836220186188,-0.68062061853881828,-0.8607464945232729,-0.065092894467583887,-0.12926344428327557,1.5070325979897043,-0.82313467074205715,-2.5536712224580227,0.021035151622626338,-0.5539130625472316,-0.67393988730827348,0.013244105974153972,0.46178311616945461,-0.19955552088074976,0.34375570193581045,-0.34395757058524173,-1.1341414343846432,-0.45967817697200458,-0.67215961476644337,-0.64175231446395153,-0.44695461141549886,0.3451113229666814,-0.15787695081645486,0.17448194497878319,-0.24371015644839517,-3.0413091777026855,-0.36409751943054341,0.026272924377543208,-0.062844478030193926,0.066060642901238475,0.16045336003949787,0.16718018481541405,-0.022011985483309699,-0.018413191526387918,-0.57172849009716087,-0.12467234148276125,-0.4888929385211761,-1.3176253892033247,-0.91330709132187127,0.90236423581334257,-0.80695233918256581,-0.16845830844405241,-0.47866868753591196,-0.69321240864181521,-0.18659335062873036,-0.51319900802226581,-1.2983296064102621,-0.069973907811869837,0.93474406991992376,-0.41429000963287133,0.16917779846116646,-1.2324752409706423,-1.412979627563633,-0.58071778098954352,-0.08596371940267461,-0.43535391851047733,0.15351775085559094,0.042214747574623061,0.46012829091124124,0.25341952580223137,-0.85581645046209243,-1.2041034285941186,-0.35031982270462036,-0.65193150044711312,-0.37658125519388885,-0.44580842818794608,-0.074513457997913632,0.39246380316905094],"bias":-0.99560625777698231},{"weights":[0.43095767711847099,0.17396848990079355,-0.18837089586449096,-0.41258316427174258,-0.82886690264390306,-0.34914287519264509,0.46999507813007585,0.34710006299745233,0.28926942439968983,-0.66297237671800779,0.077945279304353632,-0.096891065967515344,0.71539755424863738,0.7107790107779749,-0.095357367600895512,-0.64180374139292373,-0.14820021857887394,0.21633720587150349,-0.40997697170131808,-0.31157885453694928,1.0167108595056191,-1.1008716272389358,0.84337295910580157,0.43023514622721415,-0.47046013206847154,-0.12323512779859579,0.19366283715433824,-0.45159572132424325,0.25606202454638977,0.9749645151191989,-1.3274230154472768,0.56487874244117842,0.37959978055906929,-0.44429837091515217,-0.033579522759110775,0.18118759715301028,0.17924258737314669,-0.17532340351120623,0.20640702948438167,-0.20651987570010993,0.29596579150055979,-0.040371445111249758,0.21416189967123012,-0.10303690310491513,-0.48355089324767675,0.33867730505660265,-0.25444206607431408,-0.021163517371768019,0.31771465899625662,-0.10696152418716506,0.23517027729397963,0.38598752944279302,-0.53516840743309602,-0.22876167408536749,0.06829136280351164,0.075556086301269143,-0.09052409905636051,-0.031233924638939054,-1.020886800187836,-0.077615664913624052,-0.26668891487482754,0.97306049327412525,0.37569142955544299,-0.0065206597554635865,0.29140691826166792,-0.64273680386134735,-0.35466849426123609,0.12386218278111599,0.49124345764343474,0.32541030250559966,0.20198247142241796,-0.41655857552338665,0.20310923266854228,-0.049546388806664218,0.31820567636513131,0.28649095808400565,-0.81157798476347975,0.55642474275709319,-0.66397081805243963,0.38977871516649643,-0.2759217731643942,0.29383812682731236,0.089517352013210108,0.03198645013454722,-0.75288955472351471,-0.55574934407517251,0.26795218427440587,-0.052051342580667299,0.30476138286045207,0.28144820178416663,0.51544188365623689,0.089973733290496349,-0.49912666641912984,0.77685372732675073,-0.48244390309764523,0.03530284599192806,0.18488615883950282,-0.5050121185877019,-0.061843745060336297,-0.67457883748261505,0.37894319181518688,-0.57385807589296156,-0.018632393659362638,-0.76870834763945506,0.89791656976813883,0.54929022147670836,0.69677916502088988,-0.47159306362160297,-1.1270475203549271,1.3932866189247466,0.93535391018290481,-0.88248707882285049,0.56626335256967419,-0.4731304286950479,-0.18182028976749182,0.088171506298291596,-0.31180264919881806,-0.59246569645661795,-0.49044693278467211,0.58217588215920268,-0.25562568594248153,-0.13947846318458576,0.8153153507013382,0.3903764859979923,-0.14619190285981754,-0.023462419880350388,-0.45355325143933034,0.30981904063069016,-0.4341470091830959,0.24900881414576151,-0.29214072754063863,0.59417634211049064,0.36260260458083476,-0.10184306881659343,-0.30209089219756108,-0.043331316867783326,0.17622230129285574,0.61396041941005985,-0.10580890600409452,-0.10367691131438384,-0.10441188552686193,-0.57840154471230687,-0.23289881913320531,0.39905918948243879,0.32232347634446734,0.27477077847546089],"bias":0.26467150001030132},{"weights":[0.11120355233831583,0.81218202742248125,-0.47889952842986039,-0.58104272520251143,0.74961583408678956,-0.19119585709646691,-0.078519991178291282,-0.59409709777238284,-0.093582557350207873,-0.023385437191345154,0.99325370182887818,-0.010971536170501693,-0.3884188581943841,0.47927493229607432,-0.6671727585109628,-0.19037357298796603,-0.37369995351148516,-0.18966346856702526,-0.38010090493053722,0.97874359816543099,-0.29332202884867709,-0.44096653777358374,0.010083457983141487,-0.21462307336783829,-0.15330831722426891,0.07576449985013757,0.18507222792494635,0.99116735578440607,-0.3577917158044106,-0.12757755883888178,-0.25615210148710682,-1.07528292678129,0.28649270496450985,-0.24659728387313384,0.29528384312941902,-0.027860315095006624,0.35723385901321375,-0.020806536492247792,-0.63241270284206619,-0.084790337749802033,-0.27630346456470778,-0.10431601474261967,0.18815604342616618,0.029725651495684475,0.14892122222651019,0.94242148916948743,0.21825452846668736,-0.87201907400499068,-1.3789373937673801,-0.36361921338250891,0.25227153961310544,0.6837034457770238,0.073073030361363242,-0.053692799159884078,-0.85793924857423187,0.80904408995077148,0.75624033252517064,0.11171316311003053,0.23863101604008444,-0.65776956037844403,-0.17863967892659835,-0.12655524338704618,-0.47794248794985322,-0.063301479778191699,0.53958673072460306,0.27927409795247682,-0.12893309203544143,-0.011407319632697437,-0.14122021831234041,-0.24137067689334496,-0.17899506961302272,-0.57920772244231888,0.23224596792077826,0.351797994689525,-0.74043497625844057,-1.6634025021282624,0.040614699926872375,-0.06195227828423213,0.41065884407898784,0.33690554379727483,0.62501771190427091,-0.13322924871326389,-0.32501495971448313,-0.12725882331616456,-0.18752882431958365,-0.11827106757978811,0.052533456320901797,0.31833138354297835,0.10889749427863864,0.015442807625498036,-0.17919441672139383,0.35239227500619041,-0.11240931976985158,-0.92223151197369568,0.055602670080573,0.0045904065753056052,-0.06603071559439655,0.10423372605394353,0.44099893805146184,-0.59640919010704307,0.0065185835788063289,1.2230953986014019,0.23512067146635524,-0.33765056413681077,-0.27742130713548357,-0.37320444379742052,0.094845495012620393,-0.52624244567883627,-0.47065531953708406,0.66047337218736801,0.62506933341648208,-0.075528813216978796,0.33145056605697903,-0.50154506166340751,-0.20966572057414254,-0.10877932036145571,-0.55547673425942568,-0.061619808226410937,-0.31889821115095962,0.14827510552305823,-0.15703990059729103,0.33471366814881864,0.062056604424820534,-0.57098464748567179,-0.056724256112535884,0.1794911977200882,0.005741697928898325,-0.60080616640837492,0.38895388793413327,-0.45207372406558044,-0.81091312136105653,0.24482018283269968,0.20665932787171187,0.43193249895284591,0.066620131073543754,0.091463677840385949,-0.44101543291864892,0.38437110565601668,-0.47743856438178189,-0.23260817689452731,0.40723795779455874,-0.24775037644720271,0.16036663012862509,-0.068005252901124427,0.24522664461316604,0.084122892284230685],"bias":-0.054606078379465454},{"weights":[-0.23790159367409117,0.24179603273947334,-0.056196572597758482,0.56913176405820143,-1.6667008572310578,0.26286537202860977,0.14728085879568623,-0.23066217708540668,-0.010378701319515387,-0.86201367208057411,0.17134785188339127,-0.22332499987834756,-0.12906809867419172,-0.67303432722483014,2.5842987018805594,-0.47878470856756167,-0.25165062838430979,-1.070405996658742,0.6496063330606866,0.13859847973096009,-0.68685069333766291,-1.135282454974726,-1.2703537026748684,1.2548291061014576,0.24707709643148296,0.04147948433875772,-0.34419536681818247,-0.32625509731648994,0.19616985868888018,0.3298398235561949,-0.57384834950420882,0.55742714493571821,0.9790065844454332,-0.73450018899278413,-0.62974116610390263,-0.82311290018010252,-0.37411751425255702,0.78281608789405721,-0.62072903571843108,0.1594275908450872,-0.088557742695816205,1.1229748045416419,-1.0841796817030496,-0.35901309992930114,-0.4190755821937503,0.12258442360567104,0.88436044995195462,-0.5787268690956584,-0.82751827430243841,-1.8849640972547979,-0.62131283838507734,1.2115928379537186,0.21086121436380625,0.52608816009749926,-0.89735015652299122,1.0681838322238,-0.082217979801575428,-0.175719650242223,-1.0662681030611998,-0.10218088526703667,0.37806821317773054,-0.18750630157403161,0.098181206578678293,-0.45309643023225743,0.74728313717125694,-0.21567220173859811,-0.18039585009754719,-1.788615498194654,-0.57854977685692432,0.11721537088294515,0.12436670043247933,1.2472340307529464,-0.23334034217130914,0.30970718943356995,-0.1099003395889103,0.82108020253767799,-0.1924653029100028,-0.44109633028933826,-0.96895833291751932,-0.068784023222072763,-0.092857085203543591,-0.86433735174293669,0.43856918691721442,-0.26763444400180098,-0.022478368951798663,-0.88059645023214694,0.58509385759490362,0.48484851076606617,-0.37783478104058577,0.03413165131999548,0.10769293982300189,0.87760353986082718,-1.1629400814424651,0.49735523010249649,-0.31939846260445631,-0.064240410882088386,0.50674422692349641,-0.59756016672665746,-0.71893976009734739,-0.71417826032323983,0.32452831684600525,0.4150081974155036,-0.67094010736357246,0.26770958159738656,0.0047862338528038952,-0.11984407705703892,0.16085440780139654,-0.69556580245458888,-0.46842660877684056,0.96824064261512044,-0.33526143968520489,-0.45048738501914803,-0.58193581429345653,-0.074682324768877956,-0.39151882189551418,0.30483827516451206,0.047276138248437002,-0.45115399318309635,2.2237508179114469,-0.51455067217533712,-0.53420800868842544,-1.4308541920033928,-0.71671221162373633,0.33080219472440731,-0.23922639149486963,0.49215667902054822,-0.73322944863765016,1.6812268974944993,0.7356157184970199,0.37066725857824506,-1.732058104366067,0.4968060169926411,-1.1676494581709156,0.98784959689340401,-1.5638803457212433,-0.066357453731231017,1.2726199093393264,-0.29463832729855383,-0.65531311447336837,-1.2494656287216248,0.52276864453460836,-0.71069944202542412,0.34860198620050925,-0.041883346492599033,8.4749408827908042,0.26503142554734038],"bias":0.07608436801488451},{"weights":[0.26017905011392495,-0.26148268297444838,-1.3191791926325462,0.89880515836101194,-1.3479924752583716,0.046916074029881412,0.0073343974513749065,0.58949032886006092,0.35270594085068063,-0.098345048957163436,0.16479984136971673,-0.61714515053039409,0.58874673012449252,0.59420646633031704,-0.47160333838950586,-0.21811120721751193,-0.15437721842406377,-0.5366854979057194,-0.36197945746571414,-0.0088601466035670932,-0.89461651840064582,1.1328577928098751,-0.50210124422169367,0.088399401981878969,-0.42019961123145172,0.42425625344111279,-0.27009222444445657,0.13046458209652961,-0.061323261435248293,-0.32148428155512254,0.25533923113886614,-0.81036464351802151,-0.27817068486425039,0.42945513342377734,0.21268432059599141,-0.25380125044557078,0.075806739030827436,-0.24181598663794718,-0.86665533268096218,0.45086702656708849,-0.19041282142500912,-0.19043151515858528,-0.35218666863929365,-0.062330418891884641,0.57650470413681931,0.35618817312128881,0.11353688783278267,-0.84173605246497274,0.36321183830758025,-0.49619131464330463,0.28693294167646732,-0.53293587361124994,0.14010404913899954,-0.02186649303570222,0.42805174025965492,0.9568735242092391,-0.70437643690036345,0.55820694447370989,-1.0521254932115911,-0.393624506320426,-0.34952182810154037,0.13469974898157247,-0.34685179658121895,-1.2503145902846504,0.16988270691925472,-0.68292939506882744,0.91295742590668294,1.1970959356335538,-0.25016433155249501,-0.47783249902191083,-0.27513516368940177,-0.26981449495391052,0.067127371649094006,-0.22529222545186248,-1.2215069392513371,0.80043416263467737,0.2839552536594882,-0.065012725860327067,-0.25735753042995974,0.16937081970380713,-0.35492800092760679,0.27525153131047231,0.57943486354905038,-2.3392446602659884,0.69977992160807867,-0.57931931268944303,0.30362684407013169,0.15230245373138418,0.19697949778495105,-0.123411662450382,-0.32692392203225634,-0.43449957085071683,-0.86400087502130063,0.12132150322471846,-0.29239256559275678,-0.11667991680782179,0.17527613991636204,0.78717644425991773,0.075768847762644836,0.47958201546663531,0.0056094604138287761,-1.4509872424848362,1.4902043158404654,-0.76686948457272752,-0.46637384598399301,-0.21938721429972596,-0.010735966845764972,0.21345842186518296,0.21579222542199838,0.14429610406662824,-0.3118396174002836,0.60563302994119439,-0.48484574268071473,-0.052092394602301466,-0.32263701874298151,0.033909432282542763,-0.64822005843540198,-0.031428074590914915,-0.31443238565849274,-1.6559146087591869,0.88302015556050539,1.3593761557669126,-0.11767414665839171,-0.32641745546117501,-0.19490927753968235,-0.34081278934270265,0.43185079826908146,0.19177850527195264,-1.3865142368588517,0.1111062995271631,-0.41151185757014219,-0.043572497412304345,-0.069387850165135725,0.18051043063447766,0.1177759407838492,0.71956409169441138,-0.27790171429542498,-1.5756583378579527,0.51426840605471669,-0.43137495184027069,0.17735863691828993,-0.1098417847139118,0.22694584459707598,0.010160133353499922,-0.010142036197625064,-0.076800125047568613],"bias":-0.5608365155727757},{"weights":[-0.32235763738398027,-0.33094488256181848,1.0563028351910986,0.10297278323507263,0.88685543598147865,-0.19881275742563836,-0.35158612493150287,-0.29286141317365322,-0.53162564979684879,0.2697775363420179,0.029968104939946959,0.52484669690529362,-0.16128300496134196,-0.71046546615289818,-0.0072666212810078594,-0.60384579775894909,0.046222548443684779,0.60611081625283747,-0.24175144129909901,-0.45993974976960667,0.13026611118621262,1.1278655391505767,0.87441052226206073,-0.74110195343408591,-0.31749665129036031,-0.36825524225420175,-0.025751412508156664,-0.25175556986239944,-1.2516553551283101,0.071513104574877209,1.239916129765694,0.57670653093549074,0.18130398918575119,-0.52574121262430962,-0.12135909114714795,0.010048704394384137,0.08670854582583841,0.27180311596504841,-0.0062803585559058836,0.79738135851590197,-0.57927264587394933,-0.34269426135274772,-0.32256478003642181,0.23046372094861128,-0.044924634161668996,-0.17292281035804211,0.54877271290278151,0.27635341940745878,0.52967248292000457,-0.5698233273934592,-0.42985077928404541,-0.028832168261025623,-0.34562447718888206,0.29698818854812603,-0.47797729396219418,0.01454371560056374,0.81564051948580008,0.87624705037039252,0.059812816981045715,-0.17049166390578724,-0.13620159311533492,-0.10536053705068822,-0.8748775798286067,0.2220612183616841,0.22619497817503517,1.5558502767427873,-0.53732586463121312,0.10593559151224945,-0.62691146298601419,0.016586947822116452,-0.49123741074510441,-0.39602789079610112,-0.38261832248253086,0.11221993964544882,-0.51756310096675839,-0.52866937588982565,-1.8832174463822395,0.16502101113197437,1.4504236231356096,0.6292088606648063,0.95481847371435935,-0.87514217631846403,-1.2146953134416394,-1.0662333773990629,-0.26781257566687228,-0.91215099004635458,1.2503912690979244,1.68801644325249,0.40878888596023644,1.1399071959067706,-0.3592707768630502,1.2059478657294749,0.1792815014583127,-0.82243297190334652,-1.1315939842855709,0.1026035198457274,-0.2703277229912856,0.20581736691287603,0.80049521295106041,-0.033619232399552945,-0.85804695783755247,-0.66544603134771318,-0.3967792876246134,-0.47593731252726362,0.054908841819664309,0.90452446333329872,1.3413533210832598,0.12107679958077923,-0.66325519425085799,0.056472441844111654,-0.35882986886342461,2.2018083420921926,0.28545194874936536,-0.14685984766919066,-0.44754121154818699,-0.46482001454897154,-0.40794755116161008,-0.62612252383123557,0.85130173088901595,0.63360388895355713,0.63464453038355517,-1.0393775649245602,0.53063305249641401,-0.17026973193834657,-0.63447748895319966,-0.25000710467225445,-0.77019682769818176,0.28699912573632985,0.13064441539284299,1.7964137383347161,0.21562701008384497,-0.1591260639702867,-0.5491249735988929,-0.34491626705923434,-0.51402841453822379,-0.43879532748294597,0.2806288846421115,0.86686358710541189,0.27247613396600856,0.29790835840293983,0.069692598401285305,-0.015851903180688319,-0.64879787510170384,-0.63257953623619079,0.52828969884812194,0.036078777626672359],"bias":-0.22746782397066301},{"weights":[-0.67267626018642357,0.006045666253645751,0.28222044458933698,0.64018870558766849,0.21370599373900012,0.33167414920079336,-0.36138033936121799,0.74414995507968718,-0.76955943827317597,-0.60892204601663391,-0.24821200205512295,-0.084348497584198587,0.17772921505911504,1.2895090956134749,-0.22701425364266253,0.026536304205725669,-0.1335660290877751,0.056169528279736231,0.025169450931932732,0.069165600861781501,0.096769261254807337,-0.13971718651446027,1.6224892376270219,-0.054184949269112187,-0.66473857388712043,-0.40146112180797167,-0.23647997643276614,0.04344228768547341,0.13501407389643325,0.29232221127231572,-0.10465684247253704,0.417624170688223,-0.7500279104035148,0.39415981186120613,-0.1446518764983139,0.010277135475378629,0.0090151455425955505,-0.26881995674101095,0.45877766325945246,-0.30864957696641088,-0.3427076899203747,0.20482535090684442,0.055279059783826058,0.33926106771816023,0.34087623691244434,0.16925647070862318,-0.18841214305090995,0.52881809683233427,0.1288828817467039,0.59161159295678234,-0.22259123891003563,-0.65249296412490243,-0.14305725984154777,0.15283829084159103,-0.41384799982511045,0.40348221683120644,0.95460238405361064,-0.52278589228012184,0.73176725857151992,-0.7529197540664494,0.093524088250456702,-0.096371501887117239,-0.15943590671136573,-0.39286066191849395,-0.22318866875755819,0.66622800805272275,0.16862245556027614,-0.16699420864816097,-0.099537497354225263,0.33610936166092048,-0.17121012531503529,0.32056575426023287,0.86386324402941272,0.51120193035873662,0.9664200892798025,-0.17891585803743648,0.12407320399343023,0.13534349678972254,-1.4185425738470254,-0.14698369963993638,-0.43110066823238236,-0.60247844469401535,-0.60027809015540712,0.60596568590906996,-0.4080716928512092,0.81599727742826822,-0.34297890734651348,0.44800866416727181,0.38907828836847819,0.09153778017748769,-1.2483199719505549,-0.69760119014906563,0.4820782061928911,-0.12944032772041497,0.029732286955983664,0.048750549987496533,0.42405853905841401,0.80527086993438579,0.47174192311288465,-0.63238846659121895,-0.12321591022567502,0.5034532186987416,-0.14374956429612937,0.57580639506193199,-0.55317634805293459,0.34319129556422884,0.4736351886661751,-0.14242624213762281,-0.44266854642799169,0.99138511484855474,0.45467846171706683,0.53084813212835846,-0.67285602689826884,-0.065428980949019916,0.084456695644494567,-0.13419017857543306,-0.40418168894548845,0.47590116784382447,-0.8344233682485912,0.31881670051428085,-0.6205993611449826,-1.1111401113645685,0.66619937162365661,0.59693943987547804,0.084055002409004778,0.68089646967097583,-0.52877036505624153,0.36780942759752994,-0.52834849550986429,1.9207084440560593,0.89237816055509156,-0.46638771645891253,-0.077852750539294205,-0.3631549206140175,-0.82696078219235658,-0.52537341850301467,-0.067808953708776806,0.073324326460239647,1.7344695713146638,-0.36604381682332315,0.45623569803830161,-0.32843711184845176,-0.43273112400565439,-0.1781190271401622,0.22999230622403427,-0.001438355338687108],"bias":0.061241530026576577},{"weights":[0.30986912527886917,-0.48853885134046077,-1.1641779493355411,-0.91554803478169744,-0.32017374092494588,0.063072062675570417,-0.35489368560620349,-0.041974828614769359,0.18814086020085335,0.57149173031165112,-0.83236065160938466,-1.0270621642040569,-2.2138618967254446,-0.056966164525802297,0.74792561377365896,-0.43034779216899322,0.16090294491706053,0.33592998087825354,0.62638634734966281,-0.88795468481257289,-0.80203761913923977,-1.6850666125935971,-0.017836796663860375,0.23910513564679869,-0.47517769860826642,0.28122843399019914,0.022382882167165847,0.30543781346586929,-0.074059839647287101,-1.2481188971193735,-1.1247062608067473,-0.14656556099960832,0.2738082967620879,-0.40754360787764882,-0.2679502373796846,-0.029999185194264439,0.31346045811803347,-0.26741573508523075,-1.6008677123386537,-1.167776067508784,0.93628293825160713,0.36865477044366451,-0.98397080075309273,-0.50477799711705751,0.20312695820933158,0.32995859926382687,0.21135259673595799,-1.5814945499672222,-1.3165708819007984,-0.033747373798097925,0.11697136399761505,-0.72324651678572771,-0.0028325499678125299,0.26044500234112339,0.63983100950970828,-0.83254727157196462,-0.91891564604178955,-1.5593438179100385,0.22207487728793937,-0.17419696009316155,-0.094312824487486346,0.018661511697587955,0.16626263314887541,0.25809463050769793,-0.62271321852103767,-1.4786005405973506,-1.0278385553382468,1.4119950674136068,0.24012787859582541,-0.62715396040042537,-0.43339846749077765,-0.41427618452581044,0.46980147778306203,-0.72656224518512347,-1.7198936879301685,-0.34023238603693595,0.05773259861981675,0.41192436569640345,-0.74003953745761264,0.052012633698449558,-0.39527516367452742,0.32575597684377272,-0.57346212207061242,-1.4083453597741502,-2.4663989833851265,0.59535989508366083,0.8583309636287324,-0.19826197183247998,0.053580131269966795,0.22159272423886631,0.36888610812210898,-0.60736943772340446,-1.65250837564848,-1.4787835888715855,0.49830193395372907,-0.32068832541070785,-0.14171769734825546,0.3808635871793164,0.12975899666853297,0.33612592682242093,-0.60090155570400416,-1.0980595835723737,-1.8713595123586109,1.0702630769015657,-0.1624139150647094,-0.22199335781198049,-0.036791794214779246,0.022347400509572592,0.48596638321498159,-0.33403437537424258,-1.0890755723065388,-1.3496306121335782,0.26187871736593815,-0.17741670439285095,-0.33519060148754881,-0.24365458015238098,0.064396919793530891,0.82686927923598119,-0.58326850687676646,-1.2190810492998263,-1.3704184434949929,0.11324380577318852,0.15654657811808642,-0.42664827081048734,-0.16866225574185695,-0.0019402054436988478,-3.7532696981722151,-0.40382839132051063,0.5186759142114088,-1.3686433500353672,3.7899476350530565,-0.14360490121699768,-0.7921447515967448,0.01163248687355581,-0.48944977335875156,0.53553483099112598,-0.57666085884630136,-0.86849655386513291,-1.5638084143310256,0.15192526176815865,0.15046217730414532,-0.33510421774390636,-0.35486652834412113,0.076794785764097595,0.10420578609419381,-0.15044165026526307],"bias":-1.2625964000827858},{"weights":[0.15535114988124235,-0.72963202997965659,0.805379785399993,0.3032777207456927,-0.75715007380777732,0.40979895993668852,-0.027342372452626103,-0.027460475268212183,0.1279987637003403,0.037359191815426761,-1.1711562985258763,-0.45330403808786973,1.042993547547739,0.27060533574379297,-0.38165974657280449,0.86944113193153105,0.16217611007196348,-0.063243431660796698,-0.60182938133257058,-0.30736089259709537,0.28188363263058125,0.73824885000034024,0.65173488585183614,-0.24485711888461165,-0.047897672852401242,-0.22721879491895444,0.027978164211547224,0.096219621500468255,-0.16400841402725744,0.50124262905349537,1.1392441765916932,-0.98040482116810945,-0.090171260682092677,0.32286576403704131,-0.29284385683628689,0.032460140110224273,-0.81697740788146422,0.20542632320400717,1.1142651297796413,0.36430599333358349,0.9923919477970794,-0.91630772197537769,-0.071734240528293275,-0.069811702832141248,-0.33429125453261094,-0.18611644713997744,-0.14923146263637468,0.3559269471907317,0.23880455326755812,1.5578621411742355,-1.0757402172007691,0.028087488694438299,-0.48087288881475121,-0.006268343248250834,-0.10448969481473401,0.64095800312715789,0.28605685008184206,0.82379718132656754,-1.1833622148922782,-0.025762837253110384,0.072726291700346654,-0.094203503747189152,0.097073130979164146,0.041722634593687476,-0.11430738986340686,0.033894232861957758,0.11227444577460857,-0.41100359287874716,-0.17326221601186928,0.48884764698308303,0.38916467206237892,0.17807111644063472,-0.12424092431305477,-0.44358068297474179,0.26221500547020138,0.18054177668908125,0.4017429741131302,0.66277672810589439,-0.42677817283332425,0.10275908771536621,-0.23033786499095105,0.44614047899877263,-0.4930896740482385,0.84107054465003195,0.11598693939195948,-1.5938010335613904,-0.46322117089739756,0.47003697989016019,0.37764855418548704,0.71179914123640942,-0.14043593396705181,0.38644524849363249,-0.72496755095747933,0.27780065273465587,0.26646938085142619,0.25094707448892078,0.06849513302455168,0.12019194327271279,-0.063058645511879674,-0.30191031514441463,0.75686171003289371,-0.013858662485890372,1.8921846300989604,-0.78686718682418155,-0.39080936702199254,0.51568679073774704,-0.70599779553840702,-0.61220758013516585,-0.51105371325323068,0.48049119163720899,0.1174849976448107,0.24096728876700457,0.11775126207090157,-0.21845327760601399,0.23779267617615921,-0.10279628899707206,0.028110175317332328,-0.3312779945410923,0.43045550119144799,-0.63723203641363024,0.95145263525564305,1.4555818338168525,-0.11834163632679259,0.16120236958971546,-0.95853612877951844,-0.51640626696106506,0.0022883753419420637,-0.29378330368117017,0.24917453050702401,-0.54237522230571555,0.78885887078886718,-0.12105197568169966,0.43266202220540184,0.068333432425447635,-0.24042717794519664,-0.53832466716154581,0.62106397261750201,0.28322009293512451,0.62462897434150966,-0.95945776591822918,0.0032676926465056376,0.10853765158964007,0.51704599873991697,-0.26527786801396264,-0.2320709182592742,-0.14308208571592654],"bias":-0.14639476898424325},{"weights":[-0.41356567083179174,0.38728048882309601,0.97693872763413547,0.62404771710435569,0.68565996855953582,-1.1419455503179066,0.17715347859624858,0.1820732801977718,-0.78748789119735008,0.052364124964876545,-0.67859776603970456,0.26975322358680748,0.79934672836809062,-0.58808028851457461,0.12851697089762842,0.13365878445205698,0.40810372298406472,0.23818595463530604,-0.29063181066206195,-0.37265394133184576,0.45195115618840032,0.87714957955265982,-0.43439867724674791,-0.11883609910048175,0.18963292505198384,-0.29458265898286512,0.69583942770395757,-0.51812862019043204,-0.97991125088308184,0.38381636211277431,0.79029079077061626,0.70958192913801021,-0.34862555020374386,0.13422955321266319,0.34826845649689403,0.089677104044470254,0.049760479879574861,0.33059150430985795,0.36583915072829309,0.8008785610508522,-0.74152229758748767,-0.2582449040058783,0.32069313253851262,-0.23388588943187522,-0.0035726012546443819,-0.11804022522025075,-0.77721520526787546,0.10246099228499615,-0.55855032347893152,0.29806533728551793,0.22807063057960067,0.52258457925724999,0.49003900004546452,0.50164514720226983,0.033910496866589424,-0.22728600025284806,-0.59880208466505003,0.58293961680343831,-0.29687901256320937,0.2194720935858101,0.21909119494793738,0.46678497564580562,0.23567418128196727,-0.28296118995095171,-0.016556907171143678,0.73842024505509429,0.55871684290738299,0.69156775348249999,-0.44857825235341764,-0.10215290809436559,0.27825258616804238,-0.69193633910395547,-0.59371348355973497,-0.23356451570549241,0.44966284813190094,1.4146938304887577,0.017849689029485419,-0.28623558010915257,-0.24830873694674874,-0.017089878342734763,0.23860212832391578,0.78659620114924989,0.11840501512791038,-0.72744992146053389,-0.35032292315993896,0.22660840464292797,0.37225725136875337,0.19947537047683678,-0.21895710891843975,0.24275304069574846,-0.049727720261598343,0.42345179241801073,-0.13691496084683036,-0.46186910341812443,0.15180866642557247,0.42746069212584736,0.52981736380077604,-0.42326655257726387,0.24731112942356107,-0.71850023250984163,-0.063502740680748682,0.4315240470484446,0.61256193603734022,-0.28075374915499962,-0.4319404870691711,0.35103525109322653,0.66988435002285018,0.03572168557248781,-1.1282240937893533,0.14951499204985177,0.81770071680778211,0.51908999943945822,0.41767724687710056,0.13222546841826316,-0.030042984802924413,0.1902824621967879,-0.26087420749979878,0.059542276137297359,-0.44923222587120865,-0.00045767548167532999,0.2755670106752055,0.096500270942530969,0.23362419623352398,0.38365391330757342,-0.13180989802180076,0.18139773056812267,0.22073977484790033,0.74264105035434569,1.2839326847656771,-0.27348835342167654,-0.042589766650219282,-0.55906885722754518,-0.44823558906193967,-0.39058396000388967,0.048365298485055302,-1.0363515285741627,0.69768034790885813,0.77547760533250287,0.4258664012574207,0.16629099510819842,0.5793745493326804,0.068259735854690654,-0.57997474030005847,-0.40537729666414601,0.1799950184724165,-0.21144260679357538],"bias":0.38572019742130731},{"weights":[0.20013231488186647,0.40577486922637818,-1.8496982644045321,0.63478316499155529,0.85858786732310832,-0.48902700872822596,0.1288428973827572,-0.54471192933272161,0.47613439289613074,-0.20578325419478585,0.48732291225792068,0.36574878070128347,0.023631546008935453,0.12797497055483789,-0.45206526122293522,0.26586067054405327,-0.42478089806257996,-0.49067136796647465,-0.13971650238860836,-0.041416413394176246,-1.0252476767879914,-0.36947784311488946,0.16987578858891106,-0.03713368414262376,0.3150270996809143,0.25081406760030561,0.56524001816567349,0.040816889084538732,-0.16708063295540684,-1.2544068202960033,0.82674640209353378,-0.46547919234047097,0.26123351700242603,0.23354490889310944,0.45559872632299392,-0.30033754928975998,0.25731981047278202,-1.1403970886708703,-1.0682885075380928,1.427473405237073,0.01352523314229215,0.013098437420986578,0.3796738854602138,-0.55084029445164584,0.41110987419703082,-0.37598279329813883,-0.22567950422552369,-0.7394202553767053,0.11970913689009835,1.0366367598699089,0.044194370580534832,0.14874009476390357,-0.10989003456834003,-0.092017108619840249,-0.48319943905295037,-0.23475221639315774,-0.93070839126089222,1.5832748475305642,-0.28427093312164076,0.24260766308277684,0.037940976706181628,0.18943439751467619,-0.27962272104751817,-0.27058816074865388,0.49996045641710884,-1.3103183015631201,0.41033429662692372,1.2194927065947956,0.19427994879226723,0.17944528737079665,-0.48503591884071245,-0.67552175757985078,0.67823514657601347,0.49092683710732687,-0.88753471157874086,-0.041584987276619308,0.31665086402996084,0.15052034180854518,-0.32128387190463231,-0.36696930436394637,-0.21214644297381022,-1.0984152154805871,-0.59815348345817321,-1.3655151243870398,0.02700128078771085,-0.52935267069016623,0.78485074890603823,0.9547672735424515,0.84147316162815111,0.69215897574812668,-0.28265361556284535,0.12455660044884924,-0.81275977181620196,0.062321780128885881,0.17414001850836716,0.32697799138064354,1.0046368310960962,-0.5195605859280682,-0.41782523011355699,-1.008892447471087,1.1066399181716207,0.97429310853083495,-0.33425881136390456,0.26606102107086904,-0.47770256270754036,0.34300202562424953,-0.23011421440305938,-0.77469192364077233,-0.49422668998877128,-0.64754815861237169,-0.24409964743727908,1.9709232506713283,0.52782461502915179,-0.51283919565332825,0.2704192616983726,-0.16656440251402366,-0.89660035644726932,-0.14770776453042231,-0.30423694290030584,-0.30507875450873873,-0.42900551741763782,0.31710594207789966,0.06784252847234952,0.54373038079406144,0.017255100841564348,-0.088190625308949125,-0.22741072201679008,-0.90945370471868126,-0.83083403750322626,2.2580208895579634,0.23043124039843524,0.066515876745170482,0.17845173646712872,-0.71198467685346134,-0.18909092737156288,-0.093959545391875579,0.23083091229046612,-1.4831104496905934,0.55869606981093856,1.0666730829244324,-0.70367799433828793,0.72601141557852389,-0.57044067560770662,-0.11792580098204442,0.25855075564148028,0.0842405801523093],"bias":-0.21128992840583985},{"weights":[-0.58603104404279216,-0.38009726504181446,-0.2553886284253325,-0.4348568088660667,0.32920046305944856,-0.45283239129203534,-1.1017384764575697,-0.48796919506819048,0.54427223025169291,-0.1591126274329944,-0.4730446973143479,-1.4915543076075206,-0.88332934810977526,3.1205897464980583,0.14452904555224294,-2.0315256972317668,-0.76849170496458985,-0.33944167018316862,0.68847304130055831,-1.3292570988779346,-1.2930255224467966,-2.2005627296232682,2.1296101048203377,0.40911783245061861,-1.3758325726256244,0.08974958050636507,-0.036218748226835344,0.53867913939798096,-0.092785470757698246,-1.7229066074993631,-0.82407650881222716,0.39694062406553965,-0.059863931193190424,-0.81697395847540266,-0.1437346846787029,-0.1505922123365426,0.52389035329275113,-1.4171258942256859,-1.7176021025949961,-1.957721981546992,1.2029425730805239,0.85360248081463075,-0.44419679710748289,-0.61961278809510423,0.66286775829365674,0.48612886645377662,-0.38380541407165764,-2.4240439138082488,-1.5508934698458152,0.45117332693211537,0.16094821903960038,-0.40515195190443676,0.24937441148664219,0.55118382706399349,0.028864113860608186,-0.054514673853173851,-1.2366188323574381,-2.2232072825087004,0.68078017203312724,-0.26052725785208652,-0.96678632494601524,0.56337582517624696,0.60189974956799863,0.37925254166820327,0.42595964120891749,-1.8817861605954727,-0.9533534244634968,1.5050855282279332,-0.23121352024431169,-1.1235071267070942,-0.71329205771372128,-0.28251916911180502,-0.089113168622157152,-1.102054368616052,-1.7294697447251843,-0.063634482714118451,1.7273849428100274,0.68913654913366384,-1.2630640375747431,0.020241807030837666,-0.88534464768277432,0.81469357552908739,-1.5347516506476215,-1.0720831599824434,-1.422075417044381,0.82679544684960282,-0.16689786853465122,-1.0286460957975805,0.21824563071264469,0.58957648516095185,0.84846547209366019,-0.88716176194236052,-3.1806275967877586,-1.259326074029933,0.93662354345531262,0.44894038912428036,-1.1783744828117593,0.59526972516027321,0.6256013888458386,-0.94371049515115879,-1.2347941779854246,0.80875268686457891,-1.3105126288457534,1.8952888751950541,-0.036949881841220687,-1.8876394036569,0.065659218952187418,-0.38568422588320916,-0.67581730502916459,-0.80788067972922117,-1.519768328244447,-1.676936527823339,1.0365709830893439,0.38063870807520739,-0.37434106914462012,0.33478962493762332,0.39653517087406465,0.59096282476051176,-0.78712119180731377,-1.6021819387274394,-1.6815284545308318,1.460770509910343,0.24522865265535282,-0.96534187181250486,-0.31187075651865181,0.15415424455678567,0.28909666434848119,-0.46732369245613048,-2.3895799893389733,-1.1598546038484816,1.3962047721559523,-0.24077565728443365,-0.32948324764952502,-0.0010052417733756973,0.028928469227871307,0.52586772392475567,0.12096913503173214,-1.8874338410931517,-1.5228750414310548,0.86746606940073057,0.28757608325600842,-1.0447567060239142,-0.34560493685972171,0.10910894110779326,0.048609190219160742,-0.027303491909170984],"bias":-0.75247996615980073},{"weights":[0.075137099325105289,-0.17133029612863368,1.1085731985811378,-0.26457125689577971,0.48462393166547019,-1.4855086819575749,0.44068295433781912,-1.8174690615738804,-0.27621842277187181,0.0046160070736057778,-0.12187738555719312,-1.0730315179074073,0.90344086703435,0.27989746694593703,-1.2894999319576643,-0.20553029393488695,-0.1351975410422081,-0.24452671470149606,-1.1759156415861758,-1.2726776050284672,-1.111075798320845,-1.7982839794653322,-1.2147878543776165,0.93936215273067514,1.0895332451514088,1.6869440035273524,1.081975072605174,0.74235212736525447,0.29049786231043018,-0.69925943454815986,0.51631961266490201,1.2824218347807601,-1.5354762931617703,-0.64214221015204198,-0.76185776525750959,-1.1999167826510342,0.041635678543702301,-0.62357084950111219,-0.2639545780538865,0.55451392301638402,-0.46634315429261308,0.75939923022105726,-0.10377516196035838,-1.4141082593982468,-0.49505189034352293,-0.40424030409924955,0.86506816443530132,0.16113196818671086,0.82185538370277,-0.48756805235414524,0.17465298233540594,-1.2098951494686498,-0.42297556870358732,-1.315692879095818,-1.1531898472198285,-1.7474133637626181,-1.3247619526490173,-1.934032787919209,-0.01034993518830964,0.20193136561507674,1.5473233792620569,0.76322675229249626,1.7095672161639683,-0.25134042770850917,0.038849515223679888,0.26042694999763316,0.00013254419396167456,-0.12395269065065985,-0.5707418923066877,-0.29890736542865515,-0.45917659892226131,-0.50237483025390772,-0.047916827491291489,-1.0611932869778766,0.049189811298670019,0.57499673746665592,1.0871220045091681,-1.8441973258643187,-0.10146904027005473,0.29841704723821982,-0.95365065677931582,-0.3941641329370969,-0.10467550574031902,0.72167842881355104,0.87999100560196575,0.087665951750377058,-1.5478143793552772,-0.31466829460301832,0.12341703111113669,-1.3936489231999269,-1.9314406989538526,-1.8542032304536924,-0.42042334526042041,-0.59577457839095582,0.15545844982744267,1.1661967681151406,0.3599515104171942,0.59526957161029892,0.89326663162335507,-0.224321030414948,-0.040488101649893388,-0.14612931132441592,0.41357854151812184,-0.27943434455335553,-0.59220540794534349,-0.64777718019510044,0.19694576652163442,-0.60964820368233041,-0.1901721587218726,1.2214668835886522,0.54855554085462899,0.039944335696268873,1.5313239785435364,-2.1645348600914063,-1.149303576855546,-1.2034723460333998,-0.56145009566883242,-0.35009676321478017,0.64551512218326801,0.84772576921904985,0.6101409847846061,0.59903067195645954,-1.8387636211684155,-1.3713844468953691,-0.13177775103339393,-0.98398103255166947,-1.3885306799757606,-1.0899906935087664,-1.5651022990969867,-1.8201724292382131,-1.3119827193543252,1.1118680000341856,1.8512520080946215,0.83270291358767978,1.5425503376105607,-0.063562366268237191,0.30229048326414515,0.77304505059018447,-0.12648830823516244,0.77483636184549831,-1.2713993635450853,-0.91107918594631987,-1.1983373932151042,-0.10374282134256785,-0.36409224488274872,-0.26448918586976977],"bias":-1.4511054435273434},{"weights":[-0.85394950828560978,1.1505894301268906,-1.0747285714676804,-0.56850362064818483,0.2565437677040508,0.25650220235425714,0.40918284622020912,1.15130730174914,-0.45891688263730662,-0.64820522435420425,0.03465831100334018,0.54097645645044556,-0.18688300046342335,-0.41469958270969176,0.27077668013784123,0.035775360681325502,0.52721989065848718,0.16462347120895951,-0.060390930776189407,0.51605395320851966,0.14129745871911384,0.93285009527566576,-0.41423814507391826,-0.51930039437399789,-0.39160444765132468,0.60933622122239517,-0.47747050662936769,-0.28372393811560376,0.49817657141248384,0.70316567786518391,-0.4803743902120568,0.67960093831402102,-0.56381364606574425,0.19321949128530649,-0.57386757594802729,0.014128513334158222,0.41262330429954763,0.91225072140875674,-1.2232741691034086,-0.12758324757318043,-0.77960910019599816,0.16482875080230602,0.18002433432891068,0.57889147373528416,0.2349749657100518,0.051492345830639975,-0.17518409143824865,-0.35693109950409757,0.03775611355187912,0.37585455874242379,-0.037211031794280321,0.18899180998928991,0.19465667171620657,0.021449658210793351,0.24871430224252244,0.98843433093252919,-0.20092932926649573,0.48746700946121579,0.41910319566638721,-0.047376113760247501,0.15152849252975145,-0.65023494509286139,-0.93773226564939671,0.62065499504803734,0.25970318968500417,0.27735496006341226,-0.498172083697483,-0.086925517676227887,-0.74215518422921778,0.50648962456081836,0.28130674982063225,-0.23752351564642576,-0.94822003994890813,0.8445151601118378,-1.0547695090119584,-0.27231419632093667,0.44171877067139753,-0.075818146007601353,0.9071340080588759,0.51332666105627189,0.099475432967983612,1.3857322124195093,0.38334044825455871,-1.4410700752922678,0.31350485538439815,0.38981693447469695,0.30168328562224761,-0.42906961004448568,-0.10549502491586442,-0.2505865012758462,-0.0069262496286792577,0.59014122831768945,-0.57847253311006563,0.2800722612942384,0.18430647603889769,0.31043104610221373,0.15951015712407943,-0.18040256103470545,-0.42447056582170084,-0.23077272862787723,0.52849314879336307,0.063184287949714368,-0.98151456600919529,-0.42509466014465719,-0.60771204419347413,1.2726424033525723,0.46283275787109895,0.33873729478037101,-0.32376878350855454,-0.195535537058461,0.15047512670701013,-0.12647178935367157,1.2654302385350849,-0.61912192405308886,0.14420754661526,-0.17744372863063421,0.10271178288735015,-0.72998729804692575,-1.3305076926907646,-1.3721248355662563,-0.066279228390885542,0.64820085506581571,0.97805350586852469,0.46406985992541155,0.99612409454196604,0.66579926944112966,0.21535790294523299,0.51430961840080947,-0.66714470928842162,0.63158496230702876,0.3261417745987622,0.0099690517802063124,-0.48407512014270893,-0.15997847077896818,-0.034917724503218554,-0.97619358562505032,0.039163389823700517,-0.40219269545392261,0.86164725542242959,0.645955039868365,0.20521955477721196,-0.38137270916884763,-0.33386721863388291,0.59276560152538404,0.16409596948626787,0.096134548650667326],"bias":0.47132810851218082},{"weights":[-0.53657183504367945,1.1612619465851921,0.20609322481772832,-0.5878888880751777,-0.18593025920104359,0.27350627212987555,0.54318969760492397,0.075030321044960338,0.14114444600691736,-0.33726535696983434,-0.041779780411363134,0.70734742576839027,-0.33341868555132348,0.26240288651451738,-0.40435692419544134,0.51037601283538225,-0.29089630124780352,0.95482406148683041,0.3347992196646159,0.73000583856099188,0.22797184114565672,-0.59761866000526576,0.69677726251023564,-0.43624563943785966,-0.32488350116235515,0.38900200976875149,-0.071574884907193437,-1.3086002391161353,0.62966428073974279,0.58276292325921275,0.72366955091712748,0.52791368998173183,-0.44963605765378634,0.19422558539096849,0.29050066650764672,-0.16661712807504972,-0.16041720748817842,0.73064051888754888,0.04621734572653894,0.45899523837603673,0.08806287200780484,-0.65858629050363682,0.078379071956586915,0.10857771440233879,0.1789438611966882,0.26264929184643343,0.59461456157055526,-0.6138593301849874,-0.49216995764318122,1.1609338869817567,0.44501931128676525,-0.23734124523706684,0.22709210992229154,-0.49968911924912013,-0.31090015698929008,-0.42582456455578582,0.021244103480156245,1.1520806418580671,-0.09776259094568035,0.0048751335524560065,-0.048721036920258497,0.45985838361453146,0.13570220356372154,-0.35465652714313534,0.92420739141301322,0.23157856447319669,-0.57189622479806246,0.61280564220124323,0.67850818122512413,0.26862420294664846,-0.41570054189391931,-0.36274797183547103,0.3450702575352016,1.082122921496967,-0.85126722594547155,1.076976980662316,0.34904469754047368,-0.30156191985243758,-0.42280562823594298,-0.13542828217388744,-0.38740442010619525,-0.38495711615054268,-0.84808978036637384,0.6490680089101013,0.68810776409895125,0.47566607722851623,-0.13155034221461775,0.38204296085903899,-0.27838965288942608,0.37245480644345552,-0.14378669804582467,0.60582767368448898,0.086459417782662876,-1.8627709915706419,-0.16804843401817846,0.089117076805679277,0.41462926351728147,0.79424398646908667,1.1217349856852443,-0.064487312528440865,0.06451766903246349,-0.20096500771328116,0.24147975182498141,0.47931379808451979,-0.21053664611944198,-0.7008011584707371,0.89051655996361856,0.49454025074461744,-0.51897332100918314,-0.78519240168312687,-0.48043994591506178,0.79776302852351211,0.6692836989216715,0.8911223539394123,-0.27050932007208378,0.6386397809848573,0.0077380808809637365,-0.55003132894338258,0.82117599874593161,0.79219839794979718,-1.531764666466741,0.77886211694269425,-0.29582814355091747,-0.1316082074700122,0.84250824879790132,0.24356269443880468,-0.65835730681293236,0.80183620423610302,-0.25133894702275167,-0.027142173556577005,0.26181576985786836,0.019179441125811186,0.73005030934155635,0.3715041108475215,-0.37036127636669636,-1.0198046040245474,0.47701300013580888,-0.097606752995657783,-0.33026677998260667,0.20660603654830637,0.20925373465986405,0.072364766602604699,0.80471418890609114,0.558953169036699,0.44216693366497722,-0.11706187963496803],"bias":0.4655917350777326},{"weights":[-1.2067995209131765,0.76327874721956923,0.080110670594829722,-0.48032216183250181,-1.5505434092211894,-0.013408343758863838,0.041434341318553204,0.07497459062677396,-0.38862982563937881,0.40879409014059254,0.066697478663466259,0.046847282787392086,-1.0603899550585694,-0.80394344194748113,-0.46909283273619279,-1.3225124412255516,0.22770227438666937,0.15944947631833287,-0.75314419426081947,1.5875782052417011,-0.86059320670417794,-0.20880758633019333,-0.84496014790186691,0.78683477076383612,-0.22893499517228363,-1.3875518768922852,-0.71456999073234662,0.89401155484695061,0.33840692439080561,-1.0796979045763546,-1.4728468905426948,-1.5487584243466286,-0.29131371422705687,0.56739164375006002,-0.54254281728437737,0.37718944607660315,-0.72200711389686878,2.0612498702325497,-0.91729447633128125,-1.1984147651178179,-1.5898917245727111,0.26118196994407572,-0.26001950715149325,-0.29545896406728278,-0.17397650037590748,0.71820802088810354,-0.36865268726844236,-0.45164979438185404,-0.53726986941715726,-1.6911879342490794,0.50741315524192732,-0.46122299919167631,0.30092300840509362,-0.77523305906873319,0.38496574068995948,0.0050103481744605194,-0.6380247802670489,-1.4465496764104278,-1.3514074978519495,-0.23800369344935701,0.31352059016959166,0.080304602536724654,0.075073402990020979,-0.083008111828277442,0.53744323821024731,-0.13722661418497542,-1.1127834973550916,-1.0440341029364735,-0.50639233762469482,-0.42875031946789749,0.40483955141658057,-0.30062392442249569,0.53172006776981606,0.23003377288535487,-0.40187606370524698,-0.84904510506826703,-0.98993601339704818,-0.88943403118581021,0.23245037506172175,-0.039793933132021675,-0.49156089054199548,0.55090196667967195,0.74665673023284518,-0.30186407319700109,-0.90856020529217041,-1.819344950014943,-0.40831850207515102,0.35713134842002164,-0.59964589111970101,-0.48431280149045841,0.16034321473763008,1.0352249655653605,-0.10263504723360169,0.0092826222785717203,-1.8820798532028431,0.24079048173111001,-0.34961197552590245,-0.57268092075356347,-1.2509090362923629,0.3836858027152748,0.21847679172139031,0.60209733282119682,-1.1901069907273247,-0.76819606462244305,-0.5906004620007026,-0.45185770557624988,-0.30497450097571754,-0.65729565323414696,0.15678572635815102,0.23214308499134662,-0.61409779635930373,-0.75300035177039382,-0.40467161444972127,-0.30738057622324072,-0.053798165602766561,-0.19339170119036941,-0.94587912722054046,0.33325112115151595,0.023484551295682558,0.0013628405413391345,0.15957255097515513,-0.68982482203139783,0.019477006196762792,-1.1605788283770606,-0.65880535391331463,-0.81065211217417865,-0.53185199803499217,0.079532642333693379,-0.079402059165231076,-0.39154654925799182,-0.40928691214485646,0.66860826570204357,-0.47735734744167263,-0.99873409495184606,-0.67895060758511805,0.29899873984103364,-0.7091959852958839,-0.22359085836607304,-0.62999796600898128,-0.2269651811794697,0.09519639161562439,-0.56922377666377688,-0.086797739691303472,-0.57853045449405749,-1.4516940062139114,-0.18987762979830564],"bias":-0.87748669192170758},{"weights":[-0.26349032284371543,-0.59384120757040559,1.4656218812353523,0.78546955240573901,1.5119730450190811,-2.4378140290676069,-1.0517283336647125,0.10786717338185639,-1.4552931333696359,-0.49095564064086233,0.064783317664964618,0.69183707214559154,1.1024405011089569,0.37067959189836486,-1.5740231726812768,-1.3557781412684293,-0.65243643770213033,-0.42686800909862999,-0.60688333757196367,0.11911878549423875,1.0882479321824761,1.2029274765718316,0.46092900949639787,-1.9546676771887532,-0.61844369727188475,-0.55770628630489627,-1.1631349874033512,-0.23399720770080271,-0.93015050036502811,0.68558648207395789,0.63579475746180325,0.63884542847410264,-2.1310978244856771,0.091908374359773934,-0.90452974549150844,0.0093721503931158256,-1.8109509874970338,-2.7077005458416981,-0.79650444745497717,-0.81333078051658048,-1.9325946824724594,0.8629271384128574,1.9039619630672184,1.5261196214625832,1.7091930108646354,-1.8172172553294399,-0.6927149515743477,-2.0409347951335737,-2.0331757449557264,-2.3724603697062352,0.74366774083941289,2.1551538693296819,1.6942997596835878,2.264134861199977,-1.2163693989567552,-1.9852405965296391,-2.6642041830444643,-1.9958794710479595,-2.3995929743123989,1.8839314021573539,1.8363953023586308,2.0191877750555798,2.3233977855973822,-1.9301269987944287,-1.7255519272104145,-1.7629930218530268,-1.006756487303385,-1.4241627286426912,0.58037235537383636,2.1232992607112888,0.97410251165299722,2.048972836049741,0.021844151327033993,-0.8349865233567072,1.5760008831628511,-0.52286342170166322,0.66021090961835638,-1.635814598522612,-0.15818781778754809,-1.0151140634782954,-0.13144929055261839,-1.228604349321244,-0.40876379029618826,0.66507050682021684,0.92574261707366812,0.75974148594093438,-1.9088142030065884,0.29398447192020261,-0.22323044436347786,-0.80888461540043466,-1.0338238755534062,-0.55654300243438004,0.43602125454331381,0.61340887173344461,0.61542324922269498,-1.8085242749716575,0.66888709738530316,0.060885671499728282,-1.1110452459377704,-0.081409220215518066,-0.43852892398633114,1.2117156697521161,0.2771814475249379,0.30990835837531244,-1.9486704072920855,-0.56231293495990231,-1.5378540821459807,0.63282114921755095,0.47461265526048441,-0.75805677332555199,1.6041809249407613,1.0213150446951191,-0.14907277113733181,-2.099097220757558,-0.50970173355973936,-0.87577142013031395,-0.83952445854609392,-0.33668222417211596,0.025359978235575582,0.40765573600765775,0.66520688833799069,0.78157017799132344,-2.9498494376174906,0.19214404411246808,-0.1541625604448188,-0.65970489710442048,-0.27503416193058916,0.40240131774159921,0.98468824743979877,0.59793977399097142,-0.08837222098236322,-3.1767129662206042,0.73855027677227103,0.20057169808947226,-1.4317359578358586,-0.37284618939725045,-0.68020700248573274,1.2274546636272714,0.0046618944192325287,0.21329303831202329,-2.2203745695305623,-0.58772750773958293,0.04805899041665268,0.33740514027968566,-0.43498563864419298,-0.31457737881733616],"bias":-2.5619906561353853},{"weights":[0.40139663243171397,0.81642497325879704,0.060012961269381986,-1.2458783440284533,-0.064590861000516503,0.27182043623103036,-0.078796199072128148,0.037534471610497985,-0.32185961678099451,0.66053348764676079,-0.33528148489177184,0.096129783939952973,-1.0341657610691948,-0.47039789755651246,-0.2080283591865924,-0.17506611835804359,0.77298848465387449,0.43125411778699718,0.16568414063795028,0.68379882994150587,0.22976510033920761,-0.47480620779782923,-0.23087572299321565,-0.27407035648154027,-0.41567610562254487,0.4510233662238084,-0.42331766945270632,-0.41677333294230051,-0.29503459174954355,1.3860182931169116,0.40724791613075706,0.0059602084218383158,-0.06138886160393283,-0.4849394137179861,-0.32585372277427327,-0.40489632000619402,-0.10787977608117677,-0.073267758853771153,-0.12978031097577536,1.9461067871508162,-0.18255624313099009,-0.0012824507245717874,-0.52653681066123148,-0.62976903387505145,-0.37871185275150404,-0.48953944583036091,0.68725495394148772,-0.19823472461186631,-0.50080271341269855,-0.159456024193979,0.41414537531856177,0.090646606943701025,0.12161601907863862,-0.16476376014777275,0.65965320721161202,0.060508949810083514,0.059436894007439185,0.38532410023626218,0.24515276982686221,-0.52334715196865389,-0.52698239841840966,-0.16463048915395942,-0.28838423965690646,0.10367737391882829,-0.44727422308953246,-0.20133987630036129,-0.59165493171373795,0.071803633524353372,0.13853824305082088,0.3433596535720565,0.25031846049293677,0.09360660068728989,-0.35955798312502357,0.089303463917743589,0.25446096588567196,0.0042761362133762575,-0.16164255131294508,-0.26362155029861817,-0.23679514606924301,0.34553792247966381,0.24201885143560078,-0.41786877398967753,-0.8492555350672315,-1.0969615194805069,-0.58252875121890479,-0.22520175775995091,0.37109707696657573,0.66880581807084005,1.3356288814502077,0.63315533069684193,-1.3373296485937676,0.47435292486020653,0.039912521527469519,-0.40486552814484078,-0.0064218036316929994,0.1655521995286644,0.16762443568934013,0.15006797435074631,0.58025458548945696,-0.076081795552652529,-0.015264862771067403,-0.43343272155058504,-0.47678114277428535,-0.086364518056765593,-0.29767603866573483,0.741964744747587,0.8493632081082082,-0.42222027947910945,0.27986348714807874,-0.69686290820011543,0.6555809083155566,-1.132246939491705,-0.84103480978402256,0.32254903634241283,-0.15794231454832339,0.97510278890508217,0.48594184287356135,-1.4616878464382668,1.1586418275857184,0.2812764407039739,0.0071388621887929719,0.60151733174197519,-0.25928233544458429,-0.43020628792727245,0.28639842725669734,-0.35552769855735233,0.39898787894413362,-0.66901052348166767,-1.1059269765570263,0.64404553903438932,-0.026621738625207586,0.23961843485339232,-0.33687465911609948,0.414837330310596,0.19210477767535122,-0.030207013972243388,-0.34519309954001143,-0.021566330553013425,-0.055945857474018014,1.0805791425643549,-0.10226582781032567,0.14587846933127616,-0.24423784588534159,-0.57785236909607052,0.20208313673027767,-0.25576428996694023],"bias":-0.29611980059885784},{"weights":[-0.30075099317963866,-0.1913363150322285,0.85372948453263309,0.17255437235582283,0.28565564501101864,-0.44362522100539969,0.18147626106534134,-0.42774044965229874,0.3985075403697953,-0.56821248664633517,0.25353178252981673,-0.24830648577745484,0.99245380525289861,-0.11492043519942065,0.45402483471684252,0.26914921885253407,-0.16057335778752163,-0.36476144308400149,-0.29210376290108864,-0.056837859922634439,-0.40196523880096124,1.3078291529575479,-0.046021418061800726,0.57920628987498723,0.1895885621960208,-0.39086375035528942,-0.41834111371834326,0.4353974780344308,-1.1481042163669113,0.91178114632630036,-0.23739052484099621,-0.52809299820135702,0.24640174881421692,0.17545977648906505,0.48670984492770553,0.17222770297787951,-0.23619349171736181,0.34157027114093741,0.028292152950090382,0.54788514124084164,0.8379153593591403,0.20164247025417165,0.35573832087793816,-0.69005814669215504,-0.76291275056913577,0.11374805167643075,-0.47741741383763686,-0.087775899240510935,-0.20089213612585652,0.13713084349720497,-0.35099689443699622,0.50353457941319202,0.87986583012895958,0.11275434515315605,0.37574187712568219,-0.0030576954828026538,-1.3526286056970138,0.10943447863538117,-0.1313719772940469,0.13740462922119778,0.27344283040634249,0.59928813601470698,0.50057950151773667,-0.32207302876051802,-0.026742484622186001,0.057963710844828133,0.5299808399609155,0.15713922234807565,0.16238522625334276,0.062689440756295817,-0.22249024617926519,0.22112785208255822,-0.20373140258177636,-0.52687217390948871,0.24651074597584866,0.6344518398701825,0.2526393229792549,0.10807210960869845,0.11007094226418117,-0.37904666484194383,0.25448129801150782,0.40138141535178662,-0.52105476330232647,-1.0210440942418937,-0.95932844602389056,-0.12765415245466075,0.34765148683694386,0.63689435646612191,0.94260091780742805,1.0545233677016963,0.063232820664690673,0.2278902750896975,-0.29166619593862064,0.037725908205906919,-0.27473640344838729,0.20556083940041531,0.42327856042731371,0.27940988537864458,-0.086264975480547942,-0.10154851646405211,-0.18411963466362122,0.43233467115400487,0.77484803748813014,-0.51693740297424806,-0.74434014521014291,0.21417434322643564,0.51555173642494145,0.2477122425308107,0.64075370744005944,-1.012390485642815,0.537101541304705,-0.23588518211733916,0.53321349469084067,-0.16732295896036448,0.44214239788564902,0.020087373411986905,-0.04679063378260382,0.024101042458680659,-0.44588225953695554,-0.19697937485757072,0.51122212159415659,0.075117229093650623,-0.18071589670232971,0.080418679109491728,0.25024865183063244,0.55615369390710234,-0.20380588746924216,-0.66404312335324622,0.025531774819816881,0.65997575485083426,-0.69997034250285961,0.31284574656982561,0.76217678385579957,0.1741459734184431,0.24542104701177384,-2.3850105091769933,0.8997030762240944,1.1807513107541352,0.62835651848774121,1.4058054123308072,-0.058899104654752968,-0.73559942241619014,-0.17202491273172657,-0.18620415245649327,0.26716579894765075,0.19555933932379585],"bias":-0.21887263377755448},{"weights":[-0.21275853635488021,-0.78994638937964923,0.16646023896840303,1.3492580145311437,0.55837238274516077,1.4822630811898134,-0.042726717906919003,0.64266576671553599,1.2313865208157584,-0.28575601996490618,-0.34290893409393075,-0.28382377266975489,0.51447132853984778,-0.17007253015690146,2.2439730149800003,1.7868540336687948,0.02161355561115454,0.9665347911707487,1.7815430046576999,2.7487964575375354,1.2201630987387311,1.6095774618859133,1.7687402160005774,0.31793144572560122,-1.840965086250604,-1.5590333750062377,-1.5066013278686488,0.44991637690257014,-0.13763548152466351,-0.032158029282857853,-0.61958381534635087,-0.11783528935881446,2.6757723396785642,1.2051568214063799,1.5150854231862578,-0.30246824920742788,0.46090077215263875,0.43379913792816943,0.19527815422903927,-0.3122829258137933,-0.57695223938651574,2.3159826408457951,-0.9302806271352384,1.2747444909448808,1.6162628329105608,0.81835848200741568,-0.59482049092019751,0.74386660363921309,0.2536663892569147,-0.50852043858135265,1.0916729975547086,1.8211800582623281,0.31387129907421052,0.55298753696329672,1.218194336953927,1.6166678734202886,2.9899631882448943,0.78062297641228839,2.8595284227798197,-0.37933854184576277,-1.2681959154956659,-1.7384214522673322,-1.5541769255578957,-0.011949776544693624,-0.25823387549379878,0.055533930410738216,0.37581702240648746,-0.19123869788800199,0.34411112003861044,1.8049674867987986,-0.12886124272123234,2.3979123830025748,0.45119780312025115,-0.11336557011693946,-0.20837126722486882,-0.17863083562898185,1.0205981071419743,2.3961901454955599,-0.97398588044855705,0.487541788780811,1.6058223057477552,0.57211632740792007,0.50635678441208354,-0.36387145028018841,0.15166054324387018,-0.31948951113910401,2.4123878197859323,0.24262977346714215,0.27111499137666778,1.067988527552056,1.4448881878657063,0.63915652446776161,1.9659594310128543,2.528831515987926,3.6807759619955074,-0.4924565102489345,-1.7602355782947199,-1.8598460183173586,-1.838583427551892,0.70426951312627861,0.34024061430334079,-0.52232693428013566,0.2086143579432026,0.69098957083361401,1.4417311450786727,0.7501838026789075,0.60176727009095254,0.24704849242154023,-0.55557262332745283,-0.10309808216437252,0.9951132038434255,-0.22340761397601788,-0.84669167034084447,2.1076193418703864,0.18411725490231107,1.3536705990106677,1.7026094054579233,-0.62962272171973688,-0.54239301236810222,-0.068314886029746849,1.0218343231322742,0.47734964087966048,2.6212009386586015,-0.21752358320678214,1.0651831096913054,0.72589940265016439,1.1326514437318527,3.5908587735282165,2.8421541201621716,1.1322452002952363,2.7007331513633326,-1.0627937539833221,-2.3397277506659546,-1.8190315562962136,-1.576572388021779,-0.15456532032006598,-0.52124541595314433,-0.56846859478490419,0.3452148040436302,-0.31910519499738854,2.6950287997350189,0.92552535432358163,1.5231613420741252,0.70534256130566853,-0.24232859741605908,-0.44797630881270534],"bias":3.2616284623087441},{"weights":[-0.31404259061800133,-0.23000238334373138,0.92781735581031333,0.13528129114864229,0.047540639397210364,0.013285778636460735,0.22176312366072062,0.18097610281406623,-0.018294488393223927,-0.30861610732299605,0.0194582525948074,0.10417548873526497,0.33485552321365469,-0.61144792767237288,0.83046499352163905,0.20597578326875515,0.38218308920098881,-0.082030049752986514,-0.4915849341105169,0.11647747789485374,1.0144107621071348,0.75310569361290769,-0.061890120717621226,-0.40891447437986445,-0.26705083892766146,-0.06837368141859658,0.34459957682779369,-0.69964760598202902,-0.08134073794839948,1.4605934460709498,0.787866946724739,-0.58774895323607501,0.20929486660197477,0.25596485823677295,-0.33530912416183473,-0.094834432989225198,-1.0105789838246892,-1.0187835271866306,-0.21925059063050908,-0.28548824299659503,0.57529012556844505,0.30483982633207535,0.10551319056313883,1.0800138052502164,1.210725593219891,-1.0974870863549377,0.033597273833137938,0.38068469644616226,-0.63936246064328361,0.50345963049371767,-0.056509304066413364,1.1060649431219043,-0.19953772632100994,0.88872360675589268,-0.41946400154570435,0.74478998373758465,-0.7741106661327376,-0.23883110211798797,-0.049900906560983914,0.26027916301187332,0.57335330390595207,0.20315552259737993,0.6004505844090644,-0.55902907161803705,-1.0097546768065122,0.02571101530771551,-0.27511423698716403,-0.45836739380204367,0.1942488989680807,0.57385711236734616,1.1206873692567783,1.169564778032355,0.21536414357407691,0.1893063001693179,0.12196171183377816,0.76224023192551227,0.54407292626580595,-0.70647872509860021,-0.061348871749223807,0.1507911546595774,-0.42147557167888378,-0.0098893620414867121,0.57196723390407667,0.75184260289548144,-0.03275405305947679,0.25129519223287383,-0.58944615887100316,-0.045956190395423431,0.76095211162737098,-0.84282475782871402,0.33601332087740721,0.32240136395295838,0.78089440693762857,-0.33829364081494229,-0.11636818313351398,-0.08711869547580943,-0.25311080254398427,-0.039217591120069784,0.27393734516959212,-0.68818022032989001,0.22616485380975812,0.97481471908520356,0.28940508405575932,0.048690464481123533,0.54660477351718517,0.19171348056339813,0.11064900301020648,-0.82749760649794935,-0.78296611996665777,0.34046875870290705,1.3349602166159338,-0.10489477729512606,1.0282633718934979,-0.18652634360299802,-0.74374586061752912,0.014176936920742612,0.018539001113809194,-0.050889229132372787,0.25638577429964349,-0.41199249328967502,0.30412461549792524,-0.80761430183580241,0.78749500090215907,0.54320089337728183,-0.17073987775707589,0.39089009391365886,-0.26061530081926609,0.20875010712312875,0.42792143891357631,0.39360904082475989,0.68561188467681644,-0.53535152182892909,-0.135897700406858,-0.1474791097867062,0.38571298457670955,-0.32944953080997746,0.49027981140756616,0.11844750958708987,-0.022191414502495298,1.2060071046593315,-0.009791595178080691,-0.028343381767950371,-0.30641979260768692,-0.33712760594682206,0.0079495899075006371,-2.7617651756062223e-05],"bias":0.5415371101677261},{"weights":[0.094610662378702512,0.79152647740587712,-0.69329524667871123,-1.8328214183443257,-1.5292309082040365,-0.57935834351478288,-0.40037622518179306,-0.14792100064601393,-0.37285687607901058,0.48113677524249482,1.1912280745576755,-1.1823749304874911,-1.2051993863110875,-1.4661563562508699,-0.94058686720971185,-0.74530557475959325,-0.41609386979604557,-0.49054318177753664,0.24396423434717676,1.1748558898608774,-0.97345716346470224,-0.81326558638039115,-1.6668967729352282,-0.063882998545315289,-0.34126187470918323,-0.82899544136066061,-1.5147525323330555,-0.6149084447090577,0.94729828684928963,-0.79980722952191974,-0.88485433860820717,-0.26188521801392306,-0.92097454395704392,-0.80949937329547417,-0.33120206289612952,-1.0584662811564955,0.33487211538733441,0.78240994564583954,-0.24502084675238944,-1.9606073322679527,-0.85221826168362924,-1.3254438511726734,-0.65991441180267407,0.24486794339645665,-1.0268847178010494,1.678230353986367,0.52826550524497173,-1.7330230141613419,-2.6013142671245699,-4.2537413778877271,0.55442406469426619,-0.14020141329637087,0.092307407106674039,1.1561021667786953,0.4280865137220824,0.81145157126478484,-0.85369820380540329,-2.1039253908405082,-0.7165671516815123,-0.59774416821899523,-0.62656419282186415,-0.77681359445974729,-0.27022208818729665,0.96153130514092777,0.54595770613724415,-0.34996506768651969,-1.9478551811347531,-0.60419903458540836,-1.1537068907752304,-1.1716262212188189,-0.19958174221709429,-1.0033462262114414,0.56913116480456449,1.3951067978647615,-0.86597783267706419,-0.89158099660267942,0.04385948725639973,-0.78677731901884729,-0.80234805749720628,-1.9881955382742109,-1.4966703301270234,0.24661985077167284,0.64224523312091664,-0.35085199308928428,-1.4590970166015946,-0.41539770020917366,-0.90100852057388769,-1.3012075603375484,-0.77330096002873006,-0.34034795835472342,0.23584889567339462,0.49079357366201326,-0.33278918434739246,-1.2080305299516265,-0.4090500326395301,-0.76121923000997826,-0.92518936978386801,-1.4024786389125343,-0.50462549565070813,0.56208712342453659,0.83040967702999369,0.24288260691394134,-0.98261825578410733,-1.1912500766581853,-1.1837406230392999,-0.70397630713581416,-1.791729245751186,-0.53592092871151564,0.49869102927512932,-0.012014014502852154,-0.3313433029757169,-1.5962732670675785,-1.5601148550312383,-0.52460171434504232,-0.011649292265479717,-0.73697498425693131,-0.44344839159311322,0.43443172655994333,-0.034684764810142647,0.77323555445707226,-1.8952172560302423,-1.0870858839149451,-1.1357601649243401,-1.0152968433901606,-0.33790674895344813,-0.42671644838425032,0.78059036276756433,0.081315702574116022,-0.29465484898721017,-1.4933086939060034,-0.82751564558829527,-1.5182969077673849,-0.40221187978427775,-0.83543801783564398,-0.29066477422741932,0.40197974336563824,0.10764489160195458,0.027139600548948203,-2.8721116263840214,-1.0327764954267704,-1.2697572247810607,0.20372695838181465,-0.077437810834660975,-0.30590683013328951,-8.0668690030933661,-0.044626061201955725],"bias":-1.2660271978425748},{"weights":[-0.68399743682699388,0.79715476182680711,0.49160594387147416,-0.12810572964048669,0.023588930307475043,-0.1850788604233902,-0.43843974587823697,0.38080831831876272,